{"learner":{"attributes":{},"feature_names":["elo_diff","fifa_rank_diff","squad_value_ratio","host_advantage","host_vs_away","momentum","opponent_momentum","momentum_diff","overperformance","opponent_overperformance","overperformance_diff","rest_days_diff","extra_time_diff","cumulative_mins_ratio","goals_scored_per_match","goals_conceded_per_match","goal_diff_per_match","clean_sheet_rate","comeback_rate","goal_consistency","stage_importance","stage_is_knockout","stage_is_r16","stage_is_qf","stage_is_sf","group_pts","group_pts_per_match","group_position","same_confederation","team_is_uefa","team_is_conmebol","opp_is_uefa","opp_is_conmebol","elo_diff_abs","elo_ratio","is_top5","opp_is_top5","coming_off_close_loss"],"feature_types":[],"gradient_booster":{"model":{"cats":{"enc":[],"feature_segments":[],"sorted_idx":[]},"gbtree_model_param":{"num_parallel_tree":"1","num_trees":"200"},"iteration_indptr":[0,1,2,3,4,5,6,7,8,9,10,11,12,13,14,15,16,17,18,19,20,21,22,23,24,25,26,27,28,29,30,31,32,33,34,35,36,37,38,39,40,41,42,43,44,45,46,47,48,49,50,51,52,53,54,55,56,57,58,59,60,61,62,63,64,65,66,67,68,69,70,71,72,73,74,75,76,77,78,79,80,81,82,83,84,85,86,87,88,89,90,91,92,93,94,95,96,97,98,99,100,101,102,103,104,105,106,107,108,109,110,111,112,113,114,115,116,117,118,119,120,121,122,123,124,125,126,127,128,129,130,131,132,133,134,135,136,137,138,139,140,141,142,143,144,145,146,147,148,149,150,151,152,153,154,155,156,157,158,159,160,161,162,163,164,165,166,167,168,169,170,171,172,173,174,175,176,177,178,179,180,181,182,183,184,185,186,187,188,189,190,191,192,193,194,195,196,197,198,199,200],"tree_info":[0,0,0,0,0,0,0,0,0,0,0,0,0,0,0,0,0,0,0,0,0,0,0,0,0,0,0,0,0,0,0,0,0,0,0,0,0,0,0,0,0,0,0,0,0,0,0,0,0,0,0,0,0,0,0,0,0,0,0,0,0,0,0,0,0,0,0,0,0,0,0,0,0,0,0,0,0,0,0,0,0,0,0,0,0,0,0,0,0,0,0,0,0,0,0,0,0,0,0,0,0,0,0,0,0,0,0,0,0,0,0,0,0,0,0,0,0,0,0,0,0,0,0,0,0,0,0,0,0,0,0,0,0,0,0,0,0,0,0,0,0,0,0,0,0,0,0,0,0,0,0,0,0,0,0,0,0,0,0,0,0,0,0,0,0,0,0,0,0,0,0,0,0,0,0,0,0,0,0,0,0,0,0,0,0,0,0,0,0,0,0,0,0,0,0,0,0,0,0,0],"trees":[{"base_weights":[-7.287147E-2,-6.045681E-2,7.538894E-2],"categories":[],"categories_nodes":[],"categories_segments":[],"categories_sizes":[],"default_left":[0,0,0],"id":0,"left_children":[1,-1,-1],"loss_changes":[4.8093704E1,0E0,0E0],"parents":[2147483647,0,0],"right_children":[2,-1,-1],"split_conditions":[3.0794593E-2,-6.045681E-2,7.538894E-2],"split_indices":[34,0,0],"split_type":[0,0,0],"sum_hessian":[2.4779234E1,1.4589643E1,1.0189591E1],"tree_param":{"num_deleted":"0","num_feature":"38","num_nodes":"3","size_leaf_vector":"1"}},{"base_weights":[-0E0,-1.0197755E0,1.2360783E0,-6.6796E-2,-2.689558E-2,3.63125E-2,7.4999854E-2],"categories":[],"categories_nodes":[],"categories_segments":[],"categories_sizes":[],"default_left":[0,0,0,0,0,0,0],"id":1,"left_children":[1,3,5,-1,-1,-1,-1],"loss_changes":[3.373074E1,1.3281622E0,3.1537628E-1,0E0,0E0,0E0,0E0],"parents":[2147483647,0,0,1,1,2,2],"right_children":[2,4,6,-1,-1,-1,-1],"split_conditions":[3.860501E-2,-1.18462875E-1,5E-1,-6.6796E-2,-2.689558E-2,3.63125E-2,7.4999854E-2],"split_indices":[34,34,5,0,0,0,0],"split_type":[0,0,0,0,0,0,0],"sum_hessian":[2.4760328E1,1.3665683E1,1.10946455E1,7.0562444E0,6.609438E0,5.1932383E0,5.9014072E0],"tree_param":{"num_deleted":"0","num_feature":"38","num_nodes":"7","size_leaf_vector":"1"}},{"base_weights":[6.1224446E-2,-5.568672E-2,1.1898043E0,3.3254247E-2,7.417865E-2],"categories":[],"categories_nodes":[],"categories_segments":[],"categories_sizes":[],"default_left":[0,0,0,0,0],"id":2,"left_children":[1,-1,3,-1,-1],"loss_changes":[3.796586E1,0E0,1.0517464E0,0E0,0E0],"parents":[2147483647,0,0,2,2],"right_children":[2,-1,4,-1,-1],"split_conditions":[4.67E1,-5.568672E-2,1E0,3.3254247E-2,7.417865E-2],"split_indices":[0,0,26,0,0],"split_type":[0,0,0,0,0],"sum_hessian":[2.6626064E1,1.3008024E1,1.361804E1,6.1814046E0,7.436636E0],"tree_param":{"num_deleted":"0","num_feature":"38","num_nodes":"5","size_leaf_vector":"1"}},{"base_weights":[6.500199E-3,-5.704729E-2,9.5102257E-1,2.1510422E-2,5.7162877E-2],"categories":[],"categories_nodes":[],"categories_segments":[],"categories_sizes":[],"default_left":[0,0,0,0,0],"id":3,"left_children":[1,-1,3,-1,-1],"loss_changes":[3.2054733E1,0E0,9.803877E-1,0E0,0E0],"parents":[2147483647,0,0,2,2],"right_children":[2,-1,4,-1,-1],"split_conditions":[-3.87E1,-5.704729E-2,1.694E2,2.1510422E-2,5.7162877E-2],"split_indices":[0,0,0,0,0],"split_type":[0,0,0,0,0],"sum_hessian":[2.7592907E1,1.23164835E1,1.5276423E1,5.131632E0,1.0144792E1],"tree_param":{"num_deleted":"0","num_feature":"38","num_nodes":"5","size_leaf_vector":"1"}},{"base_weights":[2.678592E-2,-9.747717E-1,6.5603875E-2,-6.3740835E-2,-2.3258064E-2],"categories":[],"categories_nodes":[],"categories_segments":[],"categories_sizes":[],"default_left":[0,0,0,0,0],"id":4,"left_children":[1,3,-1,-1,-1],"loss_changes":[3.4380775E1,1.5216475E0,0E0,0E0,0E0],"parents":[2147483647,0,0,1,1],"right_children":[2,4,-1,-1,-1],"split_conditions":[1.309E2,-1.923E2,6.5603875E-2,-6.3740835E-2,-2.3258064E-2],"split_indices":[0,0,0,0,0],"split_type":[0,0,0,0,0],"sum_hessian":[2.4688059E1,1.3967634E1,1.0720425E1,7.722849E0,6.244786E0],"tree_param":{"num_deleted":"0","num_feature":"38","num_nodes":"5","size_leaf_vector":"1"}},{"base_weights":[3.2077987E-2,-1.0365779E0,5.076417E-2,-6.177464E-2,-3.1044578E-2],"categories":[],"categories_nodes":[],"categories_segments":[],"categories_sizes":[],"default_left":[0,0,0,0,0],"id":5,"left_children":[1,3,-1,-1,-1],"loss_changes":[3.015246E1,1.8155861E-1,0E0,0E0,0E0],"parents":[2147483647,0,0,1,1],"right_children":[2,4,-1,-1,-1],"split_conditions":[3.99E1,-2.258E2,5.076417E-2,-6.177464E-2,-3.1044578E-2],"split_indices":[0,0,0,0,0],"split_type":[0,0,0,0,0],"sum_hessian":[2.6697668E1,1.2718169E1,1.39795E1,7.10536E0,5.6128087E0],"tree_param":{"num_deleted":"0","num_feature":"38","num_nodes":"5","size_leaf_vector":"1"}},{"base_weights":[-3.0293033E-2,-5.4446537E-2,1.0234824E0,1.8158829E-2,7.416883E-2],"categories":[],"categories_nodes":[],"categories_segments":[],"categories_sizes":[],"default_left":[0,0,0,0,0],"id":6,"left_children":[1,-1,3,-1,-1],"loss_changes":[2.9763212E1,0E0,3.326127E0,0E0,0E0],"parents":[2147483647,0,0,2,2],"right_children":[2,-1,4,-1,-1],"split_conditions":[3.0794593E-2,-5.4446537E-2,4.189189E-1,1.8158829E-2,7.416883E-2],"split_indices":[34,0,5,0,0],"split_type":[0,0,0,0,0],"sum_hessian":[2.4675E1,1.2339799E1,1.23352E1,5.888196E0,6.447004E0],"tree_param":{"num_deleted":"0","num_feature":"38","num_nodes":"5","size_leaf_vector":"1"}},{"base_weights":[7.580817E-2,-5.531552E-2,1.0280794E0,3.000637E-2,6.7371756E-2],"categories":[],"categories_nodes":[],"categories_segments":[],"categories_sizes":[],"default_left":[0,0,0,0,0],"id":7,"left_children":[1,-1,3,-1,-1],"loss_changes":[3.0659304E1,0E0,1.0594673E0,0E0,0E0],"parents":[2147483647,0,0,2,2],"right_children":[2,-1,4,-1,-1],"split_conditions":[-2.2681983E-2,-5.531552E-2,1.6986963E-1,3.000637E-2,6.7371756E-2],"split_indices":[34,0,34,0,0],"split_type":[0,0,0,0,0],"sum_hessian":[2.5232405E1,1.1138572E1,1.4093832E1,7.3870893E0,6.7067432E0],"tree_param":{"num_deleted":"0","num_feature":"38","num_nodes":"5","size_leaf_vector":"1"}},{"base_weights":[-9.625854E-2,-8.8826454E-1,8.6785144E-1,-5.8527794E-2,-2.4666585E-2,2.5290865E-2,5.2577037E-2],"categories":[],"categories_nodes":[],"categories_segments":[],"categories_sizes":[],"default_left":[0,0,0,0,0,0,0],"id":8,"left_children":[1,3,5,-1,-1,-1,-1],"loss_changes":[2.0677288E1,9.130478E-1,1.240387E-1,0E0,0E0,0E0,0E0],"parents":[2147483647,0,0,1,1,2,2],"right_children":[2,4,6,-1,-1,-1,-1],"split_conditions":[6.52E1,-1.16952404E-1,1E0,-5.8527794E-2,-2.4666585E-2,2.5290865E-2,5.2577037E-2],"split_indices":[0,34,15,0,0,0,0],"split_type":[0,0,0,0,0,0,0],"sum_hessian":[2.5067137E1,1.3862024E1,1.1205112E1,6.790876E0,7.0711484E0,5.2183313E0,5.9867806E0],"tree_param":{"num_deleted":"0","num_feature":"38","num_nodes":"7","size_leaf_vector":"1"}},{"base_weights":[6.424197E-2,-7.950411E-1,8.5900456E-1,-5.5025484E-2,-2.2003924E-2,1.8147454E-2,5.510459E-2],"categories":[],"categories_nodes":[],"categories_segments":[],"categories_sizes":[],"default_left":[0,0,0,0,0,0,0],"id":9,"left_children":[1,3,5,-1,-1,-1,-1],"loss_changes":[1.8294758E1,7.544966E-1,1.1336737E0,0E0,0E0,0E0,0E0],"parents":[2147483647,0,0,1,1,2,2],"right_children":[2,4,6,-1,-1,-1,-1],"split_conditions":[4.67E1,-2.258E2,1E0,-5.5025484E-2,-2.2003924E-2,1.8147454E-2,5.510459E-2],"split_indices":[0,0,25,0,0,0,0],"split_type":[0,0,0,0,0,0,0],"sum_hessian":[2.477939E1,1.1845776E1,1.2933614E1,5.0864654E0,6.7593102E0,5.2087812E0,7.7248325E0],"tree_param":{"num_deleted":"0","num_feature":"38","num_nodes":"7","size_leaf_vector":"1"}},{"base_weights":[1.549803E-1,-7.620128E-1,4.79565E-2,-5.43976E-2,-1.8106543E-2],"categories":[],"categories_nodes":[],"categories_segments":[],"categories_sizes":[],"default_left":[0,0,0,0,0],"id":10,"left_children":[1,3,-1,-1,-1],"loss_changes":[1.936366E1,1.0631757E0,0E0,0E0,0E0],"parents":[2147483647,0,0,1,1],"right_children":[2,4,-1,-1,-1],"split_conditions":[3.0794593E-2,-1.16952404E-1,4.79565E-2,-5.43976E-2,-1.8106543E-2],"split_indices":[34,34,0,0,0],"split_type":[0,0,0,0,0],"sum_hessian":[2.4241507E1,1.129246E1,1.2949046E1,5.1356745E0,6.156786E0],"tree_param":{"num_deleted":"0","num_feature":"38","num_nodes":"5","size_leaf_vector":"1"}},{"base_weights":[1.5174108E-2,-5.014229E-2,7.3676807E-1,1.4813267E-2,5.341178E-2],"categories":[],"categories_nodes":[],"categories_segments":[],"categories_sizes":[],"default_left":[0,0,0,0,0],"id":11,"left_children":[1,-1,3,-1,-1],"loss_changes":[1.860217E1,0E0,1.72054E0,0E0,0E0],"parents":[2147483647,0,0,2,2],"right_children":[2,-1,4,-1,-1],"split_conditions":[-3.99E1,-5.014229E-2,5.8E-1,1.4813267E-2,5.341178E-2],"split_indices":[0,0,1,0,0],"split_type":[0,0,0,0,0],"sum_hessian":[2.3353373E1,9.467849E0,1.3885525E1,6.9048433E0,6.980681E0],"tree_param":{"num_deleted":"0","num_feature":"38","num_nodes":"5","size_leaf_vector":"1"}},{"base_weights":[2.8049339E-2,-8.630818E-1,9.6168876E-1,-2.6809156E-2,-5.6092996E-2,2.835304E-2,5.711622E-2],"categories":[],"categories_nodes":[],"categories_segments":[],"categories_sizes":[],"default_left":[0,0,0,0,0,0,0],"id":12,"left_children":[1,3,5,-1,-1,-1,-1],"loss_changes":[2.1995329E1,3.7317848E-1,1.0408497E-1,0E0,0E0,0E0,0E0],"parents":[2147483647,0,0,1,1,2,2],"right_children":[2,4,6,-1,-1,-1,-1],"split_conditions":[3.0794593E-2,1E0,1.41044E-1,-2.6809156E-2,-5.6092996E-2,2.835304E-2,5.711622E-2],"split_indices":[34,14,34,0,0,0,0],"split_type":[0,0,0,0,0,0,0],"sum_hessian":[2.4427372E1,1.2482071E1,1.1945302E1,7.0432143E0,5.4388566E0,5.224464E0,6.720838E0],"tree_param":{"num_deleted":"0","num_feature":"38","num_nodes":"7","size_leaf_vector":"1"}},{"base_weights":[-5.3775746E-2,-4.857107E-2,5.7213473E-1,3.9927464E-2,1.5000862E-2],"categories":[],"categories_nodes":[],"categories_segments":[],"categories_sizes":[],"default_left":[0,0,0,0,0],"id":13,"left_children":[1,-1,3,-1,-1],"loss_changes":[1.4641662E1,0E0,5.810776E-1,0E0,0E0],"parents":[2147483647,0,0,2,2],"right_children":[2,-1,4,-1,-1],"split_conditions":[-3.87E1,-4.857107E-2,3.8E-1,3.9927464E-2,1.5000862E-2],"split_indices":[0,0,1,0,0],"split_type":[0,0,0,0,0],"sum_hessian":[2.3454784E1,9.351837E0,1.4102948E1,6.4413667E0,7.661582E0],"tree_param":{"num_deleted":"0","num_feature":"38","num_nodes":"5","size_leaf_vector":"1"}},{"base_weights":[1.219338E-2,-4.425137E-2,8.4554935E-1,2.5860015E-2,5.133E-2],"categories":[],"categories_nodes":[],"categories_segments":[],"categories_sizes":[],"default_left":[0,0,0,0,0],"id":14,"left_children":[1,-1,3,-1,-1],"loss_changes":[1.9262142E1,0E0,1.1181259E-1,0E0,0E0],"parents":[2147483647,0,0,2,2],"right_children":[2,-1,4,-1,-1],"split_conditions":[3.0794593E-2,-4.425137E-2,1.6081081E-1,2.5860015E-2,5.133E-2],"split_indices":[34,0,6,0,0],"split_type":[0,0,0,0,0],"sum_hessian":[2.376615E1,1.1356903E1,1.2409247E1,5.977532E0,6.431716E0],"tree_param":{"num_deleted":"0","num_feature":"38","num_nodes":"5","size_leaf_vector":"1"}},{"base_weights":[5.364303E-3,-4.7696546E-2,6.294955E-1,1.1609888E-2,3.9158955E-2],"categories":[],"categories_nodes":[],"categories_segments":[],"categories_sizes":[],"default_left":[0,0,0,0,0],"id":15,"left_children":[1,-1,3,-1,-1],"loss_changes":[1.5938216E1,0E0,7.068677E-1,0E0,0E0],"parents":[2147483647,0,0,2,2],"right_children":[2,-1,4,-1,-1],"split_conditions":[-3.87E1,-4.7696546E-2,2.8E-1,1.1609888E-2,3.9158955E-2],"split_indices":[0,0,1,0,0],"split_type":[0,0,0,0,0],"sum_hessian":[2.467145E1,9.453184E0,1.5218265E1,5.1266327E0,1.0091632E1],"tree_param":{"num_deleted":"0","num_feature":"38","num_nodes":"5","size_leaf_vector":"1"}},{"base_weights":[-0E0,-4.1412387E-2,5.2139443E-1,1.0019619E-2,3.652824E-2],"categories":[],"categories_nodes":[],"categories_segments":[],"categories_sizes":[],"default_left":[0,0,0,0,0],"id":16,"left_children":[1,-1,3,-1,-1],"loss_changes":[1.1232942E1,0E0,8.368077E-1,0E0,0E0],"parents":[2147483647,0,0,2,2],"right_children":[2,-1,4,-1,-1],"split_conditions":[-3.87E1,-4.1412387E-2,1.3438217E-1,1.0019619E-2,3.652824E-2],"split_indices":[0,0,34,0,0],"split_type":[0,0,0,0,0],"sum_hessian":[2.4052017E1,9.022271E0,1.5029745E1,6.890852E0,8.138893E0],"tree_param":{"num_deleted":"0","num_feature":"38","num_nodes":"5","size_leaf_vector":"1"}},{"base_weights":[1.3046633E-1,-6.635745E-1,8.6576676E-1,-4.408053E-2,-1.5205828E-2,2.2443112E-2,5.4374833E-2],"categories":[],"categories_nodes":[],"categories_segments":[],"categories_sizes":[],"default_left":[0,0,0,0,0,0,0],"id":17,"left_children":[1,3,5,-1,-1,-1,-1],"loss_changes":[1.4167796E1,5.2856493E-1,5.2013874E-1,0E0,0E0,0E0,0E0],"parents":[2147483647,0,0,1,1,2,2],"right_children":[2,4,6,-1,-1,-1,-1],"split_conditions":[5.71E1,-1.846E2,1E0,-4.408053E-2,-1.5205828E-2,2.2443112E-2,5.4374833E-2],"split_indices":[0,0,25,0,0,0,0],"split_type":[0,0,0,0,0,0,0],"sum_hessian":[2.2247196E1,1.0677865E1,1.1569332E1,5.5690465E0,5.1088185E0,5.2234254E0,6.3459067E0],"tree_param":{"num_deleted":"0","num_feature":"38","num_nodes":"7","size_leaf_vector":"1"}},{"base_weights":[2.5759788E-2,-6.4163834E-1,6.293633E-1,-5.012412E-2,-9.2147505E-3,1.5456541E-2,4.24832E-2],"categories":[],"categories_nodes":[],"categories_segments":[],"categories_sizes":[],"default_left":[0,0,0,0,0,0,0],"id":18,"left_children":[1,3,5,-1,-1,-1,-1],"loss_changes":[9.744507E0,1.5827708E0,5.216789E-1,0E0,0E0,0E0,0E0],"parents":[2147483647,0,0,1,1,2,2],"right_children":[2,4,6,-1,-1,-1,-1],"split_conditions":[3.0794593E-2,-1.16952404E-1,4.189189E-1,-5.012412E-2,-9.2147505E-3,1.5456541E-2,4.24832E-2],"split_indices":[34,34,5,0,0,0,0],"split_type":[0,0,0,0,0,0,0],"sum_hessian":[2.2189907E1,1.0429468E1,1.1760439E1,5.0412765E0,5.388191E0,5.95757E0,5.802869E0],"tree_param":{"num_deleted":"0","num_feature":"38","num_nodes":"7","size_leaf_vector":"1"}},{"base_weights":[-2.0218681E-1,-4.9395688E-2,3.3245516E-1,2.7186621E-2,7.3283515E-4],"categories":[],"categories_nodes":[],"categories_segments":[],"categories_sizes":[],"default_left":[0,0,0,0,0],"id":19,"left_children":[1,-1,3,-1,-1],"loss_changes":[9.717996E0,0E0,8.6819184E-1,0E0,0E0],"parents":[2147483647,0,0,2,2],"right_children":[2,-1,4,-1,-1],"split_conditions":[-3.87E1,-4.9395688E-2,1E0,2.7186621E-2,7.3283515E-4],"split_indices":[0,0,29,0,0],"split_type":[0,0,0,0,0],"sum_hessian":[2.1195665E1,8.314964E0,1.28807E1,7.120971E0,5.759729E0],"tree_param":{"num_deleted":"0","num_feature":"38","num_nodes":"5","size_leaf_vector":"1"}},{"base_weights":[-1.5052731E-1,-6.9125843E-1,2.5888091E-2,-1.0233431E-2,-5.258977E-2],"categories":[],"categories_nodes":[],"categories_segments":[],"categories_sizes":[],"default_left":[0,0,0,0,0],"id":20,"left_children":[1,3,-1,-1,-1],"loss_changes":[8.609281E0,1.9583049E0,0E0,0E0,0E0],"parents":[2147483647,0,0,1,1],"right_children":[2,4,-1,-1,-1],"split_conditions":[1.641E2,5E-1,2.5888091E-2,-1.0233431E-2,-5.258977E-2],"split_indices":[0,14,0,0,0],"split_type":[0,0,0,0,0],"sum_hessian":[2.1785906E1,1.210593E1,9.6799755E0,5.93753E0,6.1684E0],"tree_param":{"num_deleted":"0","num_feature":"38","num_nodes":"5","size_leaf_vector":"1"}},{"base_weights":[-1.1718214E-2,-3.1038458E-2,4.8217312E-1,6.022328E-3,4.4258237E-2],"categories":[],"categories_nodes":[],"categories_segments":[],"categories_sizes":[],"default_left":[0,0,0,0,0],"id":21,"left_children":[1,-1,3,-1,-1],"loss_changes":[7.336242E0,0E0,1.7410514E0,0E0,0E0],"parents":[2147483647,0,0,2,2],"right_children":[2,-1,4,-1,-1],"split_conditions":[6.52E1,-3.1038458E-2,6.105E-2,6.022328E-3,4.4258237E-2],"split_indices":[0,0,8,0,0],"split_type":[0,0,0,0,0],"sum_hessian":[2.2347569E1,9.982746E0,1.2364822E1,7.331273E0,5.033549E0],"tree_param":{"num_deleted":"0","num_feature":"38","num_nodes":"5","size_leaf_vector":"1"}},{"base_weights":[-2.1910055E-1,-4.1792188E-2,3.1218895E-1,4.9859E-3,2.3644168E-2],"categories":[],"categories_nodes":[],"categories_segments":[],"categories_sizes":[],"default_left":[0,0,0,0,0],"id":22,"left_children":[1,-1,3,-1,-1],"loss_changes":[7.4502296E0,0E0,3.1697738E-1,0E0,0E0],"parents":[2147483647,0,0,2,2],"right_children":[2,-1,4,-1,-1],"split_conditions":[3.99E1,-4.1792188E-2,4.8E-1,4.9859E-3,2.3644168E-2],"split_indices":[0,0,1,0,0],"split_type":[0,0,0,0,0],"sum_hessian":[2.078088E1,9.43885E0,1.1342029E1,5.8499875E0,5.492041E0],"tree_param":{"num_deleted":"0","num_feature":"38","num_nodes":"5","size_leaf_vector":"1"}},{"base_weights":[4.4331342E-2,-2.626279E-2,5.220842E-1,5.852473E-3,4.368449E-2],"categories":[],"categories_nodes":[],"categories_segments":[],"categories_sizes":[],"default_left":[0,0,0,0,0],"id":23,"left_children":[1,-1,3,-1,-1],"loss_changes":[6.03904E0,0E0,1.5245197E0,0E0,0E0],"parents":[2147483647,0,0,2,2],"right_children":[2,-1,4,-1,-1],"split_conditions":[3.0794593E-2,-2.626279E-2,4.189189E-1,5.852473E-3,4.368449E-2],"split_indices":[34,0,5,0,0],"split_type":[0,0,0,0,0],"sum_hessian":[2.0185837E1,9.0671015E0,1.1118735E1,5.918353E0,5.200382E0],"tree_param":{"num_deleted":"0","num_feature":"38","num_nodes":"5","size_leaf_vector":"1"}},{"base_weights":[1.8848231E-1,-2.6832983E-2,3.7474703E-2],"categories":[],"categories_nodes":[],"categories_segments":[],"categories_sizes":[],"default_left":[0,0,0],"id":24,"left_children":[1,-1,-1],"loss_changes":[9.597843E0,0E0,0E0],"parents":[2147483647,0,0],"right_children":[2,-1,-1],"split_conditions":[3.0794593E-2,-2.6832983E-2,3.7474703E-2],"split_indices":[34,0,0],"split_type":[0,0,0],"sum_hessian":[2.1551716E1,9.341899E0,1.2209817E1],"tree_param":{"num_deleted":"0","num_feature":"38","num_nodes":"3","size_leaf_vector":"1"}},{"base_weights":[2.4627319E-2,-4.9771148E-1,5.562676E-1,-8.441464E-3,-3.6461808E-2,1.4466199E-2,3.5818484E-2],"categories":[],"categories_nodes":[],"categories_segments":[],"categories_sizes":[],"default_left":[0,0,0,0,0,0,0],"id":25,"left_children":[1,3,5,-1,-1,-1,-1],"loss_changes":[6.48866E0,6.7838335E-1,1.897459E-1,0E0,0E0,0E0,0E0],"parents":[2147483647,0,0,1,1,2,2],"right_children":[2,4,6,-1,-1,-1,-1],"split_conditions":[9.086492E-2,5E-1,6E-1,-8.441464E-3,-3.6461808E-2,1.4466199E-2,3.5818484E-2],"split_indices":[34,14,1,0,0,0,0],"split_type":[0,0,0,0,0,0,0],"sum_hessian":[2.1347946E1,1.0705485E1,1.0642462E1,5.315669E0,5.3898163E0,5.276499E0,5.365963E0],"tree_param":{"num_deleted":"0","num_feature":"38","num_nodes":"7","size_leaf_vector":"1"}},{"base_weights":[2.5785887E-3,-2.3897829E-2,2.8858805E-1,-1.6029408E-3,3.0672906E-2],"categories":[],"categories_nodes":[],"categories_segments":[],"categories_sizes":[],"default_left":[0,0,0,0,0],"id":26,"left_children":[1,-1,3,-1,-1],"loss_changes":[3.276408E0,0E0,1.6565506E0,0E0,0E0],"parents":[2147483647,0,0,2,2],"right_children":[2,-1,4,-1,-1],"split_conditions":[-1E-1,-2.3897829E-2,4.189189E-1,-1.6029408E-3,3.0672906E-2],"split_indices":[1,0,5,0,0],"split_type":[0,0,0,0,0],"sum_hessian":[2.1973423E1,7.8177576E0,1.4155665E1,7.4228315E0,6.7328343E0],"tree_param":{"num_deleted":"0","num_feature":"38","num_nodes":"5","size_leaf_vector":"1"}},{"base_weights":[-8.2090504E-2,-4.4623375E-2,3.4433976E-1,4.6266E-3,2.7976846E-2],"categories":[],"categories_nodes":[],"categories_segments":[],"categories_sizes":[],"default_left":[0,0,0,0,0],"id":27,"left_children":[1,-1,3,-1,-1],"loss_changes":[7.7228565E0,0E0,6.740078E-1,0E0,0E0],"parents":[2147483647,0,0,2,2],"right_children":[2,-1,4,-1,-1],"split_conditions":[-2.52E1,-4.4623375E-2,1.6986963E-1,4.6266E-3,2.7976846E-2],"split_indices":[0,0,34,0,0],"split_type":[0,0,0,0,0],"sum_hessian":[2.0300308E1,6.70325E0,1.3597057E1,7.138634E0,6.458423E0],"tree_param":{"num_deleted":"0","num_feature":"38","num_nodes":"5","size_leaf_vector":"1"}},{"base_weights":[-0E0,-3.1026278E-2,3.286228E-1,2.8290082E-2,1.7591537E-3],"categories":[],"categories_nodes":[],"categories_segments":[],"categories_sizes":[],"default_left":[0,0,0,0,0],"id":28,"left_children":[1,-1,3,-1,-1],"loss_changes":[4.4983306E0,0E0,9.128847E-1,0E0,0E0],"parents":[2147483647,0,0,2,2],"right_children":[2,-1,4,-1,-1],"split_conditions":[-3.87E1,-3.1026278E-2,3.8E-1,2.8290082E-2,1.7591537E-3],"split_indices":[0,0,1,0,0],"split_type":[0,0,0,0,0],"sum_hessian":[1.9947403E1,6.6812735E0,1.326613E1,6.634611E0,6.631519E0],"tree_param":{"num_deleted":"0","num_feature":"38","num_nodes":"5","size_leaf_vector":"1"}},{"base_weights":[3.9214104E-2,-3.598505E-2,4.034539E-1,4.2056586E-3,3.4959894E-2],"categories":[],"categories_nodes":[],"categories_segments":[],"categories_sizes":[],"default_left":[0,0,0,0,0],"id":29,"left_children":[1,-1,3,-1,-1],"loss_changes":[6.213756E0,0E0,1.3065407E0,0E0,0E0],"parents":[2147483647,0,0,2,2],"right_children":[2,-1,4,-1,-1],"split_conditions":[-3.99E1,-3.598505E-2,4.8E-1,4.2056586E-3,3.4959894E-2],"split_indices":[0,0,1,0,0],"split_type":[0,0,0,0,0],"sum_hessian":[2.0542809E1,6.2565255E0,1.4286283E1,7.6492534E0,6.6370287E0],"tree_param":{"num_deleted":"0","num_feature":"38","num_nodes":"5","size_leaf_vector":"1"}},{"base_weights":[-4.2338554E-2,-3.1899482E-2,3.4798032E-1,4.457813E-3,2.9030874E-2],"categories":[],"categories_nodes":[],"categories_segments":[],"categories_sizes":[],"default_left":[0,0,0,0,0],"id":30,"left_children":[1,-1,3,-1,-1],"loss_changes":[5.34105E0,0E0,7.104939E-1,0E0,0E0],"parents":[2147483647,0,0,2,2],"right_children":[2,-1,4,-1,-1],"split_conditions":[3.0794593E-2,-3.1899482E-2,6E-1,4.457813E-3,2.9030874E-2],"split_indices":[34,0,1,0,0],"split_type":[0,0,0,0,0],"sum_hessian":[2.089323E1,8.121294E0,1.2771936E1,6.9039435E0,5.867993E0],"tree_param":{"num_deleted":"0","num_feature":"38","num_nodes":"5","size_leaf_vector":"1"}},{"base_weights":[6.5135024E-2,-2.9237682E-2,3.9905658E-1,-1.8609848E-3,4.135466E-2],"categories":[],"categories_nodes":[],"categories_segments":[],"categories_sizes":[],"default_left":[0,0,0,0,0],"id":31,"left_children":[1,-1,3,-1,-1],"loss_changes":[4.740176E0,0E0,2.8121772E0,0E0,0E0],"parents":[2147483647,0,0,2,2],"right_children":[2,-1,4,-1,-1],"split_conditions":[-3.87E1,-2.9237682E-2,4.189189E-1,-1.8609848E-3,4.135466E-2],"split_indices":[0,0,5,0,0],"split_type":[0,0,0,0,0],"sum_hessian":[1.9853224E1,6.3819094E0,1.3471315E1,7.007917E0,6.4633985E0],"tree_param":{"num_deleted":"0","num_feature":"38","num_nodes":"5","size_leaf_vector":"1"}},{"base_weights":[1.7228855E-1,-2.298325E-1,4.1614804E-2,3.4199653E-3,-2.8972646E-2],"categories":[],"categories_nodes":[],"categories_segments":[],"categories_sizes":[],"default_left":[0,0,0,0,0],"id":32,"left_children":[1,3,-1,-1,-1],"loss_changes":[5.601115E0,1.4686083E0,0E0,0E0,0E0],"parents":[2147483647,0,0,1,1],"right_children":[2,4,-1,-1,-1],"split_conditions":[1.3438217E-1,1.836E2,4.1614804E-2,3.4199653E-3,-2.8972646E-2],"split_indices":[34,33,0,0,0],"split_type":[0,0,0,0,0],"sum_hessian":[1.9156446E1,1.2214692E1,6.941754E0,6.871516E0,5.343176E0],"tree_param":{"num_deleted":"0","num_feature":"38","num_nodes":"5","size_leaf_vector":"1"}},{"base_weights":[-9.813857E-3,-3.4373835E-2,2.928915E-1,4.2918385E-3,2.1063428E-2],"categories":[],"categories_nodes":[],"categories_segments":[],"categories_sizes":[],"default_left":[0,0,0,0,0],"id":33,"left_children":[1,-1,3,-1,-1],"loss_changes":[4.618096E0,0E0,3.211311E-1,0E0,0E0],"parents":[2147483647,0,0,2,2],"right_children":[2,-1,4,-1,-1],"split_conditions":[-3.87E1,-3.4373835E-2,5E-1,4.2918385E-3,2.1063428E-2],"split_indices":[0,0,14,0,0],"split_type":[0,0,0,0,0],"sum_hessian":[2.0338833E1,5.9894867E0,1.4349345E1,6.428551E0,7.9207945E0],"tree_param":{"num_deleted":"0","num_feature":"38","num_nodes":"5","size_leaf_vector":"1"}},{"base_weights":[4.3120086E-2,-3.3539988E-2,3.8320395E-1,3.0445615E-2,4.2021708E-3],"categories":[],"categories_nodes":[],"categories_segments":[],"categories_sizes":[],"default_left":[0,0,0,0,0],"id":34,"left_children":[1,-1,3,-1,-1],"loss_changes":[5.131068E0,0E0,8.524704E-1,0E0,0E0],"parents":[2147483647,0,0,2,2],"right_children":[2,-1,4,-1,-1],"split_conditions":[-3.87E1,-3.3539988E-2,1E0,3.0445615E-2,4.2021708E-3],"split_indices":[0,0,29,0,0],"split_type":[0,0,0,0,0],"sum_hessian":[1.9193262E1,5.7842326E0,1.3409029E1,6.862096E0,6.5469327E0],"tree_param":{"num_deleted":"0","num_feature":"38","num_nodes":"5","size_leaf_vector":"1"}},{"base_weights":[1.2287407E-1,-2.1868553E-2,3.528403E-1,2.7742812E-2,6.009843E-3],"categories":[],"categories_nodes":[],"categories_segments":[],"categories_sizes":[],"default_left":[0,0,0,0,0],"id":35,"left_children":[1,-1,3,-1,-1],"loss_changes":[2.6706429E0,0E0,5.507301E-1,0E0,0E0],"parents":[2147483647,0,0,2,2],"right_children":[2,-1,4,-1,-1],"split_conditions":[-3.99E1,-2.1868553E-2,2.217E2,2.7742812E-2,6.009843E-3],"split_indices":[0,0,0,0,0],"split_type":[0,0,0,0,0],"sum_hessian":[1.859658E1,5.022936E0,1.3573645E1,6.293679E0,7.2799654E0],"tree_param":{"num_deleted":"0","num_feature":"38","num_nodes":"5","size_leaf_vector":"1"}},{"base_weights":[-1.0958606E-1,-3.3561725E-2,2.7112004E-1,2.4987148E-2,2.4556683E-4],"categories":[],"categories_nodes":[],"categories_segments":[],"categories_sizes":[],"default_left":[0,0,0,0,0],"id":36,"left_children":[1,-1,3,-1,-1],"loss_changes":[4.268936E0,0E0,6.7051107E-1,0E0,0E0],"parents":[2147483647,0,0,2,2],"right_children":[2,-1,4,-1,-1],"split_conditions":[3.0794593E-2,-3.3561725E-2,1E0,2.4987148E-2,2.4556683E-4],"split_indices":[34,0,29,0,0],"split_type":[0,0,0,0,0],"sum_hessian":[1.792659E1,7.0400605E0,1.0886528E1,5.1826806E0,5.703848E0],"tree_param":{"num_deleted":"0","num_feature":"38","num_nodes":"5","size_leaf_vector":"1"}},{"base_weights":[-1.9745944E-1,-3.532257E-2,1.5328146E-2],"categories":[],"categories_nodes":[],"categories_segments":[],"categories_sizes":[],"default_left":[0,0,0],"id":37,"left_children":[1,-1,-1],"loss_changes":[5.2841883E0,0E0,0E0],"parents":[2147483647,0,0],"right_children":[2,-1,-1],"split_conditions":[1.641E2,-3.532257E-2,1.5328146E-2],"split_indices":[0,0,0],"split_type":[0,0,0],"sum_hessian":[1.8597582E1,9.1520605E0,9.44552E0],"tree_param":{"num_deleted":"0","num_feature":"38","num_nodes":"3","size_leaf_vector":"1"}},{"base_weights":[-4.851241E-2,-2.3928214E-2,1.2676737E-1,-1.6947394E-3,2.0251175E-2],"categories":[],"categories_nodes":[],"categories_segments":[],"categories_sizes":[],"default_left":[0,0,0,0,0],"id":38,"left_children":[1,-1,3,-1,-1],"loss_changes":[1.6832165E0,0E0,7.4762225E-1,0E0,0E0],"parents":[2147483647,0,0,2,2],"right_children":[2,-1,4,-1,-1],"split_conditions":[-2.2681983E-2,-2.3928214E-2,3.142E2,-1.6947394E-3,2.0251175E-2],"split_indices":[34,0,33,0,0],"split_type":[0,0,0,0,0],"sum_hessian":[2.0058413E1,5.472289E0,1.4586123E1,9.575905E0,5.0102186E0],"tree_param":{"num_deleted":"0","num_feature":"38","num_nodes":"5","size_leaf_vector":"1"}},{"base_weights":[5.5002593E-2,-1.848241E-2,3.3721626E-1,3.9871526E-3,2.9026544E-2],"categories":[],"categories_nodes":[],"categories_segments":[],"categories_sizes":[],"default_left":[0,0,0,0,0],"id":39,"left_children":[1,-1,3,-1,-1],"loss_changes":[2.578174E0,0E0,7.008275E-1,0E0,0E0],"parents":[2147483647,0,0,2,2],"right_children":[2,-1,4,-1,-1],"split_conditions":[6.52E1,-1.848241E-2,2.6891893E-1,3.9871526E-3,2.9026544E-2],"split_indices":[0,0,6,0,0],"split_type":[0,0,0,0,0],"sum_hessian":[1.95E1,7.5201573E0,1.1979842E1,6.6653543E0,5.314488E0],"tree_param":{"num_deleted":"0","num_feature":"38","num_nodes":"5","size_leaf_vector":"1"}},{"base_weights":[3.1734936E-2,-2.0787522E-2,3.8273296E-1,-7.0508727E-4,3.659599E-2],"categories":[],"categories_nodes":[],"categories_segments":[],"categories_sizes":[],"default_left":[0,0,0,0,0],"id":40,"left_children":[1,-1,3,-1,-1],"loss_changes":[3.203482E0,0E0,1.6784352E0,0E0,0E0],"parents":[2147483647,0,0,2,2],"right_children":[2,-1,4,-1,-1],"split_conditions":[6.52E1,-2.0787522E-2,4.189189E-1,-7.0508727E-4,3.659599E-2],"split_indices":[0,0,5,0,0],"split_type":[0,0,0,0,0],"sum_hessian":[1.8403645E1,7.8835588E0,1.0520086E1,5.2392063E0,5.28088E0],"tree_param":{"num_deleted":"0","num_feature":"38","num_nodes":"5","size_leaf_vector":"1"}},{"base_weights":[6.767814E-2,-1.4970521E-2,1.9050056E-2],"categories":[],"categories_nodes":[],"categories_segments":[],"categories_sizes":[],"default_left":[0,0,0],"id":41,"left_children":[1,-1,-1],"loss_changes":[2.2344904E0,0E0,0E0],"parents":[2147483647,0,0],"right_children":[2,-1,-1],"split_conditions":[1.8E-1,-1.4970521E-2,1.9050056E-2],"split_indices":[1,0,0],"split_type":[0,0,0],"sum_hessian":[1.736468E1,7.869745E0,9.494934E0],"tree_param":{"num_deleted":"0","num_feature":"38","num_nodes":"3","size_leaf_vector":"1"}},{"base_weights":[-1.1072422E-1,-2.3174368E-2,1.2793893E-2],"categories":[],"categories_nodes":[],"categories_segments":[],"categories_sizes":[],"default_left":[0,0,0],"id":42,"left_children":[1,-1,-1],"loss_changes":[2.6682696E0,0E0,0E0],"parents":[2147483647,0,0],"right_children":[2,-1,-1],"split_conditions":[2.6E-1,-2.3174368E-2,1.2793893E-2],"split_indices":[1,0,0],"split_type":[0,0,0],"sum_hessian":[1.8554907E1,9.46026E0,9.094646E0],"tree_param":{"num_deleted":"0","num_feature":"38","num_nodes":"3","size_leaf_vector":"1"}},{"base_weights":[5.6519243E-3,-1.6928064E-2,1.8071411E-2],"categories":[],"categories_nodes":[],"categories_segments":[],"categories_sizes":[],"default_left":[0,0,0],"id":43,"left_children":[1,-1,-1],"loss_changes":[2.3138125E0,0E0,0E0],"parents":[2147483647,0,0],"right_children":[2,-1,-1],"split_conditions":[2.6E-1,-1.6928064E-2,1.8071411E-2],"split_indices":[1,0,0],"split_type":[0,0,0],"sum_hessian":[1.687611E1,8.459178E0,8.416933E0],"tree_param":{"num_deleted":"0","num_feature":"38","num_nodes":"3","size_leaf_vector":"1"}},{"base_weights":[5.8319364E-2,-2.9432138E-2,3.3360234E-1,3.0838847E-2,1.2945792E-3],"categories":[],"categories_nodes":[],"categories_segments":[],"categories_sizes":[],"default_left":[0,0,0,0,0],"id":44,"left_children":[1,-1,3,-1,-1],"loss_changes":[3.6467452E0,0E0,1.1778151E0,0E0,0E0],"parents":[2147483647,0,0,2,2],"right_children":[2,-1,4,-1,-1],"split_conditions":[-3.87E1,-2.9432138E-2,3.8E-1,3.0838847E-2,1.2945792E-3],"split_indices":[0,0,1,0,0],"split_type":[0,0,0,0,0],"sum_hessian":[1.8516687E1,5.0788765E0,1.3437811E1,6.30561E0,7.1322007E0],"tree_param":{"num_deleted":"0","num_feature":"38","num_nodes":"5","size_leaf_vector":"1"}},{"base_weights":[3.7659932E-2,-1.837747E-1,2.381911E-2,7.5687277E-3,-2.726589E-2],"categories":[],"categories_nodes":[],"categories_segments":[],"categories_sizes":[],"default_left":[0,0,0,0,0],"id":45,"left_children":[1,3,-1,-1,-1],"loss_changes":[1.958065E0,1.7172564E0,0E0,0E0,0E0],"parents":[2147483647,0,0,1,1],"right_children":[2,4,-1,-1,-1],"split_conditions":[1.6986963E-1,3.5E-1,2.381911E-2,7.5687277E-3,-2.726589E-2],"split_indices":[34,5,0,0,0],"split_type":[0,0,0,0,0],"sum_hessian":[1.7953056E1,1.2165825E1,5.787232E0,6.4714913E0,5.6943336E0],"tree_param":{"num_deleted":"0","num_feature":"38","num_nodes":"5","size_leaf_vector":"1"}},{"base_weights":[1.8717524E-2,-1.953558E-2,2.9778206E-1,2.2785818E-2,2.6664739E-3],"categories":[],"categories_nodes":[],"categories_segments":[],"categories_sizes":[],"default_left":[0,0,0,0,0],"id":46,"left_children":[1,-1,3,-1,-1],"loss_changes":[2.2419608E0,0E0,3.8129747E-1,0E0,0E0],"parents":[2147483647,0,0,2,2],"right_children":[2,-1,4,-1,-1],"split_conditions":[3.0794593E-2,-1.953558E-2,1E0,2.2785818E-2,2.6664739E-3],"split_indices":[34,0,15,0,0],"split_type":[0,0,0,0,0],"sum_hessian":[1.7685106E1,6.8608317E0,1.0824276E1,5.802272E0,5.0220037E0],"tree_param":{"num_deleted":"0","num_feature":"38","num_nodes":"5","size_leaf_vector":"1"}},{"base_weights":[-1.6623428E-1,-2.5312155E-2,1.1251173E-2],"categories":[],"categories_nodes":[],"categories_segments":[],"categories_sizes":[],"default_left":[0,0,0],"id":47,"left_children":[1,-1,-1],"loss_changes":[2.435326E0,0E0,0E0],"parents":[2147483647,0,0],"right_children":[2,-1,-1],"split_conditions":[1.641E2,-2.5312155E-2,1.1251173E-2],"split_indices":[0,0,0],"split_type":[0,0,0],"sum_hessian":[1.6238735E1,8.667899E0,7.570835E0],"tree_param":{"num_deleted":"0","num_feature":"38","num_nodes":"3","size_leaf_vector":"1"}},{"base_weights":[1.1892033E-1,-1.7152062E-2,3.8799378E-1,5.272924E-3,3.020607E-2],"categories":[],"categories_nodes":[],"categories_segments":[],"categories_sizes":[],"default_left":[0,0,0,0,0],"id":48,"left_children":[1,-1,3,-1,-1],"loss_changes":[2.491071E0,0E0,6.329471E-1,0E0,0E0],"parents":[2147483647,0,0,2,2],"right_children":[2,-1,4,-1,-1],"split_conditions":[3.0794593E-2,-1.7152062E-2,4.189189E-1,5.272924E-3,3.020607E-2],"split_indices":[34,0,5,0,0],"split_type":[0,0,0,0,0],"sum_hessian":[1.7933609E1,6.362883E0,1.1570726E1,5.86035E0,5.710376E0],"tree_param":{"num_deleted":"0","num_feature":"38","num_nodes":"5","size_leaf_vector":"1"}},{"base_weights":[-9.184495E-2,9.014938E-3,-1.6289316E-2],"categories":[],"categories_nodes":[],"categories_segments":[],"categories_sizes":[],"default_left":[0,0,0],"id":49,"left_children":[1,-1,-1],"loss_changes":[1.246247E0,0E0,0E0],"parents":[2147483647,0,0],"right_children":[2,-1,-1],"split_conditions":[2.067E2,9.014938E-3,-1.6289316E-2],"split_indices":[33,0,0],"split_type":[0,0,0],"sum_hessian":[1.7423735E1,7.9626427E0,9.461092E0],"tree_param":{"num_deleted":"0","num_feature":"38","num_nodes":"3","size_leaf_vector":"1"}},{"base_weights":[-3.7440762E-2,-1.7845396E-2,1.608718E-1,2.0209663E-2,-3.2974724E-3],"categories":[],"categories_nodes":[],"categories_segments":[],"categories_sizes":[],"default_left":[0,0,0,0,0],"id":50,"left_children":[1,-1,3,-1,-1],"loss_changes":[1.2506831E0,0E0,7.1869457E-1,0E0,0E0],"parents":[2147483647,0,0,2,2],"right_children":[2,-1,4,-1,-1],"split_conditions":[3.0794593E-2,-1.7845396E-2,2.503E2,2.0209663E-2,-3.2974724E-3],"split_indices":[34,0,0,0,0],"split_type":[0,0,0,0,0],"sum_hessian":[1.7525373E1,6.5991507E0,1.0926222E1,5.106806E0,5.8194165E0],"tree_param":{"num_deleted":"0","num_feature":"38","num_nodes":"5","size_leaf_vector":"1"}},{"base_weights":[1.1074543E-1,-1.8862946E-2,2.185218E-2],"categories":[],"categories_nodes":[],"categories_segments":[],"categories_sizes":[],"default_left":[0,0,0],"id":51,"left_children":[1,-1,-1],"loss_changes":[2.9032598E0,0E0,0E0],"parents":[2147483647,0,0],"right_children":[2,-1,-1],"split_conditions":[6.52E1,-1.8862946E-2,2.185218E-2],"split_indices":[0,0,0],"split_type":[0,0,0],"sum_hessian":[1.615957E1,6.2898955E0,9.869675E0],"tree_param":{"num_deleted":"0","num_feature":"38","num_nodes":"3","size_leaf_vector":"1"}},{"base_weights":[1.4815523E-1,1.5252935E-2,-1.6167501E-3],"categories":[],"categories_nodes":[],"categories_segments":[],"categories_sizes":[],"default_left":[0,0,0],"id":52,"left_children":[1,-1,-1],"loss_changes":[5.0610316E-1,0E0,0E0],"parents":[2147483647,0,0],"right_children":[2,-1,-1],"split_conditions":[3.5E-1,1.5252935E-2,-1.6167501E-3],"split_indices":[5,0,0],"split_type":[0,0,0],"sum_hessian":[1.5559827E1,8.250978E0,7.3088484E0],"tree_param":{"num_deleted":"0","num_feature":"38","num_nodes":"3","size_leaf_vector":"1"}},{"base_weights":[-6.0968347E-2,9.341567E-3,-1.3832675E-2],"categories":[],"categories_nodes":[],"categories_segments":[],"categories_sizes":[],"default_left":[0,0,0],"id":53,"left_children":[1,-1,-1],"loss_changes":[1.0500177E0,0E0,0E0],"parents":[2147483647,0,0],"right_children":[2,-1,-1],"split_conditions":[2.217E2,9.341567E-3,-1.3832675E-2],"split_indices":[33,0,0],"split_type":[0,0,0],"sum_hessian":[1.7510925E1,7.9953003E0,9.515624E0],"tree_param":{"num_deleted":"0","num_feature":"38","num_nodes":"3","size_leaf_vector":"1"}},{"base_weights":[5.8430944E-2,-1.5010627E-2,1.9810623E-2],"categories":[],"categories_nodes":[],"categories_segments":[],"categories_sizes":[],"default_left":[0,0,0],"id":54,"left_children":[1,-1,-1],"loss_changes":[2.2774692E0,0E0,0E0],"parents":[2147483647,0,0],"right_children":[2,-1,-1],"split_conditions":[1E0,-1.5010627E-2,1.9810623E-2],"split_indices":[25,0,0],"split_type":[0,0,0],"sum_hessian":[1.6738697E1,8.028993E0,8.709705E0],"tree_param":{"num_deleted":"0","num_feature":"38","num_nodes":"3","size_leaf_vector":"1"}},{"base_weights":[-9.117041E-2,-2.7808335E-1,1.1816408E-2,6.760412E-3,-3.7824243E-2],"categories":[],"categories_nodes":[],"categories_segments":[],"categories_sizes":[],"default_left":[0,0,0,0,0],"id":55,"left_children":[1,3,-1,-1,-1],"loss_changes":[1.2131162E0,2.6445568E0,0E0,0E0,0E0],"parents":[2147483647,0,0,1,1],"right_children":[2,4,-1,-1,-1],"split_conditions":[1.6986963E-1,3.3783785E-1,1.1816408E-2,6.760412E-3,-3.7824243E-2],"split_indices":[34,5,0,0,0],"split_type":[0,0,0,0,0],"sum_hessian":[1.7675905E1,1.1543772E1,6.1321344E0,6.466071E0,5.0777E0],"tree_param":{"num_deleted":"0","num_feature":"38","num_nodes":"5","size_leaf_vector":"1"}},{"base_weights":[-9.123763E-2,-2.1853093E-2,1.661487E-1,-0E0,1.580919E-2],"categories":[],"categories_nodes":[],"categories_segments":[],"categories_sizes":[],"default_left":[0,0,0,0,0],"id":56,"left_children":[1,-1,3,-1,-1],"loss_changes":[1.7758512E0,0E0,3.0535328E-1,0E0,0E0],"parents":[2147483647,0,0,2,2],"right_children":[2,-1,4,-1,-1],"split_conditions":[2.2E-1,-2.1853093E-2,3.3783785E-1,-0E0,1.580919E-2],"split_indices":[1,0,5,0,0],"split_type":[0,0,0,0,0],"sum_hessian":[1.7830858E1,7.4762344E0,1.0354624E1,5.16488E0,5.1897435E0],"tree_param":{"num_deleted":"0","num_feature":"38","num_nodes":"5","size_leaf_vector":"1"}},{"base_weights":[-1.539912E-1,8.597637E-3,-2.3909025E-2],"categories":[],"categories_nodes":[],"categories_segments":[],"categories_sizes":[],"default_left":[0,0,0],"id":57,"left_children":[1,-1,-1],"loss_changes":[1.9705741E0,0E0,0E0],"parents":[2147483647,0,0],"right_children":[2,-1,-1],"split_conditions":[2.217E2,8.597637E-3,-2.3909025E-2],"split_indices":[33,0,0],"split_type":[0,0,0],"sum_hessian":[1.6580868E1,8.348407E0,8.232461E0],"tree_param":{"num_deleted":"0","num_feature":"38","num_nodes":"3","size_leaf_vector":"1"}},{"base_weights":[-7.0762426E-2,-3.0652523E-1,1.8777706E-2,-7.2477037E-6,-2.6157811E-2],"categories":[],"categories_nodes":[],"categories_segments":[],"categories_sizes":[],"default_left":[0,0,0,0,0],"id":58,"left_children":[1,3,-1,-1,-1],"loss_changes":[1.9182656E0,7.409406E-1,0E0,0E0,0E0],"parents":[2147483647,0,0,1,1],"right_children":[2,4,-1,-1,-1],"split_conditions":[4.8E-1,5E-1,1.8777706E-2,-7.2477037E-6,-2.6157811E-2],"split_indices":[1,14,0,0,0],"split_type":[0,0,0,0,0],"sum_hessian":[1.6201754E1,1.0953128E1,5.248626E0,5.142457E0,5.810671E0],"tree_param":{"num_deleted":"0","num_feature":"38","num_nodes":"5","size_leaf_vector":"1"}},{"base_weights":[4.995829E-2,-1.2763453E-2,2.186997E-1,-0E0,2.052174E-2],"categories":[],"categories_nodes":[],"categories_segments":[],"categories_sizes":[],"default_left":[0,0,0,0,0],"id":59,"left_children":[1,-1,3,-1,-1],"loss_changes":[1.0007328E0,0E0,4.9835163E-1,0E0,0E0],"parents":[2147483647,0,0,2,2],"right_children":[2,-1,4,-1,-1],"split_conditions":[3.0794593E-2,-1.2763453E-2,4.189189E-1,-0E0,2.052174E-2],"split_indices":[34,0,5,0,0],"split_type":[0,0,0,0,0],"sum_hessian":[1.7417084E1,5.8072515E0,1.1609833E1,6.0712123E0,5.5386205E0],"tree_param":{"num_deleted":"0","num_feature":"38","num_nodes":"5","size_leaf_vector":"1"}},{"base_weights":[3.565105E-2,-1.4722283E-2,2.3302238E-1,2.5931443E-3,1.7109673E-2],"categories":[],"categories_nodes":[],"categories_segments":[],"categories_sizes":[],"default_left":[0,0,0,0,0],"id":60,"left_children":[1,-1,3,-1,-1],"loss_changes":[1.2576414E0,0E0,1.8468547E-1,0E0,0E0],"parents":[2147483647,0,0,2,2],"right_children":[2,-1,4,-1,-1],"split_conditions":[3.0794593E-2,-1.4722283E-2,4.189189E-1,2.5931443E-3,1.7109673E-2],"split_indices":[34,0,5,0,0],"split_type":[0,0,0,0,0],"sum_hessian":[1.734446E1,6.1164355E0,1.1228024E1,5.1210914E0,6.1069317E0],"tree_param":{"num_deleted":"0","num_feature":"38","num_nodes":"5","size_leaf_vector":"1"}},{"base_weights":[-1.5650095E-1,-3.165265E-2,8.5475884E-2,-8.998902E-3,1.852646E-2],"categories":[],"categories_nodes":[],"categories_segments":[],"categories_sizes":[],"default_left":[0,0,0,0,0],"id":61,"left_children":[1,-1,3,-1,-1],"loss_changes":[2.1100457E0,0E0,1.0128071E0,0E0,0E0],"parents":[2147483647,0,0,2,2],"right_children":[2,-1,4,-1,-1],"split_conditions":[2.9296521E-2,-3.165265E-2,4.189189E-1,-8.998902E-3,1.852646E-2],"split_indices":[34,0,5,0,0],"split_type":[0,0,0,0,0],"sum_hessian":[1.6354074E1,5.1024127E0,1.1251661E1,5.835343E0,5.4163184E0],"tree_param":{"num_deleted":"0","num_feature":"38","num_nodes":"5","size_leaf_vector":"1"}},{"base_weights":[4.9460262E-2,-6.562516E-3,1.6862148E-2],"categories":[],"categories_nodes":[],"categories_segments":[],"categories_sizes":[],"default_left":[0,0,0],"id":62,"left_children":[1,-1,-1],"loss_changes":[9.232554E-1,0E0,0E0],"parents":[2147483647,0,0],"right_children":[2,-1,-1],"split_conditions":[1.3244179E-1,-6.562516E-3,1.6862148E-2],"split_indices":[34,0,0],"split_type":[0,0,0],"sum_hessian":[1.550585E1,9.645491E0,5.860359E0],"tree_param":{"num_deleted":"0","num_feature":"38","num_nodes":"3","size_leaf_vector":"1"}},{"base_weights":[-2.4230745E-2,1.2776169E-2,-1.3292573E-2],"categories":[],"categories_nodes":[],"categories_segments":[],"categories_sizes":[],"default_left":[0,0,0],"id":63,"left_children":[1,-1,-1],"loss_changes":[1.2305607E0,0E0,0E0],"parents":[2147483647,0,0],"right_children":[2,-1,-1],"split_conditions":[2.217E2,1.2776169E-2,-1.3292573E-2],"split_indices":[33,0,0],"split_type":[0,0,0],"sum_hessian":[1.6184807E1,7.282058E0,8.902749E0],"tree_param":{"num_deleted":"0","num_feature":"38","num_nodes":"3","size_leaf_vector":"1"}},{"base_weights":[-6.1642118E-2,-2.2930035E-2,1.0866737E-2],"categories":[],"categories_nodes":[],"categories_segments":[],"categories_sizes":[],"default_left":[0,0,0],"id":64,"left_children":[1,-1,-1],"loss_changes":[2.0599728E0,0E0,0E0],"parents":[2147483647,0,0],"right_children":[2,-1,-1],"split_conditions":[6.7499004E-2,-2.2930035E-2,1.0866737E-2],"split_indices":[34,0,0],"split_type":[0,0,0],"sum_hessian":[1.6483627E1,6.685441E0,9.798185E0],"tree_param":{"num_deleted":"0","num_feature":"38","num_nodes":"3","size_leaf_vector":"1"}},{"base_weights":[-1.2091627E-1,2.8746044E-3,-1.6072758E-2],"categories":[],"categories_nodes":[],"categories_segments":[],"categories_sizes":[],"default_left":[0,0,0],"id":65,"left_children":[1,-1,-1],"loss_changes":[6.598732E-1,0E0,0E0],"parents":[2147483647,0,0],"right_children":[2,-1,-1],"split_conditions":[3.5E-1,2.8746044E-3,-1.6072758E-2],"split_indices":[5,0,0],"split_type":[0,0,0],"sum_hessian":[1.6189306E1,8.680977E0,7.50833E0],"tree_param":{"num_deleted":"0","num_feature":"38","num_nodes":"3","size_leaf_vector":"1"}},{"base_weights":[-2.110859E-2,1.6531989E-2,-1.9614942E-2],"categories":[],"categories_nodes":[],"categories_segments":[],"categories_sizes":[],"default_left":[0,0,0],"id":66,"left_children":[1,-1,-1],"loss_changes":[2.5559955E0,0E0,0E0],"parents":[2147483647,0,0],"right_children":[2,-1,-1],"split_conditions":[2.217E2,1.6531989E-2,-1.9614942E-2],"split_indices":[33,0,0],"split_type":[0,0,0],"sum_hessian":[1.753567E1,8.921393E0,8.614276E0],"tree_param":{"num_deleted":"0","num_feature":"38","num_nodes":"3","size_leaf_vector":"1"}},{"base_weights":[2.082663E-2,-1.682437E-2,2.927329E-2],"categories":[],"categories_nodes":[],"categories_segments":[],"categories_sizes":[],"default_left":[0,0,0],"id":67,"left_children":[1,-1,-1],"loss_changes":[3.4688957E0,0E0,0E0],"parents":[2147483647,0,0],"right_children":[2,-1,-1],"split_conditions":[1.3438217E-1,-1.682437E-2,2.927329E-2],"split_indices":[34,0,0],"split_type":[0,0,0],"sum_hessian":[1.5093876E1,9.383063E0,5.710813E0],"tree_param":{"num_deleted":"0","num_feature":"38","num_nodes":"3","size_leaf_vector":"1"}},{"base_weights":[-4.397253E-2,1.2273262E-2,-1.5830606E-2],"categories":[],"categories_nodes":[],"categories_segments":[],"categories_sizes":[],"default_left":[0,0,0],"id":68,"left_children":[1,-1,-1],"loss_changes":[1.545964E0,0E0,0E0],"parents":[2147483647,0,0],"right_children":[2,-1,-1],"split_conditions":[2.217E2,1.2273262E-2,-1.5830606E-2],"split_indices":[33,0,0],"split_type":[0,0,0],"sum_hessian":[1.7515923E1,8.366656E0,9.149265E0],"tree_param":{"num_deleted":"0","num_feature":"38","num_nodes":"3","size_leaf_vector":"1"}},{"base_weights":[1.12477906E-1,-4.404413E-2,2.0524142E-2,1.7332379E-2,-2.623838E-2],"categories":[],"categories_nodes":[],"categories_segments":[],"categories_sizes":[],"default_left":[0,0,0,0,0],"id":69,"left_children":[1,3,-1,-1,-1],"loss_changes":[8.83069E-1,2.5148003E0,0E0,0E0,0E0],"parents":[2147483647,0,0,1,1],"right_children":[2,4,-1,-1,-1],"split_conditions":[2.51E2,3.5E-1,2.0524142E-2,1.7332379E-2,-2.623838E-2],"split_indices":[0,5,0,0,0],"split_type":[0,0,0,0,0],"sum_hessian":[1.6758764E1,1.1326402E1,5.432362E0,6.287408E0,5.0389934E0],"tree_param":{"num_deleted":"0","num_feature":"38","num_nodes":"5","size_leaf_vector":"1"}},{"base_weights":[-7.0457235E-2,-2.8482136E-1,1.1733996E-2,-4.3755086E-4,-2.5085643E-2],"categories":[],"categories_nodes":[],"categories_segments":[],"categories_sizes":[],"default_left":[0,0,0,0,0],"id":70,"left_children":[1,3,-1,-1,-1],"loss_changes":[1.2878497E0,6.369529E-1,0E0,0E0,0E0],"parents":[2147483647,0,0,1,1],"right_children":[2,4,-1,-1,-1],"split_conditions":[1.3438217E-1,3.5E-1,1.1733996E-2,-4.3755086E-4,-2.5085643E-2],"split_indices":[34,5,0,0,0],"split_type":[0,0,0,0,0],"sum_hessian":[1.7590202E1,1.0563477E1,7.026725E0,5.308262E0,5.2552147E0],"tree_param":{"num_deleted":"0","num_feature":"38","num_nodes":"5","size_leaf_vector":"1"}},{"base_weights":[-3.263154E-3,-1.4869577E-2,1.1905312E-2],"categories":[],"categories_nodes":[],"categories_segments":[],"categories_sizes":[],"default_left":[0,0,0],"id":71,"left_children":[1,-1,-1],"loss_changes":[1.261727E0,0E0,0E0],"parents":[2147483647,0,0],"right_children":[2,-1,-1],"split_conditions":[2.2E-1,-1.4869577E-2,1.1905312E-2],"split_indices":[1,0,0],"split_type":[0,0,0],"sum_hessian":[1.5691476E1,7.1548753E0,8.5366E0],"tree_param":{"num_deleted":"0","num_feature":"38","num_nodes":"3","size_leaf_vector":"1"}},{"base_weights":[2.9408764E-2,-9.243446E-3,1.9745832E-2],"categories":[],"categories_nodes":[],"categories_segments":[],"categories_sizes":[],"default_left":[0,0,0],"id":72,"left_children":[1,-1,-1],"loss_changes":[1.3418078E0,0E0,0E0],"parents":[2147483647,0,0],"right_children":[2,-1,-1],"split_conditions":[1.3244179E-1,-9.243446E-3,1.9745832E-2],"split_indices":[34,0,0],"split_type":[0,0,0],"sum_hessian":[1.4931977E1,9.552487E0,5.3794904E0],"tree_param":{"num_deleted":"0","num_feature":"38","num_nodes":"3","size_leaf_vector":"1"}},{"base_weights":[8.7816045E-2,-1.728054E-2,3.331662E-1,3.2040656E-3,2.6068125E-2],"categories":[],"categories_nodes":[],"categories_segments":[],"categories_sizes":[],"default_left":[0,0,0,0,0],"id":73,"left_children":[1,-1,3,-1,-1],"loss_changes":[1.9135767E0,0E0,4.8853528E-1,0E0,0E0],"parents":[2147483647,0,0,2,2],"right_children":[2,-1,4,-1,-1],"split_conditions":[4.67E1,-1.728054E-2,4.6E-1,3.2040656E-3,2.6068125E-2],"split_indices":[0,0,1,0,0],"split_type":[0,0,0,0,0],"sum_hessian":[1.5923572E1,5.4606895E0,1.0462882E1,5.0764236E0,5.3864584E0],"tree_param":{"num_deleted":"0","num_feature":"38","num_nodes":"5","size_leaf_vector":"1"}},{"base_weights":[-2.610372E-2,-1.7637592E-2,1.6059505E-2],"categories":[],"categories_nodes":[],"categories_segments":[],"categories_sizes":[],"default_left":[0,0,0],"id":74,"left_children":[1,-1,-1],"loss_changes":[1.9751364E0,0E0,0E0],"parents":[2147483647,0,0],"right_children":[2,-1,-1],"split_conditions":[1E0,-1.7637592E-2,1.6059505E-2],"split_indices":[25,0,0],"split_type":[0,0,0],"sum_hessian":[1.5384281E1,8.068066E0,7.3162155E0],"tree_param":{"num_deleted":"0","num_feature":"38","num_nodes":"3","size_leaf_vector":"1"}},{"base_weights":[1.7087448E-2,-1.5768898E-1,1.62706E-2,7.0733964E-3,-2.3561882E-2],"categories":[],"categories_nodes":[],"categories_segments":[],"categories_sizes":[],"default_left":[0,0,0,0,0],"id":75,"left_children":[1,3,-1,-1,-1],"loss_changes":[1.018239E0,1.1989534E0,0E0,0E0,0E0],"parents":[2147483647,0,0,1,1],"right_children":[2,4,-1,-1,-1],"split_conditions":[1.3438217E-1,1E0,1.62706E-2,7.0733964E-3,-2.3561882E-2],"split_indices":[34,14,0,0,0],"split_type":[0,0,0,0,0],"sum_hessian":[1.6632036E1,1.0719707E1,5.91233E0,5.6033936E0,5.1163135E0],"tree_param":{"num_deleted":"0","num_feature":"38","num_nodes":"5","size_leaf_vector":"1"}},{"base_weights":[6.546975E-2,1.30557045E-2,-1.0111302E-2],"categories":[],"categories_nodes":[],"categories_segments":[],"categories_sizes":[],"default_left":[0,0,0],"id":76,"left_children":[1,-1,-1],"loss_changes":[8.967285E-1,0E0,0E0],"parents":[2147483647,0,0],"right_children":[2,-1,-1],"split_conditions":[3.3783785E-1,1.30557045E-2,-1.0111302E-2],"split_indices":[6,0,0],"split_type":[0,0,0],"sum_hessian":[1.5001241E1,8.897029E0,6.104212E0],"tree_param":{"num_deleted":"0","num_feature":"38","num_nodes":"3","size_leaf_vector":"1"}},{"base_weights":[-1.7253315E-2,-1.9676719E-2,1.5657762E-2],"categories":[],"categories_nodes":[],"categories_segments":[],"categories_sizes":[],"default_left":[0,0,0],"id":77,"left_children":[1,-1,-1],"loss_changes":[2.099474E0,0E0,0E0],"parents":[2147483647,0,0],"right_children":[2,-1,-1],"split_conditions":[1E0,-1.9676719E-2,1.5657762E-2],"split_indices":[25,0,0],"split_type":[0,0,0],"sum_hessian":[1.4830893E1,6.9862747E0,7.8446174E0],"tree_param":{"num_deleted":"0","num_feature":"38","num_nodes":"3","size_leaf_vector":"1"}},{"base_weights":[-4.6554014E-2,1.6161527E-2,-1.9252835E-2],"categories":[],"categories_nodes":[],"categories_segments":[],"categories_sizes":[],"default_left":[0,0,0],"id":78,"left_children":[1,-1,-1],"loss_changes":[2.3031654E0,0E0,0E0],"parents":[2147483647,0,0],"right_children":[2,-1,-1],"split_conditions":[2.217E2,1.6161527E-2,-1.9252835E-2],"split_indices":[33,0,0],"split_type":[0,0,0],"sum_hessian":[1.6356138E1,7.6972566E0,8.658881E0],"tree_param":{"num_deleted":"0","num_feature":"38","num_nodes":"3","size_leaf_vector":"1"}},{"base_weights":[1.1607184E-1,-1.0265198E-2,2.9255727E-1,-0E0,2.563705E-2],"categories":[],"categories_nodes":[],"categories_segments":[],"categories_sizes":[],"default_left":[0,0,0,0,0],"id":79,"left_children":[1,-1,3,-1,-1],"loss_changes":[1.0179094E0,0E0,7.0320624E-1,0E0,0E0],"parents":[2147483647,0,0,2,2],"right_children":[2,-1,4,-1,-1],"split_conditions":[6.52E1,-1.0265198E-2,5E-1,-0E0,2.563705E-2],"split_indices":[0,0,26,0,0],"split_type":[0,0,0,0,0],"sum_hessian":[1.5733992E1,5.318754E0,1.0415237E1,5.0241666E0,5.3910704E0],"tree_param":{"num_deleted":"0","num_feature":"38","num_nodes":"5","size_leaf_vector":"1"}},{"base_weights":[8.5252374E-2,-6.38332E-3,1.9362196E-2],"categories":[],"categories_nodes":[],"categories_segments":[],"categories_sizes":[],"default_left":[0,0,0],"id":80,"left_children":[1,-1,-1],"loss_changes":[1.1580876E0,0E0,0E0],"parents":[2147483647,0,0],"right_children":[2,-1,-1],"split_conditions":[1.3438217E-1,-6.38332E-3,1.9362196E-2],"split_indices":[34,0,0],"split_type":[0,0,0],"sum_hessian":[1.5838218E1,9.433357E0,6.40486E0],"tree_param":{"num_deleted":"0","num_feature":"38","num_nodes":"3","size_leaf_vector":"1"}},{"base_weights":[-6.265127E-2,-1.911657E-2,9.999533E-3],"categories":[],"categories_nodes":[],"categories_segments":[],"categories_sizes":[],"default_left":[0,0,0],"id":81,"left_children":[1,-1,-1],"loss_changes":[1.4256238E0,0E0,0E0],"parents":[2147483647,0,0],"right_children":[2,-1,-1],"split_conditions":[2.2E-1,-1.911657E-2,9.999533E-3],"split_indices":[1,0,0],"split_type":[0,0,0],"sum_hessian":[1.4851653E1,6.6646585E0,8.186995E0],"tree_param":{"num_deleted":"0","num_feature":"38","num_nodes":"3","size_leaf_vector":"1"}},{"base_weights":[-1.7182855E-1,-0E0,-1.5935337E-2],"categories":[],"categories_nodes":[],"categories_segments":[],"categories_sizes":[],"default_left":[0,0,0],"id":82,"left_children":[1,-1,-1],"loss_changes":[3.9888445E-1,0E0,0E0],"parents":[2147483647,0,0],"right_children":[2,-1,-1],"split_conditions":[5E-1,-0E0,-1.5935337E-2],"split_indices":[15,0,0],"split_type":[0,0,0],"sum_hessian":[1.4565619E1,7.114044E0,7.4515753E0],"tree_param":{"num_deleted":"0","num_feature":"38","num_nodes":"3","size_leaf_vector":"1"}},{"base_weights":[-2.20112E-2,-8.581632E-3,9.964393E-3],"categories":[],"categories_nodes":[],"categories_segments":[],"categories_sizes":[],"default_left":[0,0,0],"id":83,"left_children":[1,-1,-1],"loss_changes":[6.006525E-1,0E0,0E0],"parents":[2147483647,0,0],"right_children":[2,-1,-1],"split_conditions":[1.3438217E-1,-8.581632E-3,9.964393E-3],"split_indices":[34,0,0],"split_type":[0,0,0],"sum_hessian":[1.6191032E1,1.0063415E1,6.127618E0],"tree_param":{"num_deleted":"0","num_feature":"38","num_nodes":"3","size_leaf_vector":"1"}},{"base_weights":[-0E0,1.9734384E-2,-1.7636126E-2],"categories":[],"categories_nodes":[],"categories_segments":[],"categories_sizes":[],"default_left":[0,0,0],"id":84,"left_children":[1,-1,-1],"loss_changes":[2.4791074E0,0E0,0E0],"parents":[2147483647,0,0],"right_children":[2,-1,-1],"split_conditions":[2.217E2,1.9734384E-2,-1.7636126E-2],"split_indices":[33,0,0],"split_type":[0,0,0],"sum_hessian":[1.5793554E1,7.4601674E0,8.333386E0],"tree_param":{"num_deleted":"0","num_feature":"38","num_nodes":"3","size_leaf_vector":"1"}},{"base_weights":[-1.00558415E-1,1.5174383E-2,-2.1774093E-2],"categories":[],"categories_nodes":[],"categories_segments":[],"categories_sizes":[],"default_left":[0,0,0],"id":85,"left_children":[1,-1,-1],"loss_changes":[2.3392496E0,0E0,0E0],"parents":[2147483647,0,0],"right_children":[2,-1,-1],"split_conditions":[2.217E2,1.5174383E-2,-2.1774093E-2],"split_indices":[33,0,0],"split_type":[0,0,0],"sum_hessian":[1.5212044E1,6.801777E0,8.410267E0],"tree_param":{"num_deleted":"0","num_feature":"38","num_nodes":"3","size_leaf_vector":"1"}},{"base_weights":[2.0072478E-1,-3.1255044E-3,2.502538E-2],"categories":[],"categories_nodes":[],"categories_segments":[],"categories_sizes":[],"default_left":[0,0,0],"id":86,"left_children":[1,-1,-1],"loss_changes":[1.230863E0,0E0,0E0],"parents":[2147483647,0,0],"right_children":[2,-1,-1],"split_conditions":[1.3438217E-1,-3.1255044E-3,2.502538E-2],"split_indices":[34,0,0],"split_type":[0,0,0],"sum_hessian":[1.3646159E1,7.5098114E0,6.136348E0],"tree_param":{"num_deleted":"0","num_feature":"38","num_nodes":"3","size_leaf_vector":"1"}},{"base_weights":[-2.7366657E-2,1.1694525E-2,-1.4791982E-2],"categories":[],"categories_nodes":[],"categories_segments":[],"categories_sizes":[],"default_left":[0,0,0],"id":87,"left_children":[1,-1,-1],"loss_changes":[1.2266226E0,0E0,0E0],"parents":[2147483647,0,0],"right_children":[2,-1,-1],"split_conditions":[2.217E2,1.1694525E-2,-1.4791982E-2],"split_indices":[33,0,0],"split_type":[0,0,0],"sum_hessian":[1.5413254E1,7.6881123E0,7.725142E0],"tree_param":{"num_deleted":"0","num_feature":"38","num_nodes":"3","size_leaf_vector":"1"}},{"base_weights":[2.5159525E-2,1.2371781E-2,-1.5004649E-2],"categories":[],"categories_nodes":[],"categories_segments":[],"categories_sizes":[],"default_left":[0,0,0],"id":88,"left_children":[1,-1,-1],"loss_changes":[1.3230842E0,0E0,0E0],"parents":[2147483647,0,0],"right_children":[2,-1,-1],"split_conditions":[3.8E-1,1.2371781E-2,-1.5004649E-2],"split_indices":[1,0,0],"split_type":[0,0,0],"sum_hessian":[1.6346725E1,1.003533E1,6.311395E0],"tree_param":{"num_deleted":"0","num_feature":"38","num_nodes":"3","size_leaf_vector":"1"}},{"base_weights":[4.9618747E-2,-1.3700505E-2,1.6469492E-2],"categories":[],"categories_nodes":[],"categories_segments":[],"categories_sizes":[],"default_left":[0,0,0],"id":89,"left_children":[1,-1,-1],"loss_changes":[1.509439E0,0E0,0E0],"parents":[2147483647,0,0],"right_children":[2,-1,-1],"split_conditions":[9.189189E-2,-1.3700505E-2,1.6469492E-2],"split_indices":[5,0,0],"split_type":[0,0,0],"sum_hessian":[1.4613142E1,6.6193166E0,7.993825E0],"tree_param":{"num_deleted":"0","num_feature":"38","num_nodes":"3","size_leaf_vector":"1"}},{"base_weights":[-0E0,-1.6104518E-1,1.5604089E-2,6.0843225E-3,-2.296197E-2],"categories":[],"categories_nodes":[],"categories_segments":[],"categories_sizes":[],"default_left":[0,0,0,0,0],"id":90,"left_children":[1,3,-1,-1,-1],"loss_changes":[9.009259E-1,1.1184183E0,0E0,0E0,0E0],"parents":[2147483647,0,0,1,1],"right_children":[2,4,-1,-1,-1],"split_conditions":[1.6986963E-1,1.694E2,1.5604089E-2,6.0843225E-3,-2.296197E-2],"split_indices":[34,33,0,0,0],"split_type":[0,0,0,0,0],"sum_hessian":[1.6203293E1,1.1202501E1,5.0007915E0,5.8820395E0,5.3204618E0],"tree_param":{"num_deleted":"0","num_feature":"38","num_nodes":"5","size_leaf_vector":"1"}},{"base_weights":[1.9486116E-1,-4.249214E-3,3.2148574E-2],"categories":[],"categories_nodes":[],"categories_segments":[],"categories_sizes":[],"default_left":[0,0,0],"id":91,"left_children":[1,-1,-1],"loss_changes":[1.9877579E0,0E0,0E0],"parents":[2147483647,0,0],"right_children":[2,-1,-1],"split_conditions":[1.3438217E-1,-4.249214E-3,3.2148574E-2],"split_indices":[34,0,0],"split_type":[0,0,0],"sum_hessian":[1.3970433E1,8.961288E0,5.0091453E0],"tree_param":{"num_deleted":"0","num_feature":"38","num_nodes":"3","size_leaf_vector":"1"}},{"base_weights":[-2.0671195E-1,4.207111E-3,-2.3316583E-2],"categories":[],"categories_nodes":[],"categories_segments":[],"categories_sizes":[],"default_left":[0,0,0],"id":92,"left_children":[1,-1,-1],"loss_changes":[1.251775E0,0E0,0E0],"parents":[2147483647,0,0],"right_children":[2,-1,-1],"split_conditions":[2.111E2,4.207111E-3,-2.3316583E-2],"split_indices":[33,0,0],"split_type":[0,0,0],"sum_hessian":[1.4551517E1,7.0000377E0,7.5514784E0],"tree_param":{"num_deleted":"0","num_feature":"38","num_nodes":"3","size_leaf_vector":"1"}},{"base_weights":[3.2091577E-2,-1.5021952E-2,1.3226877E-2],"categories":[],"categories_nodes":[],"categories_segments":[],"categories_sizes":[],"default_left":[0,0,0],"id":93,"left_children":[1,-1,-1],"loss_changes":[1.3829284E0,0E0,0E0],"parents":[2147483647,0,0],"right_children":[2,-1,-1],"split_conditions":[1.184E2,-1.5021952E-2,1.3226877E-2],"split_indices":[0,0,0],"split_type":[0,0,0],"sum_hessian":[1.5909689E1,6.248312E0,9.661377E0],"tree_param":{"num_deleted":"0","num_feature":"38","num_nodes":"3","size_leaf_vector":"1"}},{"base_weights":[-7.970516E-2,1.10827265E-2,-1.775392E-2],"categories":[],"categories_nodes":[],"categories_segments":[],"categories_sizes":[],"default_left":[0,0,0],"id":94,"left_children":[1,-1,-1],"loss_changes":[1.4388455E0,0E0,0E0],"parents":[2147483647,0,0],"right_children":[2,-1,-1],"split_conditions":[2.217E2,1.10827265E-2,-1.775392E-2],"split_indices":[33,0,0],"split_type":[0,0,0],"sum_hessian":[1.5229149E1,7.1912293E0,8.03792E0],"tree_param":{"num_deleted":"0","num_feature":"38","num_nodes":"3","size_leaf_vector":"1"}},{"base_weights":[-2.2373727E-2,-2.070747E-1,1.3359583E-2,-2.0528927E-3,-1.603934E-2],"categories":[],"categories_nodes":[],"categories_segments":[],"categories_sizes":[],"default_left":[0,0,0,0,0],"id":95,"left_children":[1,3,-1,-1,-1],"loss_changes":[9.520664E-1,1.5981212E-1,0E0,0E0,0E0],"parents":[2147483647,0,0,1,1],"right_children":[2,4,-1,-1,-1],"split_conditions":[4.8E-1,1.6081081E-1,1.3359583E-2,-2.0528927E-3,-1.603934E-2],"split_indices":[1,6,0,0,0],"split_type":[0,0,0,0,0],"sum_hessian":[1.5879183E1,1.0079889E1,5.7992935E0,5.008331E0,5.0715585E0],"tree_param":{"num_deleted":"0","num_feature":"38","num_nodes":"5","size_leaf_vector":"1"}},{"base_weights":[-2.9637523E-2,9.827947E-3,-1.2978344E-2],"categories":[],"categories_nodes":[],"categories_segments":[],"categories_sizes":[],"default_left":[0,0,0],"id":96,"left_children":[1,-1,-1],"loss_changes":[9.449174E-1,0E0,0E0],"parents":[2147483647,0,0],"right_children":[2,-1,-1],"split_conditions":[2.217E2,9.827947E-3,-1.2978344E-2],"split_indices":[33,0,0],"split_type":[0,0,0],"sum_hessian":[1.6066141E1,7.952736E0,8.113406E0],"tree_param":{"num_deleted":"0","num_feature":"38","num_nodes":"3","size_leaf_vector":"1"}},{"base_weights":[-9.6734986E-2,-1.6961176E-2,1.0490182E-2],"categories":[],"categories_nodes":[],"categories_segments":[],"categories_sizes":[],"default_left":[0,0,0],"id":97,"left_children":[1,-1,-1],"loss_changes":[1.3448436E0,0E0,0E0],"parents":[2147483647,0,0],"right_children":[2,-1,-1],"split_conditions":[2.6891893E-1,-1.6961176E-2,1.0490182E-2],"split_indices":[6,0,0],"split_type":[0,0,0],"sum_hessian":[1.5960793E1,9.034005E0,6.926787E0],"tree_param":{"num_deleted":"0","num_feature":"38","num_nodes":"3","size_leaf_vector":"1"}},{"base_weights":[-2.9853065E-3,7.592648E-3,-1.1033977E-2],"categories":[],"categories_nodes":[],"categories_segments":[],"categories_sizes":[],"default_left":[0,0,0],"id":98,"left_children":[1,-1,-1],"loss_changes":[6.273107E-1,0E0,0E0],"parents":[2147483647,0,0],"right_children":[2,-1,-1],"split_conditions":[3.8E-1,7.592648E-3,-1.1033977E-2],"split_indices":[1,0,0],"split_type":[0,0,0],"sum_hessian":[1.6412119E1,9.498943E0,6.913175E0],"tree_param":{"num_deleted":"0","num_feature":"38","num_nodes":"3","size_leaf_vector":"1"}},{"base_weights":[1.0014721E-1,1.4704612E-2,-6.6867764E-3],"categories":[],"categories_nodes":[],"categories_segments":[],"categories_sizes":[],"default_left":[0,0,0],"id":99,"left_children":[1,-1,-1],"loss_changes":[8.237474E-1,0E0,0E0],"parents":[2147483647,0,0],"right_children":[2,-1,-1],"split_conditions":[2.46E2,1.4704612E-2,-6.6867764E-3],"split_indices":[33,0,0],"split_type":[0,0,0],"sum_hessian":[1.5939473E1,8.806717E0,7.132756E0],"tree_param":{"num_deleted":"0","num_feature":"38","num_nodes":"3","size_leaf_vector":"1"}},{"base_weights":[-4.6429884E-2,-1.7465639E-1,1.0079819E-2,4.5365714E-3,-2.3749795E-2],"categories":[],"categories_nodes":[],"categories_segments":[],"categories_sizes":[],"default_left":[0,0,0,0,0],"id":100,"left_children":[1,3,-1,-1,-1],"loss_changes":[5.956933E-1,1.0758386E0,0E0,0E0,0E0],"parents":[2147483647,0,0,1,1],"right_children":[2,4,-1,-1,-1],"split_conditions":[2.739E2,3.5E-1,1.0079819E-2,4.5365714E-3,-2.3749795E-2],"split_indices":[0,5,0,0,0],"split_type":[0,0,0,0,0],"sum_hessian":[1.6708002E1,1.1474714E1,5.233288E0,6.285568E0,5.1891456E0],"tree_param":{"num_deleted":"0","num_feature":"38","num_nodes":"5","size_leaf_vector":"1"}},{"base_weights":[5.8843613E-2,1.335762E-2,-9.865067E-3],"categories":[],"categories_nodes":[],"categories_segments":[],"categories_sizes":[],"default_left":[0,0,0],"id":101,"left_children":[1,-1,-1],"loss_changes":[8.8727623E-1,0E0,0E0],"parents":[2147483647,0,0],"right_children":[2,-1,-1],"split_conditions":[4.5945945E-1,1.335762E-2,-9.865067E-3],"split_indices":[5,0,0],"split_type":[0,0,0],"sum_hessian":[1.4510202E1,8.193943E0,6.316259E0],"tree_param":{"num_deleted":"0","num_feature":"38","num_nodes":"3","size_leaf_vector":"1"}},{"base_weights":[8.127808E-2,-1.13642905E-2,1.8561507E-2],"categories":[],"categories_nodes":[],"categories_segments":[],"categories_sizes":[],"default_left":[0,0,0],"id":102,"left_children":[1,-1,-1],"loss_changes":[1.58548E0,0E0,0E0],"parents":[2147483647,0,0],"right_children":[2,-1,-1],"split_conditions":[1.641E2,-1.13642905E-2,1.8561507E-2],"split_indices":[0,0,0],"split_type":[0,0,0],"sum_hessian":[1.5617092E1,7.5033493E0,8.113743E0],"tree_param":{"num_deleted":"0","num_feature":"38","num_nodes":"3","size_leaf_vector":"1"}},{"base_weights":[-1.18877284E-1,-2.3098156E-2,1.7461075E-2],"categories":[],"categories_nodes":[],"categories_segments":[],"categories_sizes":[],"default_left":[0,0,0],"id":103,"left_children":[1,-1,-1],"loss_changes":[2.7613041E0,0E0,0E0],"parents":[2147483647,0,0],"right_children":[2,-1,-1],"split_conditions":[1.3438217E-1,-2.3098156E-2,1.7461075E-2],"split_indices":[34,0,0],"split_type":[0,0,0],"sum_hessian":[1.5119141E1,8.855428E0,6.263713E0],"tree_param":{"num_deleted":"0","num_feature":"38","num_nodes":"3","size_leaf_vector":"1"}},{"base_weights":[1.5381488E-1,2.3081087E-2,-1.0832579E-2],"categories":[],"categories_nodes":[],"categories_segments":[],"categories_sizes":[],"default_left":[0,0,0],"id":104,"left_children":[1,-1,-1],"loss_changes":[1.8015374E0,0E0,0E0],"parents":[2147483647,0,0],"right_children":[2,-1,-1],"split_conditions":[1E0,2.3081087E-2,-1.0832579E-2],"split_indices":[29,0,0],"split_type":[0,0,0],"sum_hessian":[1.3706639E1,7.499477E0,6.207163E0],"tree_param":{"num_deleted":"0","num_feature":"38","num_nodes":"3","size_leaf_vector":"1"}},{"base_weights":[-2.0910458E-1,1.7902273E-3,-2.1440767E-2],"categories":[],"categories_nodes":[],"categories_segments":[],"categories_sizes":[],"default_left":[0,0,0],"id":105,"left_children":[1,-1,-1],"loss_changes":[9.4207287E-1,0E0,0E0],"parents":[2147483647,0,0],"right_children":[2,-1,-1],"split_conditions":[2.217E2,1.7902273E-3,-2.1440767E-2],"split_indices":[33,0,0],"split_type":[0,0,0],"sum_hessian":[1.5491954E1,7.5064692E0,7.985484E0],"tree_param":{"num_deleted":"0","num_feature":"38","num_nodes":"3","size_leaf_vector":"1"}},{"base_weights":[1.0451503E-1,1.8425168E-2,-7.657154E-3],"categories":[],"categories_nodes":[],"categories_segments":[],"categories_sizes":[],"default_left":[0,0,0],"id":106,"left_children":[1,-1,-1],"loss_changes":[1.1907513E0,0E0,0E0],"parents":[2147483647,0,0],"right_children":[2,-1,-1],"split_conditions":[2.217E2,1.8425168E-2,-7.657154E-3],"split_indices":[33,0,0],"split_type":[0,0,0],"sum_hessian":[1.5359926E1,7.5659757E0,7.79395E0],"tree_param":{"num_deleted":"0","num_feature":"38","num_nodes":"3","size_leaf_vector":"1"}},{"base_weights":[1.347885E-2,-1.3928342E-2,1.4247295E-2],"categories":[],"categories_nodes":[],"categories_segments":[],"categories_sizes":[],"default_left":[0,0,0],"id":107,"left_children":[1,-1,-1],"loss_changes":[1.3750136E0,0E0,0E0],"parents":[2147483647,0,0],"right_children":[2,-1,-1],"split_conditions":[9.086492E-2,-1.3928342E-2,1.4247295E-2],"split_indices":[34,0,0],"split_type":[0,0,0],"sum_hessian":[1.5334339E1,7.1971188E0,8.13722E0],"tree_param":{"num_deleted":"0","num_feature":"38","num_nodes":"3","size_leaf_vector":"1"}},{"base_weights":[2.0223493E-2,-1.1849197E-2,1.1201256E-2],"categories":[],"categories_nodes":[],"categories_segments":[],"categories_sizes":[],"default_left":[0,0,0],"id":108,"left_children":[1,-1,-1],"loss_changes":[9.07575E-1,0E0,0E0],"parents":[2147483647,0,0],"right_children":[2,-1,-1],"split_conditions":[9.086492E-2,-1.1849197E-2,1.1201256E-2],"split_indices":[34,0,0],"split_type":[0,0,0],"sum_hessian":[1.5325681E1,6.4862423E0,8.839438E0],"tree_param":{"num_deleted":"0","num_feature":"38","num_nodes":"3","size_leaf_vector":"1"}},{"base_weights":[1.0795523E-2,1.6347375E-2,-1.5392269E-1,-2.2172506E-3,-1.1079351E-2],"categories":[],"categories_nodes":[],"categories_segments":[],"categories_sizes":[],"default_left":[0,0,0,0,0],"id":109,"left_children":[1,-1,3,-1,-1],"loss_changes":[9.0951407E-1,0E0,4.5887083E-2,0E0,0E0],"parents":[2147483647,0,0,2,2],"right_children":[2,-1,4,-1,-1],"split_conditions":[4E-2,1.6347375E-2,1E0,-2.2172506E-3,-1.1079351E-2],"split_indices":[1,0,15,0,0],"split_type":[0,0,0,0,0],"sum_hessian":[1.5166511E1,5.065757E0,1.0100754E1,5.0522456E0,5.048508E0],"tree_param":{"num_deleted":"0","num_feature":"38","num_nodes":"5","size_leaf_vector":"1"}},{"base_weights":[7.3529094E-2,1.2023438E-2,-7.1283444E-3],"categories":[],"categories_nodes":[],"categories_segments":[],"categories_sizes":[],"default_left":[0,0,0],"id":110,"left_children":[1,-1,-1],"loss_changes":[5.8247644E-1,0E0,0E0],"parents":[2147483647,0,0],"right_children":[2,-1,-1],"split_conditions":[2.503E2,1.2023438E-2,-7.1283444E-3],"split_indices":[33,0,0],"split_type":[0,0,0],"sum_hessian":[1.3924561E1,8.053216E0,5.8713446E0],"tree_param":{"num_deleted":"0","num_feature":"38","num_nodes":"3","size_leaf_vector":"1"}},{"base_weights":[-2.4121849E-2,1.3601218E-2,-1.8799147E-1,-1.9853236E-2,1.5752967E-3],"categories":[],"categories_nodes":[],"categories_segments":[],"categories_sizes":[],"default_left":[0,0,0,0,0],"id":111,"left_children":[1,-1,3,-1,-1],"loss_changes":[8.358449E-1,0E0,5.690041E-1,0E0,0E0],"parents":[2147483647,0,0,2,2],"right_children":[2,-1,4,-1,-1],"split_conditions":[1.4E-1,1.3601218E-2,1.7442851E-1,-1.9853236E-2,1.5752967E-3],"split_indices":[1,0,34,0,0],"split_type":[0,0,0,0,0],"sum_hessian":[1.5342885E1,5.0130405E0,1.0329844E1,5.109558E0,5.2202864E0],"tree_param":{"num_deleted":"0","num_feature":"38","num_nodes":"5","size_leaf_vector":"1"}},{"base_weights":[4.937119E-2,1.1603865E-2,-7.1317903E-3],"categories":[],"categories_nodes":[],"categories_segments":[],"categories_sizes":[],"default_left":[0,0,0],"id":112,"left_children":[1,-1,-1],"loss_changes":[6.605289E-1,0E0,0E0],"parents":[2147483647,0,0],"right_children":[2,-1,-1],"split_conditions":[2.217E2,1.1603865E-2,-7.1317903E-3],"split_indices":[33,0,0],"split_type":[0,0,0],"sum_hessian":[1.6630198E1,8.681426E0,7.9487715E0],"tree_param":{"num_deleted":"0","num_feature":"38","num_nodes":"3","size_leaf_vector":"1"}},{"base_weights":[-6.0720347E-2,1.0207615E-2,-1.9594343E-2],"categories":[],"categories_nodes":[],"categories_segments":[],"categories_sizes":[],"default_left":[0,0,0],"id":113,"left_children":[1,-1,-1],"loss_changes":[1.5082561E0,0E0,0E0],"parents":[2147483647,0,0],"right_children":[2,-1,-1],"split_conditions":[9.189189E-2,1.0207615E-2,-1.9594343E-2],"split_indices":[6,0,0],"split_type":[0,0,0],"sum_hessian":[1.506848E1,8.417551E0,6.650928E0],"tree_param":{"num_deleted":"0","num_feature":"38","num_nodes":"3","size_leaf_vector":"1"}},{"base_weights":[1.2544507E-1,1.5966175E-2,-6.304958E-3],"categories":[],"categories_nodes":[],"categories_segments":[],"categories_sizes":[],"default_left":[0,0,0],"id":114,"left_children":[1,-1,-1],"loss_changes":[8.416389E-1,0E0,0E0],"parents":[2147483647,0,0],"right_children":[2,-1,-1],"split_conditions":[5E-1,1.5966175E-2,-6.304958E-3],"split_indices":[5,0,0],"split_type":[0,0,0],"sum_hessian":[1.5035799E1,8.563527E0,6.472272E0],"tree_param":{"num_deleted":"0","num_feature":"38","num_nodes":"3","size_leaf_vector":"1"}},{"base_weights":[4.590556E-2,-1.0389629E-2,1.3970423E-2],"categories":[],"categories_nodes":[],"categories_segments":[],"categories_sizes":[],"default_left":[0,0,0],"id":115,"left_children":[1,-1,-1],"loss_changes":[1.0358913E0,0E0,0E0],"parents":[2147483647,0,0],"right_children":[2,-1,-1],"split_conditions":[9.189189E-2,-1.0389629E-2,1.3970423E-2],"split_indices":[5,0,0],"split_type":[0,0,0],"sum_hessian":[1.5385602E1,7.22144E0,8.164162E0],"tree_param":{"num_deleted":"0","num_feature":"38","num_nodes":"3","size_leaf_vector":"1"}},{"base_weights":[2.3851393E-1,2.4443816E-2,-1.6388082E-3],"categories":[],"categories_nodes":[],"categories_segments":[],"categories_sizes":[],"default_left":[0,0,0],"id":116,"left_children":[1,-1,-1],"loss_changes":[1.1299939E0,0E0,0E0],"parents":[2147483647,0,0],"right_children":[2,-1,-1],"split_conditions":[3.5E-1,2.4443816E-2,-1.6388082E-3],"split_indices":[5,0,0],"split_type":[0,0,0],"sum_hessian":[1.4729494E1,7.434796E0,7.294698E0],"tree_param":{"num_deleted":"0","num_feature":"38","num_nodes":"3","size_leaf_vector":"1"}},{"base_weights":[-1.23644724E-1,-1.4147229E-2,6.8706754E-3],"categories":[],"categories_nodes":[],"categories_segments":[],"categories_sizes":[],"default_left":[0,0,0],"id":117,"left_children":[1,-1,-1],"loss_changes":[7.558411E-1,0E0,0E0],"parents":[2147483647,0,0],"right_children":[2,-1,-1],"split_conditions":[1.3438217E-1,-1.4147229E-2,6.8706754E-3],"split_indices":[34,0,0],"split_type":[0,0,0],"sum_hessian":[1.5890267E1,1.0054283E1,5.835984E0],"tree_param":{"num_deleted":"0","num_feature":"38","num_nodes":"3","size_leaf_vector":"1"}},{"base_weights":[9.700965E-2,1.46765355E-2,-8.614194E-3],"categories":[],"categories_nodes":[],"categories_segments":[],"categories_sizes":[],"default_left":[0,0,0],"id":118,"left_children":[1,-1,-1],"loss_changes":[9.2954206E-1,0E0,0E0],"parents":[2147483647,0,0],"right_children":[2,-1,-1],"split_conditions":[2.503E2,1.46765355E-2,-8.614194E-3],"split_indices":[33,0,0],"split_type":[0,0,0],"sum_hessian":[1.5379754E1,9.053884E0,6.32587E0],"tree_param":{"num_deleted":"0","num_feature":"38","num_nodes":"3","size_leaf_vector":"1"}},{"base_weights":[1.4225371E-1,1.6016925E-2,-2.2851778E-3],"categories":[],"categories_nodes":[],"categories_segments":[],"categories_sizes":[],"default_left":[0,0,0],"id":119,"left_children":[1,-1,-1],"loss_changes":[5.7273304E-1,0E0,0E0],"parents":[2147483647,0,0],"right_children":[2,-1,-1],"split_conditions":[3.5E-1,1.6016925E-2,-2.2851778E-3],"split_indices":[5,0,0],"split_type":[0,0,0],"sum_hessian":[1.4852766E1,7.538217E0,7.3145494E0],"tree_param":{"num_deleted":"0","num_feature":"38","num_nodes":"3","size_leaf_vector":"1"}},{"base_weights":[-8.425546E-2,7.463883E-3,-1.76588E-2],"categories":[],"categories_nodes":[],"categories_segments":[],"categories_sizes":[],"default_left":[0,0,0],"id":120,"left_children":[1,-1,-1],"loss_changes":[1.0994749E0,0E0,0E0],"parents":[2147483647,0,0],"right_children":[2,-1,-1],"split_conditions":[2.067E2,7.463883E-3,-1.76588E-2],"split_indices":[33,0,0],"split_type":[0,0,0],"sum_hessian":[1.5342889E1,8.250832E0,7.0920563E0],"tree_param":{"num_deleted":"0","num_feature":"38","num_nodes":"3","size_leaf_vector":"1"}},{"base_weights":[3.3760995E-2,-8.776178E-3,1.6472587E-2],"categories":[],"categories_nodes":[],"categories_segments":[],"categories_sizes":[],"default_left":[0,0,0],"id":121,"left_children":[1,-1,-1],"loss_changes":[1.0541168E0,0E0,0E0],"parents":[2147483647,0,0],"right_children":[2,-1,-1],"split_conditions":[1.3438217E-1,-8.776178E-3,1.6472587E-2],"split_indices":[34,0,0],"split_type":[0,0,0],"sum_hessian":[1.485071E1,8.735843E0,6.114867E0],"tree_param":{"num_deleted":"0","num_feature":"38","num_nodes":"3","size_leaf_vector":"1"}},{"base_weights":[-4.360214E-2,-1.1637897E-2,1.2749207E-2],"categories":[],"categories_nodes":[],"categories_segments":[],"categories_sizes":[],"default_left":[0,0,0],"id":122,"left_children":[1,-1,-1],"loss_changes":[9.8898536E-1,0E0,0E0],"parents":[2147483647,0,0],"right_children":[2,-1,-1],"split_conditions":[1.3438217E-1,-1.1637897E-2,1.2749207E-2],"split_indices":[34,0,0],"split_type":[0,0,0],"sum_hessian":[1.5499106E1,9.828245E0,5.670861E0],"tree_param":{"num_deleted":"0","num_feature":"38","num_nodes":"3","size_leaf_vector":"1"}},{"base_weights":[-8.9977175E-2,-1.3992063E-2,3.3145796E-3],"categories":[],"categories_nodes":[],"categories_segments":[],"categories_sizes":[],"default_left":[0,0,0],"id":123,"left_children":[1,-1,-1],"loss_changes":[5.1593626E-1,0E0,0E0],"parents":[2147483647,0,0],"right_children":[2,-1,-1],"split_conditions":[2.2E-1,-1.3992063E-2,3.3145796E-3],"split_indices":[1,0,0],"split_type":[0,0,0],"sum_hessian":[1.5044252E1,6.7239337E0,8.320319E0],"tree_param":{"num_deleted":"0","num_feature":"38","num_nodes":"3","size_leaf_vector":"1"}},{"base_weights":[9.214731E-2,1.5234912E-2,-9.421201E-3],"categories":[],"categories_nodes":[],"categories_segments":[],"categories_sizes":[],"default_left":[0,0,0],"id":124,"left_children":[1,-1,-1],"loss_changes":[9.717517E-1,0E0,0E0],"parents":[2147483647,0,0],"right_children":[2,-1,-1],"split_conditions":[3.8E-1,1.5234912E-2,-9.421201E-3],"split_indices":[1,0,0],"split_type":[0,0,0],"sum_hessian":[1.4137107E1,8.19744E0,5.9396667E0],"tree_param":{"num_deleted":"0","num_feature":"38","num_nodes":"3","size_leaf_vector":"1"}},{"base_weights":[-3.3226103E-2,1.1445865E-2,-2.0492814E-2],"categories":[],"categories_nodes":[],"categories_segments":[],"categories_sizes":[],"default_left":[0,0,0],"id":125,"left_children":[1,-1,-1],"loss_changes":[1.7776996E0,0E0,0E0],"parents":[2147483647,0,0],"right_children":[2,-1,-1],"split_conditions":[3.6E-1,1.1445865E-2,-2.0492814E-2],"split_indices":[1,0,0],"split_type":[0,0,0],"sum_hessian":[1.587191E1,9.433003E0,6.438907E0],"tree_param":{"num_deleted":"0","num_feature":"38","num_nodes":"3","size_leaf_vector":"1"}},{"base_weights":[-0E0,-6.824625E-3,1.1492995E-2],"categories":[],"categories_nodes":[],"categories_segments":[],"categories_sizes":[],"default_left":[0,0,0],"id":126,"left_children":[1,-1,-1],"loss_changes":[5.5258983E-1,0E0,0E0],"parents":[2147483647,0,0],"right_children":[2,-1,-1],"split_conditions":[4.8E-1,-6.824625E-3,1.1492995E-2],"split_indices":[1,0,0],"split_type":[0,0,0],"sum_hessian":[1.5502279E1,9.879962E0,5.622317E0],"tree_param":{"num_deleted":"0","num_feature":"38","num_nodes":"3","size_leaf_vector":"1"}},{"base_weights":[-6.466245E-2,-1.2472532E-2,9.194531E-3],"categories":[],"categories_nodes":[],"categories_segments":[],"categories_sizes":[],"default_left":[0,0,0],"id":127,"left_children":[1,-1,-1],"loss_changes":[7.8639644E-1,0E0,0E0],"parents":[2147483647,0,0],"right_children":[2,-1,-1],"split_conditions":[1.3438217E-1,-1.2472532E-2,9.194531E-3],"split_indices":[34,0,0],"split_type":[0,0,0],"sum_hessian":[1.4980275E1,8.820983E0,6.159292E0],"tree_param":{"num_deleted":"0","num_feature":"38","num_nodes":"3","size_leaf_vector":"1"}},{"base_weights":[9.0906054E-2,-5.442026E-3,1.5529923E-2],"categories":[],"categories_nodes":[],"categories_segments":[],"categories_sizes":[],"default_left":[0,0,0],"id":128,"left_children":[1,-1,-1],"loss_changes":[7.103716E-1,0E0,0E0],"parents":[2147483647,0,0],"right_children":[2,-1,-1],"split_conditions":[1.891892E-1,-5.442026E-3,1.5529923E-2],"split_indices":[6,0,0],"split_type":[0,0,0],"sum_hessian":[1.3957798E1,7.336643E0,6.6211553E0],"tree_param":{"num_deleted":"0","num_feature":"38","num_nodes":"3","size_leaf_vector":"1"}},{"base_weights":[-4.891708E-2,1.2049576E-2,-1.826464E-2],"categories":[],"categories_nodes":[],"categories_segments":[],"categories_sizes":[],"default_left":[0,0,0],"id":129,"left_children":[1,-1,-1],"loss_changes":[1.5972105E0,0E0,0E0],"parents":[2147483647,0,0],"right_children":[2,-1,-1],"split_conditions":[2.217E2,1.2049576E-2,-1.826464E-2],"split_indices":[33,0,0],"split_type":[0,0,0],"sum_hessian":[1.5318658E1,7.953093E0,7.365565E0],"tree_param":{"num_deleted":"0","num_feature":"38","num_nodes":"3","size_leaf_vector":"1"}},{"base_weights":[3.337269E-2,-6.5001115E-2,1.15467105E-2,1.1947349E-2,-1.9142836E-2],"categories":[],"categories_nodes":[],"categories_segments":[],"categories_sizes":[],"default_left":[0,0,0,0,0],"id":130,"left_children":[1,3,-1,-1,-1],"loss_changes":[3.7992322E-1,1.3045448E0,0E0,0E0,0E0],"parents":[2147483647,0,0,1,1],"right_children":[2,4,-1,-1,-1],"split_conditions":[1.6986963E-1,3.5E-1,1.15467105E-2,1.1947349E-2,-1.9142836E-2],"split_indices":[34,5,0,0,0],"split_type":[0,0,0,0,0],"sum_hessian":[1.6922365E1,1.1407115E1,5.5152493E0,5.797206E0,5.609909E0],"tree_param":{"num_deleted":"0","num_feature":"38","num_nodes":"5","size_leaf_vector":"1"}},{"base_weights":[-2.557286E-2,9.136443E-3,-1.5426025E-2],"categories":[],"categories_nodes":[],"categories_segments":[],"categories_sizes":[],"default_left":[0,0,0],"id":131,"left_children":[1,-1,-1],"loss_changes":[1.0809923E0,0E0,0E0],"parents":[2147483647,0,0],"right_children":[2,-1,-1],"split_conditions":[3.8E-1,9.136443E-3,-1.5426025E-2],"split_indices":[1,0,0],"split_type":[0,0,0],"sum_hessian":[1.6171083E1,9.314595E0,6.856489E0],"tree_param":{"num_deleted":"0","num_feature":"38","num_nodes":"3","size_leaf_vector":"1"}},{"base_weights":[-9.078414E-2,1.1079575E-2,-2.5719783E-1,-2.3831744E-2,-2.2724907E-4],"categories":[],"categories_nodes":[],"categories_segments":[],"categories_sizes":[],"default_left":[0,0,0,0,0],"id":132,"left_children":[1,-1,3,-1,-1],"loss_changes":[9.4591796E-1,0E0,6.03014E-1,0E0,0E0],"parents":[2147483647,0,0,2,2],"right_children":[2,-1,4,-1,-1],"split_conditions":[2E-2,1.1079575E-2,1.3438217E-1,-2.3831744E-2,-2.2724907E-4],"split_indices":[1,0,34,0,0],"split_type":[0,0,0,0,0],"sum_hessian":[1.6031618E1,5.2480345E0,1.0783585E1,5.084882E0,5.698703E0],"tree_param":{"num_deleted":"0","num_feature":"38","num_nodes":"5","size_leaf_vector":"1"}},{"base_weights":[-2.3631653E-2,8.778171E-3,-1.5367764E-2],"categories":[],"categories_nodes":[],"categories_segments":[],"categories_sizes":[],"default_left":[0,0,0],"id":133,"left_children":[1,-1,-1],"loss_changes":[1.0190563E0,0E0,0E0],"parents":[2147483647,0,0],"right_children":[2,-1,-1],"split_conditions":[2.503E2,8.778171E-3,-1.5367764E-2],"split_indices":[33,0,0],"split_type":[0,0,0],"sum_hessian":[1.5843212E1,9.325077E0,6.518135E0],"tree_param":{"num_deleted":"0","num_feature":"38","num_nodes":"3","size_leaf_vector":"1"}},{"base_weights":[-1.1878735E-1,-1.675895E-2,5.964872E-3],"categories":[],"categories_nodes":[],"categories_segments":[],"categories_sizes":[],"default_left":[0,0,0],"id":134,"left_children":[1,-1,-1],"loss_changes":[9.2753285E-1,0E0,0E0],"parents":[2147483647,0,0],"right_children":[2,-1,-1],"split_conditions":[5E-1,-1.675895E-2,5.964872E-3],"split_indices":[26,0,0],"split_type":[0,0,0],"sum_hessian":[1.5808351E1,8.287852E0,7.5204983E0],"tree_param":{"num_deleted":"0","num_feature":"38","num_nodes":"3","size_leaf_vector":"1"}},{"base_weights":[4.245646E-2,-1.3338576E-2,1.7520092E-2],"categories":[],"categories_nodes":[],"categories_segments":[],"categories_sizes":[],"default_left":[0,0,0],"id":135,"left_children":[1,-1,-1],"loss_changes":[1.5998861E0,0E0,0E0],"parents":[2147483647,0,0],"right_children":[2,-1,-1],"split_conditions":[2.8E-1,-1.3338576E-2,1.7520092E-2],"split_indices":[1,0,0],"split_type":[0,0,0],"sum_hessian":[1.4731588E1,7.255172E0,7.476417E0],"tree_param":{"num_deleted":"0","num_feature":"38","num_nodes":"3","size_leaf_vector":"1"}},{"base_weights":[-0E0,7.863161E-3,-9.575551E-3],"categories":[],"categories_nodes":[],"categories_segments":[],"categories_sizes":[],"default_left":[0,0,0],"id":136,"left_children":[1,-1,-1],"loss_changes":[5.220119E-1,0E0,0E0],"parents":[2147483647,0,0],"right_children":[2,-1,-1],"split_conditions":[2.217E2,7.863161E-3,-9.575551E-3],"split_indices":[0,0,0],"split_type":[0,0,0],"sum_hessian":[1.5434745E1,8.831348E0,6.603397E0],"tree_param":{"num_deleted":"0","num_feature":"38","num_nodes":"3","size_leaf_vector":"1"}},{"base_weights":[-0E0,1.2459026E-2,-7.129181E-3],"categories":[],"categories_nodes":[],"categories_segments":[],"categories_sizes":[],"default_left":[0,0,0],"id":137,"left_children":[1,-1,-1],"loss_changes":[5.915091E-1,0E0,0E0],"parents":[2147483647,0,0],"right_children":[2,-1,-1],"split_conditions":[1.4E-1,1.2459026E-2,-7.129181E-3],"split_indices":[1,0,0],"split_type":[0,0,0],"sum_hessian":[1.4741876E1,5.013895E0,9.72798E0],"tree_param":{"num_deleted":"0","num_feature":"38","num_nodes":"3","size_leaf_vector":"1"}},{"base_weights":[-1.7697724E-2,-8.897719E-3,1.1553215E-2],"categories":[],"categories_nodes":[],"categories_segments":[],"categories_sizes":[],"default_left":[0,0,0],"id":138,"left_children":[1,-1,-1],"loss_changes":[6.685045E-1,0E0,0E0],"parents":[2147483647,0,0],"right_children":[2,-1,-1],"split_conditions":[1.3438217E-1,-8.897719E-3,1.1553215E-2],"split_indices":[34,0,0],"split_type":[0,0,0],"sum_hessian":[1.4870673E1,9.461833E0,5.4088407E0],"tree_param":{"num_deleted":"0","num_feature":"38","num_nodes":"3","size_leaf_vector":"1"}},{"base_weights":[1.1305712E-1,-1.0892968E-2,1.9442586E-2],"categories":[],"categories_nodes":[],"categories_segments":[],"categories_sizes":[],"default_left":[0,0,0],"id":139,"left_children":[1,-1,-1],"loss_changes":[1.6018411E0,0E0,0E0],"parents":[2147483647,0,0],"right_children":[2,-1,-1],"split_conditions":[2.4E-1,-1.0892968E-2,1.9442586E-2],"split_indices":[1,0,0],"split_type":[0,0,0],"sum_hessian":[1.5435953E1,6.9474382E0,8.488515E0],"tree_param":{"num_deleted":"0","num_feature":"38","num_nodes":"3","size_leaf_vector":"1"}},{"base_weights":[-1.3617392E-1,-1.7838756E-2,2.8544262E-3],"categories":[],"categories_nodes":[],"categories_segments":[],"categories_sizes":[],"default_left":[0,0,0],"id":140,"left_children":[1,-1,-1],"loss_changes":[7.856418E-1,0E0,0E0],"parents":[2147483647,0,0],"right_children":[2,-1,-1],"split_conditions":[2.6E-1,-1.7838756E-2,2.8544262E-3],"split_indices":[1,0,0],"split_type":[0,0,0],"sum_hessian":[1.6246954E1,7.433399E0,8.813556E0],"tree_param":{"num_deleted":"0","num_feature":"38","num_nodes":"3","size_leaf_vector":"1"}},{"base_weights":[1.901148E-2,-1.2168409E-2,1.2642595E-2],"categories":[],"categories_nodes":[],"categories_segments":[],"categories_sizes":[],"default_left":[0,0,0],"id":141,"left_children":[1,-1,-1],"loss_changes":[1.119897E0,0E0,0E0],"parents":[2147483647,0,0],"right_children":[2,-1,-1],"split_conditions":[2.2E-1,-1.2168409E-2,1.2642595E-2],"split_indices":[1,0,0],"split_type":[0,0,0],"sum_hessian":[1.6234344E1,7.429602E0,8.804742E0],"tree_param":{"num_deleted":"0","num_feature":"38","num_nodes":"3","size_leaf_vector":"1"}},{"base_weights":[-1.5525524E-2,1.088829E-2,-1.634832E-2],"categories":[],"categories_nodes":[],"categories_segments":[],"categories_sizes":[],"default_left":[0,0,0],"id":142,"left_children":[1,-1,-1],"loss_changes":[1.2461659E0,0E0,0E0],"parents":[2147483647,0,0],"right_children":[2,-1,-1],"split_conditions":[1E0,1.088829E-2,-1.634832E-2],"split_indices":[29,0,0],"split_type":[0,0,0],"sum_hessian":[1.5021206E1,8.576494E0,6.4447117E0],"tree_param":{"num_deleted":"0","num_feature":"38","num_nodes":"3","size_leaf_vector":"1"}},{"base_weights":[8.258096E-2,1.3695828E-2,-1.0729394E-2],"categories":[],"categories_nodes":[],"categories_segments":[],"categories_sizes":[],"default_left":[0,0,0],"id":143,"left_children":[1,-1,-1],"loss_changes":[9.843318E-1,0E0,0E0],"parents":[2147483647,0,0],"right_children":[2,-1,-1],"split_conditions":[2.503E2,1.3695828E-2,-1.0729394E-2],"split_indices":[33,0,0],"split_type":[0,0,0],"sum_hessian":[1.5173695E1,9.482823E0,5.690871E0],"tree_param":{"num_deleted":"0","num_feature":"38","num_nodes":"3","size_leaf_vector":"1"}},{"base_weights":[1.0804685E-2,1.4148121E-2,-1.4059432E-2],"categories":[],"categories_nodes":[],"categories_segments":[],"categories_sizes":[],"default_left":[0,0,0],"id":144,"left_children":[1,-1,-1],"loss_changes":[1.2901719E0,0E0,0E0],"parents":[2147483647,0,0],"right_children":[2,-1,-1],"split_conditions":[2.217E2,1.4148121E-2,-1.4059432E-2],"split_indices":[33,0,0],"split_type":[0,0,0],"sum_hessian":[1.4231604E1,7.559259E0,6.672344E0],"tree_param":{"num_deleted":"0","num_feature":"38","num_nodes":"3","size_leaf_vector":"1"}},{"base_weights":[1.5672286E-1,2.128909E-2,-3.767709E-3],"categories":[],"categories_nodes":[],"categories_segments":[],"categories_sizes":[],"default_left":[0,0,0],"id":145,"left_children":[1,-1,-1],"loss_changes":[1.0675647E0,0E0,0E0],"parents":[2147483647,0,0],"right_children":[2,-1,-1],"split_conditions":[1.891892E-1,2.128909E-2,-3.767709E-3],"split_indices":[5,0,0],"split_type":[0,0,0],"sum_hessian":[1.5021766E1,6.769624E0,8.252141E0],"tree_param":{"num_deleted":"0","num_feature":"38","num_nodes":"3","size_leaf_vector":"1"}},{"base_weights":[-8.328881E-2,4.165035E-3,-1.2418999E-2],"categories":[],"categories_nodes":[],"categories_segments":[],"categories_sizes":[],"default_left":[0,0,0],"id":146,"left_children":[1,-1,-1],"loss_changes":[5.2306396E-1,0E0,0E0],"parents":[2147483647,0,0],"right_children":[2,-1,-1],"split_conditions":[2.217E2,4.165035E-3,-1.2418999E-2],"split_indices":[33,0,0],"split_type":[0,0,0],"sum_hessian":[1.666627E1,8.240589E0,8.42568E0],"tree_param":{"num_deleted":"0","num_feature":"38","num_nodes":"3","size_leaf_vector":"1"}},{"base_weights":[-4.8234228E-2,-1.7018624E-2,1.01049125E-1,1.3740859E-2,-4.3303357E-3],"categories":[],"categories_nodes":[],"categories_segments":[],"categories_sizes":[],"default_left":[0,0,0,0,0],"id":147,"left_children":[1,-1,3,-1,-1],"loss_changes":[8.119927E-1,0E0,4.333248E-1,0E0,0E0],"parents":[2147483647,0,0,2,2],"right_children":[2,-1,4,-1,-1],"split_conditions":[3.0794593E-2,-1.7018624E-2,2.703E2,1.3740859E-2,-4.3303357E-3],"split_indices":[34,0,33,0,0],"split_type":[0,0,0,0,0],"sum_hessian":[1.6281408E1,5.299818E0,1.098159E1,5.737303E0,5.2442875E0],"tree_param":{"num_deleted":"0","num_feature":"38","num_nodes":"5","size_leaf_vector":"1"}},{"base_weights":[-1.7926283E-1,-2.1514213E-2,3.7964773E-3],"categories":[],"categories_nodes":[],"categories_segments":[],"categories_sizes":[],"default_left":[0,0,0],"id":148,"left_children":[1,-1,-1],"loss_changes":[1.1049614E0,0E0,0E0],"parents":[2147483647,0,0],"right_children":[2,-1,-1],"split_conditions":[1.641E2,-2.1514213E-2,3.7964773E-3],"split_indices":[0,0,0],"split_type":[0,0,0],"sum_hessian":[1.5185993E1,7.507219E0,7.6787744E0],"tree_param":{"num_deleted":"0","num_feature":"38","num_nodes":"3","size_leaf_vector":"1"}},{"base_weights":[2.120752E-2,1.50679E-2,-1.1574197E-2],"categories":[],"categories_nodes":[],"categories_segments":[],"categories_sizes":[],"default_left":[0,0,0],"id":149,"left_children":[1,-1,-1],"loss_changes":[1.300862E0,0E0,0E0],"parents":[2147483647,0,0],"right_children":[2,-1,-1],"split_conditions":[2.217E2,1.50679E-2,-1.1574197E-2],"split_indices":[33,0,0],"split_type":[0,0,0],"sum_hessian":[1.6291805E1,7.8224583E0,8.469348E0],"tree_param":{"num_deleted":"0","num_feature":"38","num_nodes":"3","size_leaf_vector":"1"}},{"base_weights":[-7.749949E-2,-1.7400017E-2,8.555747E-3],"categories":[],"categories_nodes":[],"categories_segments":[],"categories_sizes":[],"default_left":[0,0,0],"id":150,"left_children":[1,-1,-1],"loss_changes":[1.1112005E0,0E0,0E0],"parents":[2147483647,0,0],"right_children":[2,-1,-1],"split_conditions":[9.81342E-2,-1.7400017E-2,8.555747E-3],"split_indices":[34,0,0],"split_type":[0,0,0],"sum_hessian":[1.4374833E1,6.8855705E0,7.4892626E0],"tree_param":{"num_deleted":"0","num_feature":"38","num_nodes":"3","size_leaf_vector":"1"}},{"base_weights":[-0E0,-6.28813E-3,1.1448385E-2],"categories":[],"categories_nodes":[],"categories_segments":[],"categories_sizes":[],"default_left":[0,0,0],"id":151,"left_children":[1,-1,-1],"loss_changes":[4.944954E-1,0E0,0E0],"parents":[2147483647,0,0],"right_children":[2,-1,-1],"split_conditions":[4.8E-1,-6.28813E-3,1.1448385E-2],"split_indices":[1,0,0],"split_type":[0,0,0],"sum_hessian":[1.494931E1,9.764623E0,5.184687E0],"tree_param":{"num_deleted":"0","num_feature":"38","num_nodes":"3","size_leaf_vector":"1"}},{"base_weights":[5.966274E-2,-5.1257573E-3,1.7446607E-2],"categories":[],"categories_nodes":[],"categories_segments":[],"categories_sizes":[],"default_left":[0,0,0],"id":152,"left_children":[1,-1,-1],"loss_changes":[8.253347E-1,0E0,0E0],"parents":[2147483647,0,0],"right_children":[2,-1,-1],"split_conditions":[1.6986963E-1,-5.1257573E-3,1.7446607E-2],"split_indices":[34,0,0],"split_type":[0,0,0],"sum_hessian":[1.5305088E1,9.999059E0,5.3060293E0],"tree_param":{"num_deleted":"0","num_feature":"38","num_nodes":"3","size_leaf_vector":"1"}},{"base_weights":[1.1206213E-1,1.7540567E-2,-9.134001E-3],"categories":[],"categories_nodes":[],"categories_segments":[],"categories_sizes":[],"default_left":[0,0,0],"id":153,"left_children":[1,-1,-1],"loss_changes":[1.193637E0,0E0,0E0],"parents":[2147483647,0,0],"right_children":[2,-1,-1],"split_conditions":[1E0,1.7540567E-2,-9.134001E-3],"split_indices":[26,0,0],"split_type":[0,0,0],"sum_hessian":[1.4812795E1,8.266087E0,6.5467086E0],"tree_param":{"num_deleted":"0","num_feature":"38","num_nodes":"3","size_leaf_vector":"1"}},{"base_weights":[-7.181976E-2,5.33922E-3,-1.5138159E-2],"categories":[],"categories_nodes":[],"categories_segments":[],"categories_sizes":[],"default_left":[0,0,0],"id":154,"left_children":[1,-1,-1],"loss_changes":[6.784952E-1,0E0,0E0],"parents":[2147483647,0,0],"right_children":[2,-1,-1],"split_conditions":[3.5E-1,5.33922E-3,-1.5138159E-2],"split_indices":[5,0,0],"split_type":[0,0,0],"sum_hessian":[1.419044E1,8.060962E0,6.1294775E0],"tree_param":{"num_deleted":"0","num_feature":"38","num_nodes":"3","size_leaf_vector":"1"}},{"base_weights":[8.703086E-3,-1.8231621E-2,1.3836394E-2],"categories":[],"categories_nodes":[],"categories_segments":[],"categories_sizes":[],"default_left":[0,0,0],"id":155,"left_children":[1,-1,-1],"loss_changes":[1.6127601E0,0E0,0E0],"parents":[2147483647,0,0],"right_children":[2,-1,-1],"split_conditions":[1.8E-1,-1.8231621E-2,1.3836394E-2],"split_indices":[1,0,0],"split_type":[0,0,0],"sum_hessian":[1.4196865E1,5.626329E0,8.570536E0],"tree_param":{"num_deleted":"0","num_feature":"38","num_nodes":"3","size_leaf_vector":"1"}},{"base_weights":[-3.116554E-3,7.8046033E-3,-1.3027948E-2],"categories":[],"categories_nodes":[],"categories_segments":[],"categories_sizes":[],"default_left":[0,0,0],"id":156,"left_children":[1,-1,-1],"loss_changes":[6.870433E-1,0E0,0E0],"parents":[2147483647,0,0],"right_children":[2,-1,-1],"split_conditions":[5E-1,7.8046033E-3,-1.3027948E-2],"split_indices":[5,0,0],"split_type":[0,0,0],"sum_hessian":[1.4515276E1,8.972012E0,5.543264E0],"tree_param":{"num_deleted":"0","num_feature":"38","num_nodes":"3","size_leaf_vector":"1"}},{"base_weights":[-8.303332E-2,7.503861E-3,-1.5563454E-2],"categories":[],"categories_nodes":[],"categories_segments":[],"categories_sizes":[],"default_left":[0,0,0],"id":157,"left_children":[1,-1,-1],"loss_changes":[9.1925424E-1,0E0,0E0],"parents":[2147483647,0,0],"right_children":[2,-1,-1],"split_conditions":[2.217E2,7.503861E-3,-1.5563454E-2],"split_indices":[33,0,0],"split_type":[0,0,0],"sum_hessian":[1.5096875E1,7.4213343E0,7.675541E0],"tree_param":{"num_deleted":"0","num_feature":"38","num_nodes":"3","size_leaf_vector":"1"}},{"base_weights":[1.0625587E-1,-4.9746064E-3,1.38592115E-2],"categories":[],"categories_nodes":[],"categories_segments":[],"categories_sizes":[],"default_left":[0,0,0],"id":158,"left_children":[1,-1,-1],"loss_changes":[6.1919636E-1,0E0,0E0],"parents":[2147483647,0,0],"right_children":[2,-1,-1],"split_conditions":[9.189189E-2,-4.9746064E-3,1.38592115E-2],"split_indices":[5,0,0],"split_type":[0,0,0],"sum_hessian":[1.53173E1,6.87486E0,8.44244E0],"tree_param":{"num_deleted":"0","num_feature":"38","num_nodes":"3","size_leaf_vector":"1"}},{"base_weights":[-6.8453945E-2,4.71625E-3,-1.83233E-2],"categories":[],"categories_nodes":[],"categories_segments":[],"categories_sizes":[],"default_left":[0,0,0],"id":159,"left_children":[1,-1,-1],"loss_changes":[8.391175E-1,0E0,0E0],"parents":[2147483647,0,0],"right_children":[2,-1,-1],"split_conditions":[3.03E2,4.71625E-3,-1.83233E-2],"split_indices":[33,0,0],"split_type":[0,0,0],"sum_hessian":[1.5024225E1,9.94179E0,5.0824356E0],"tree_param":{"num_deleted":"0","num_feature":"38","num_nodes":"3","size_leaf_vector":"1"}},{"base_weights":[-5.942053E-2,-2.0898703E-2,1.2873741E-2],"categories":[],"categories_nodes":[],"categories_segments":[],"categories_sizes":[],"default_left":[0,0,0],"id":160,"left_children":[1,-1,-1],"loss_changes":[1.806453E0,0E0,0E0],"parents":[2147483647,0,0],"right_children":[2,-1,-1],"split_conditions":[9.086492E-2,-2.0898703E-2,1.2873741E-2],"split_indices":[34,0,0],"split_type":[0,0,0],"sum_hessian":[1.381013E1,6.4775996E0,7.3325305E0],"tree_param":{"num_deleted":"0","num_feature":"38","num_nodes":"3","size_leaf_vector":"1"}},{"base_weights":[-7.472738E-2,9.134118E-3,-1.7214684E-2],"categories":[],"categories_nodes":[],"categories_segments":[],"categories_sizes":[],"default_left":[0,0,0],"id":161,"left_children":[1,-1,-1],"loss_changes":[1.1719867E0,0E0,0E0],"parents":[2147483647,0,0],"right_children":[2,-1,-1],"split_conditions":[2.217E2,9.134118E-3,-1.7214684E-2],"split_indices":[33,0,0],"split_type":[0,0,0],"sum_hessian":[1.4750759E1,7.5206294E0,7.2301297E0],"tree_param":{"num_deleted":"0","num_feature":"38","num_nodes":"3","size_leaf_vector":"1"}},{"base_weights":[1.3288902E-2,1.065522E-2,-9.857301E-3],"categories":[],"categories_nodes":[],"categories_segments":[],"categories_sizes":[],"default_left":[0,0,0],"id":162,"left_children":[1,-1,-1],"loss_changes":[7.175425E-1,0E0,0E0],"parents":[2147483647,0,0],"right_children":[2,-1,-1],"split_conditions":[9.189189E-2,1.065522E-2,-9.857301E-3],"split_indices":[6,0,0],"split_type":[0,0,0],"sum_hessian":[1.5027669E1,7.9455786E0,7.082091E0],"tree_param":{"num_deleted":"0","num_feature":"38","num_nodes":"3","size_leaf_vector":"1"}},{"base_weights":[-3.980228E-2,-1.2140484E-2,1.1818192E-2],"categories":[],"categories_nodes":[],"categories_segments":[],"categories_sizes":[],"default_left":[0,0,0],"id":163,"left_children":[1,-1,-1],"loss_changes":[9.8110473E-1,0E0,0E0],"parents":[2147483647,0,0],"right_children":[2,-1,-1],"split_conditions":[2.6891893E-1,-1.2140484E-2,1.1818192E-2],"split_indices":[6,0,0],"split_type":[0,0,0],"sum_hessian":[1.54646225E1,9.191161E0,6.273461E0],"tree_param":{"num_deleted":"0","num_feature":"38","num_nodes":"3","size_leaf_vector":"1"}},{"base_weights":[1.0743443E-2,-5.3649493E-3,8.911485E-3],"categories":[],"categories_nodes":[],"categories_segments":[],"categories_sizes":[],"default_left":[0,0,0],"id":164,"left_children":[1,-1,-1],"loss_changes":[3.3303156E-1,0E0,0E0],"parents":[2147483647,0,0],"right_children":[2,-1,-1],"split_conditions":[1.3438217E-1,-5.3649493E-3,8.911485E-3],"split_indices":[34,0,0],"split_type":[0,0,0],"sum_hessian":[1.4518823E1,8.377058E0,6.1417646E0],"tree_param":{"num_deleted":"0","num_feature":"38","num_nodes":"3","size_leaf_vector":"1"}},{"base_weights":[-2.3601975E-2,1.0400785E-2,-9.258566E-3],"categories":[],"categories_nodes":[],"categories_segments":[],"categories_sizes":[],"default_left":[0,0,0],"id":165,"left_children":[1,-1,-1],"loss_changes":[6.1734325E-1,0E0,0E0],"parents":[2147483647,0,0],"right_children":[2,-1,-1],"split_conditions":[1.4E-1,1.0400785E-2,-9.258566E-3],"split_indices":[1,0,0],"split_type":[0,0,0],"sum_hessian":[1.4528411E1,5.5975895E0,8.930821E0],"tree_param":{"num_deleted":"0","num_feature":"38","num_nodes":"3","size_leaf_vector":"1"}},{"base_weights":[-0E0,-8.820693E-3,1.5369291E-2],"categories":[],"categories_nodes":[],"categories_segments":[],"categories_sizes":[],"default_left":[0,0,0],"id":166,"left_children":[1,-1,-1],"loss_changes":[8.94073E-1,0E0,0E0],"parents":[2147483647,0,0],"right_children":[2,-1,-1],"split_conditions":[1.3438217E-1,-8.820693E-3,1.5369291E-2],"split_indices":[34,0,0],"split_type":[0,0,0],"sum_hessian":[1.437756E1,9.311468E0,5.066092E0],"tree_param":{"num_deleted":"0","num_feature":"38","num_nodes":"3","size_leaf_vector":"1"}},{"base_weights":[2.3296218E-1,-0E0,2.1272665E-2],"categories":[],"categories_nodes":[],"categories_segments":[],"categories_sizes":[],"default_left":[0,0,0],"id":167,"left_children":[1,-1,-1],"loss_changes":[6.8562245E-1,0E0,0E0],"parents":[2147483647,0,0],"right_children":[2,-1,-1],"split_conditions":[9.189189E-2,-0E0,2.1272665E-2],"split_indices":[5,0,0],"split_type":[0,0,0],"sum_hessian":[1.4734008E1,7.2288184E0,7.50519E0],"tree_param":{"num_deleted":"0","num_feature":"38","num_nodes":"3","size_leaf_vector":"1"}},{"base_weights":[7.2878785E-2,-1.0090714E-2,1.6537348E-2],"categories":[],"categories_nodes":[],"categories_segments":[],"categories_sizes":[],"default_left":[0,0,0],"id":168,"left_children":[1,-1,-1],"loss_changes":[1.1089902E0,0E0,0E0],"parents":[2147483647,0,0],"right_children":[2,-1,-1],"split_conditions":[9.086492E-2,-1.0090714E-2,1.6537348E-2],"split_indices":[34,0,0],