{"learner":{"attributes":{},"feature_names":["elo_diff","fifa_rank_diff","squad_value_ratio","host_advantage","host_vs_away","momentum","opponent_momentum","momentum_diff","overperformance","opponent_overperformance","overperformance_diff","rest_days_diff","extra_time_diff","cumulative_mins_ratio","goals_scored_per_match","goals_conceded_per_match","goal_diff_per_match","clean_sheet_rate","comeback_rate","goal_consistency","stage_importance","stage_is_knockout","stage_is_r16","stage_is_qf","stage_is_sf","group_pts","group_pts_per_match","group_position","same_confederation","team_is_uefa","team_is_conmebol","opp_is_uefa","opp_is_conmebol","elo_diff_abs","elo_ratio","is_top5","opp_is_top5","coming_off_close_loss"],"feature_types":[],"gradient_booster":{"model":{"cats":{"enc":[],"feature_segments":[],"sorted_idx":[]},"gbtree_model_param":{"num_parallel_tree":"1","num_trees":"200"},"iteration_indptr":[0,1,2,3,4,5,6,7,8,9,10,11,12,13,14,15,16,17,18,19,20,21,22,23,24,25,26,27,28,29,30,31,32,33,34,35,36,37,38,39,40,41,42,43,44,45,46,47,48,49,50,51,52,53,54,55,56,57,58,59,60,61,62,63,64,65,66,67,68,69,70,71,72,73,74,75,76,77,78,79,80,81,82,83,84,85,86,87,88,89,90,91,92,93,94,95,96,97,98,99,100,101,102,103,104,105,106,107,108,109,110,111,112,113,114,115,116,117,118,119,120,121,122,123,124,125,126,127,128,129,130,131,132,133,134,135,136,137,138,139,140,141,142,143,144,145,146,147,148,149,150,151,152,153,154,155,156,157,158,159,160,161,162,163,164,165,166,167,168,169,170,171,172,173,174,175,176,177,178,179,180,181,182,183,184,185,186,187,188,189,190,191,192,193,194,195,196,197,198,199,200],"tree_info":[0,0,0,0,0,0,0,0,0,0,0,0,0,0,0,0,0,0,0,0,0,0,0,0,0,0,0,0,0,0,0,0,0,0,0,0,0,0,0,0,0,0,0,0,0,0,0,0,0,0,0,0,0,0,0,0,0,0,0,0,0,0,0,0,0,0,0,0,0,0,0,0,0,0,0,0,0,0,0,0,0,0,0,0,0,0,0,0,0,0,0,0,0,0,0,0,0,0,0,0,0,0,0,0,0,0,0,0,0,0,0,0,0,0,0,0,0,0,0,0,0,0,0,0,0,0,0,0,0,0,0,0,0,0,0,0,0,0,0,0,0,0,0,0,0,0,0,0,0,0,0,0,0,0,0,0,0,0,0,0,0,0,0,0,0,0,0,0,0,0,0,0,0,0,0,0,0,0,0,0,0,0,0,0,0,0,0,0,0,0,0,0,0,0,0,0,0,0,0,0],"trees":[{"base_weights":[-5.4588135E-2,-1.1070759E0,1.1595193E0,-6.7634776E-2,-3.3683613E-2,2.2926766E-2,8.126111E-2],"categories":[],"categories_nodes":[],"categories_segments":[],"categories_sizes":[],"default_left":[0,0,0,0,0,0,0],"id":0,"left_children":[1,3,5,-1,-1,-1,-1],"loss_changes":[3.611597E1,4.9982262E-1,3.3241444E0,0E0,0E0,0E0,0E0],"parents":[2147483647,0,0,1,1,2,2],"right_children":[2,4,6,-1,-1,-1,-1],"split_conditions":[3E0,-1.67E2,1.74E2,-6.7634776E-2,-3.3683613E-2,2.2926766E-2,8.126111E-2],"split_indices":[0,0,0,0,0,0,0],"split_type":[0,0,0,0,0,0,0],"sum_hessian":[2.6262978E1,1.4159171E1,1.2103807E1,7.5363326E0,6.622838E0,5.709343E0,6.394464E0],"tree_param":{"num_deleted":"0","num_feature":"38","num_nodes":"7","size_leaf_vector":"1"}},{"base_weights":[-0E0,-1.0306209E0,1.158396E0,-6.2062223E-2,-2.8815305E-2,1.580483E-2,8.02851E-2],"categories":[],"categories_nodes":[],"categories_segments":[],"categories_sizes":[],"default_left":[0,0,0,0,0,0,0],"id":1,"left_children":[1,3,5,-1,-1,-1,-1],"loss_changes":[3.4809273E1,5.798931E-1,4.4705296E0,0E0,0E0,0E0,0E0],"parents":[2147483647,0,0,1,1,2,2],"right_children":[2,4,6,-1,-1,-1,-1],"split_conditions":[2.0564398E-1,-1.1258969E0,9.189189E-2,-6.2062223E-2,-2.8815305E-2,1.580483E-2,8.02851E-2],"split_indices":[2,2,5,0,0,0,0],"split_type":[0,0,0,0,0,0,0],"sum_hessian":[2.715796E1,1.4435201E1,1.2722761E1,8.528905E0,5.9062953E0,5.082462E0,7.6402993E0],"tree_param":{"num_deleted":"0","num_feature":"38","num_nodes":"7","size_leaf_vector":"1"}},{"base_weights":[4.3882195E-2,-9.916735E-1,1.3275188E0,-6.515279E-2,-2.8293416E-2,3.8122017E-2,8.097633E-2],"categories":[],"categories_nodes":[],"categories_segments":[],"categories_sizes":[],"default_left":[0,0,0,0,0,0,0],"id":2,"left_children":[1,3,5,-1,-1,-1,-1],"loss_changes":[4.0001003E1,1.2797298E0,7.4700165E-1,0E0,0E0,0E0,0E0],"parents":[2147483647,0,0,1,1,2,2],"right_children":[2,4,6,-1,-1,-1,-1],"split_conditions":[6.1E1,-1.0379242E0,6.666667E-1,-6.515279E-2,-2.8293416E-2,3.8122017E-2,8.097633E-2],"split_indices":[0,2,14,0,0,0,0],"split_type":[0,0,0,0,0,0,0],"sum_hessian":[2.8076668E1,1.5622767E1,1.24539E1,7.6981845E0,7.9245825E0,5.589965E0,6.863935E0],"tree_param":{"num_deleted":"0","num_feature":"38","num_nodes":"7","size_leaf_vector":"1"}},{"base_weights":[-1.7501675E-2,-1.0723503E0,1.0450981E0,-3.2049928E-2,-6.492785E-2,1.1527198E-2,7.126561E-2],"categories":[],"categories_nodes":[],"categories_segments":[],"categories_sizes":[],"default_left":[0,0,0,0,0,0,0],"id":3,"left_children":[1,3,5,-1,-1,-1,-1],"loss_changes":[3.585612E1,5.4374313E-1,4.428875E0,0E0,0E0,0E0,0E0],"parents":[2147483647,0,0,1,1,2,2],"right_children":[2,4,6,-1,-1,-1,-1],"split_conditions":[2.0564398E-1,1.57E2,1.47E2,-3.2049928E-2,-6.492785E-2,1.1527198E-2,7.126561E-2],"split_indices":[2,33,33,0,0,0,0],"split_type":[0,0,0,0,0,0,0],"sum_hessian":[2.9986927E1,1.5090971E1,1.4895957E1,6.6623497E0,8.428621E0,5.3352704E0,9.560687E0],"tree_param":{"num_deleted":"0","num_feature":"38","num_nodes":"7","size_leaf_vector":"1"}},{"base_weights":[2.0998674E-2,-1.0726619E0,1.1114951E0,-3.3477403E-2,-6.29455E-2,2.9728506E-2,6.7816906E-2],"categories":[],"categories_nodes":[],"categories_segments":[],"categories_sizes":[],"default_left":[0,0,0,0,0,0,0],"id":4,"left_children":[1,3,5,-1,-1,-1,-1],"loss_changes":[3.4725384E1,5.2869797E-2,8.481083E-1,0E0,0E0,0E0,0E0],"parents":[2147483647,0,0,1,1,2,2],"right_children":[2,4,6,-1,-1,-1,-1],"split_conditions":[2.0564398E-1,1E0,1.57E2,-3.3477403E-2,-6.29455E-2,2.9728506E-2,6.7816906E-2],"split_indices":[2,36,0,0,0,0,0],"split_type":[0,0,0,0,0,0,0],"sum_hessian":[2.711363E1,1.34995575E1,1.3614073E1,5.8878293E0,7.611728E0,5.608957E0,8.005116E0],"tree_param":{"num_deleted":"0","num_feature":"38","num_nodes":"7","size_leaf_vector":"1"}},{"base_weights":[3.7133455E-2,-9.843196E-1,9.2974776E-1,-6.1882105E-2,-2.3170391E-2,1.798219E-2,5.806156E-2],"categories":[],"categories_nodes":[],"categories_segments":[],"categories_sizes":[],"default_left":[0,0,0,0,0,0,0],"id":5,"left_children":[1,3,5,-1,-1,-1,-1],"loss_changes":[2.8317635E1,1.1634216E0,1.6220837E0,0E0,0E0,0E0,0E0],"parents":[2147483647,0,0,1,1,2,2],"right_children":[2,4,6,-1,-1,-1,-1],"split_conditions":[8E0,-8.033827E-2,1.47E2,-6.1882105E-2,-2.3170391E-2,1.798219E-2,5.806156E-2],"split_indices":[0,34,0,0,0,0,0],"split_type":[0,0,0,0,0,0,0],"sum_hessian":[2.9060337E1,1.3451964E1,1.5608372E1,7.9957166E0,5.456248E0,5.369603E0,1.0238769E1],"tree_param":{"num_deleted":"0","num_feature":"38","num_nodes":"7","size_leaf_vector":"1"}},{"base_weights":[-6.7935355E-2,-9.3436146E-1,1.1288998E0,-1.667891E-2,-5.9227098E-2,3.443825E-2,7.094725E-2],"categories":[],"categories_nodes":[],"categories_segments":[],"categories_sizes":[],"default_left":[0,0,0,0,0,0,0],"id":6,"left_children":[1,3,5,-1,-1,-1,-1],"loss_changes":[2.9647415E1,1.9482393E0,3.4268475E-1,0E0,0E0,0E0,0E0],"parents":[2147483647,0,0,1,1,2,2],"right_children":[2,4,6,-1,-1,-1,-1],"split_conditions":[1E2,8E1,1.3333334E0,-1.667891E-2,-5.9227098E-2,3.443825E-2,7.094725E-2],"split_indices":[0,33,14,0,0,0,0],"split_type":[0,0,0,0,0,0,0],"sum_hessian":[2.6592014E1,1.56009E1,1.0991116E1,5.3901243E0,1.0210775E1,5.8433957E0,5.14772E0],"tree_param":{"num_deleted":"0","num_feature":"38","num_nodes":"7","size_leaf_vector":"1"}},{"base_weights":[3.9673302E-2,-9.280228E-1,1.1299099E0,-5.9074838E-2,-2.7335053E-2,3.54747E-2,6.749898E-2],"categories":[],"categories_nodes":[],"categories_segments":[],"categories_sizes":[],"default_left":[0,0,0,0,0,0,0],"id":7,"left_children":[1,3,5,-1,-1,-1,-1],"loss_changes":[3.0611122E1,6.634617E-1,1.0070801E-1,0E0,0E0,0E0,0E0],"parents":[2147483647,0,0,1,1,2,2],"right_children":[2,4,6,-1,-1,-1,-1],"split_conditions":[3.2188022E-1,-8.033827E-2,2.13E2,-5.9074838E-2,-2.7335053E-2,3.54747E-2,6.749898E-2],"split_indices":[2,34,0,0,0,0,0],"split_type":[0,0,0,0,0,0,0],"sum_hessian":[2.7001757E1,1.4335026E1,1.2666732E1,7.1929936E0,7.1420317E0,5.95974E0,6.7069917E0],"tree_param":{"num_deleted":"0","num_feature":"38","num_nodes":"7","size_leaf_vector":"1"}},{"base_weights":[-1.00237414E-1,-1.0050923E0,7.762405E-1,-3.122649E-2,-5.9144646E-2,1.0967593E-2,5.1460695E-2],"categories":[],"categories_nodes":[],"categories_segments":[],"categories_sizes":[],"default_left":[0,0,0,0,0,0,0],"id":8,"left_children":[1,3,5,-1,-1,-1,-1],"loss_changes":[2.3088722E1,4.9325943E-2,1.7318249E0,0E0,0E0,0E0,0E0],"parents":[2147483647,0,0,1,1,2,2],"right_children":[2,4,6,-1,-1,-1,-1],"split_conditions":[1.9314865E-2,1.57E2,9.189189E-2,-3.122649E-2,-5.9144646E-2,1.0967593E-2,5.1460695E-2],"split_indices":[2,33,5,0,0,0,0],"split_type":[0,0,0,0,0,0,0],"sum_hessian":[2.7099934E1,1.3318051E1,1.3781882E1,5.856923E0,7.461128E0,5.011686E0,8.770197E0],"tree_param":{"num_deleted":"0","num_feature":"38","num_nodes":"7","size_leaf_vector":"1"}},{"base_weights":[3.381375E-2,-6.3579196E-1,4.861364E-2,-1.9080125E-3,-4.7875643E-2],"categories":[],"categories_nodes":[],"categories_segments":[],"categories_sizes":[],"default_left":[0,0,0,0,0],"id":9,"left_children":[1,3,-1,-1,-1],"loss_changes":[1.8265068E1,3.113255E0,0E0,0E0,0E0],"parents":[2147483647,0,0,1,1],"right_children":[2,4,-1,-1,-1],"split_conditions":[5.2910052E-2,8E1,4.861364E-2,-1.9080125E-3,-4.7875643E-2],"split_indices":[34,33,0,0,0],"split_type":[0,0,0,0,0],"sum_hessian":[2.7028845E1,1.5899939E1,1.1128906E1,6.0642924E0,9.835646E0],"tree_param":{"num_deleted":"0","num_feature":"38","num_nodes":"5","size_leaf_vector":"1"}},{"base_weights":[1.4254317E-1,-6.4241916E-1,9.905587E-1,-5.5174418E-2,-1.1687702E-2,6.180743E-2,2.6727522E-2],"categories":[],"categories_nodes":[],"categories_segments":[],"categories_sizes":[],"default_left":[0,0,0,0,0,0,0],"id":10,"left_children":[1,3,5,-1,-1,-1,-1],"loss_changes":[1.9109062E1,2.4213796E0,7.041731E-1,0E0,0E0,0E0,0E0],"parents":[2147483647,0,0,1,1,2,2],"right_children":[2,4,6,-1,-1,-1,-1],"split_conditions":[5.7E1,-1.1258969E0,1.5476428E0,-5.5174418E-2,-1.1687702E-2,6.180743E-2,2.6727522E-2],"split_indices":[0,2,2,0,0,0,0],"split_type":[0,0,0,0,0,0,0],"sum_hessian":[2.6698658E1,1.3929443E1,1.2769214E1,5.6312075E0,8.298236E0,7.044954E0,5.72426E0],"tree_param":{"num_deleted":"0","num_feature":"38","num_nodes":"7","size_leaf_vector":"1"}},{"base_weights":[2.2072345E-2,-8.977321E-1,9.770738E-1,-3.0233813E-2,-5.6987572E-2,7.0091404E-2,2.0182E-2],"categories":[],"categories_nodes":[],"categories_segments":[],"categories_sizes":[],"default_left":[0,0,0,0,0,0,0],"id":11,"left_children":[1,3,5,-1,-1,-1,-1],"loss_changes":[2.3821709E1,1.12918854E-1,2.5034971E0,0E0,0E0,0E0,0E0],"parents":[2147483647,0,0,1,1,2,2],"right_children":[2,4,6,-1,-1,-1,-1],"split_conditions":[3.052019E-1,2.6891893E-1,1E0,-3.0233813E-2,-5.6987572E-2,7.0091404E-2,2.0182E-2],"split_indices":[2,5,29,0,0,0,0],"split_type":[0,0,0,0,0,0,0],"sum_hessian":[2.511139E1,1.276862E1,1.2342771E1,7.544637E0,5.223982E0,6.1605296E0,6.182241E0],"tree_param":{"num_deleted":"0","num_feature":"38","num_nodes":"7","size_leaf_vector":"1"}},{"base_weights":[3.0916583E-2,-9.474855E-1,9.234467E-1,-2.8184613E-2,-5.6494493E-2,1.3383693E-2,6.541433E-2],"categories":[],"categories_nodes":[],"categories_segments":[],"categories_sizes":[],"default_left":[0,0,0,0,0,0,0],"id":12,"left_children":[1,3,5,-1,-1,-1,-1],"loss_changes":[2.5226837E1,1.5593433E-1,3.3141842E0,0E0,0E0,0E0,0E0],"parents":[2147483647,0,0,1,1,2,2],"right_children":[2,4,6,-1,-1,-1,-1],"split_conditions":[2.0564398E-1,1.57E2,1.47E2,-2.8184613E-2,-5.6494493E-2,1.3383693E-2,6.541433E-2],"split_indices":[2,33,33,0,0,0,0],"split_type":[0,0,0,0,0,0,0],"sum_hessian":[2.6889143E1,1.2744671E1,1.4144472E1,5.60013E0,7.144541E0,5.95406E0,8.190412E0],"tree_param":{"num_deleted":"0","num_feature":"38","num_nodes":"7","size_leaf_vector":"1"}},{"base_weights":[-6.00356E-2,-8.509597E-1,6.3588005E-1,-2.54628E-2,-5.3678073E-2,3.949443E-3,4.579987E-2],"categories":[],"categories_nodes":[],"categories_segments":[],"categories_sizes":[],"default_left":[0,0,0,0,0,0,0],"id":13,"left_children":[1,3,5,-1,-1,-1,-1],"loss_changes":[1.5339875E1,2.8846073E-1,2.1347733E0,0E0,0E0,0E0,0E0],"parents":[2147483647,0,0,1,1,2,2],"right_children":[2,4,6,-1,-1,-1,-1],"split_conditions":[3.2188022E-1,1.74E2,-1.1033063E-1,-2.54628E-2,-5.3678073E-2,3.949443E-3,4.579987E-2],"split_indices":[2,33,9,0,0,0,0],"split_type":[0,0,0,0,0,0,0],"sum_hessian":[2.5847414E1,1.2060866E1,1.3786548E1,6.23178E0,5.8290863E0,5.1623807E0,8.6241665E0],"tree_param":{"num_deleted":"0","num_feature":"38","num_nodes":"7","size_leaf_vector":"1"}},{"base_weights":[1.4005619E-2,-8.5846907E-1,8.141612E-1,-5.4803785E-2,-2.304892E-2,1.6902847E-2,5.3834725E-2],"categories":[],"categories_nodes":[],"categories_segments":[],"categories_sizes":[],"default_left":[0,0,0,0,0,0,0],"id":14,"left_children":[1,3,5,-1,-1,-1,-1],"loss_changes":[1.9703232E1,6.0958195E-1,1.3414383E0,0E0,0E0,0E0,0E0],"parents":[2147483647,0,0,1,1,2,2],"right_children":[2,4,6,-1,-1,-1,-1],"split_conditions":[3.2188022E-1,-1.1566457E0,8.797128E-2,-5.4803785E-2,-2.304892E-2,1.6902847E-2,5.3834725E-2],"split_indices":[2,2,34,0,0,0,0],"split_type":[0,0,0,0,0,0,0],"sum_hessian":[2.6228634E1,1.2452647E1,1.3775987E1,6.5363617E0,5.9162855E0,5.844877E0,7.9311104E0],"tree_param":{"num_deleted":"0","num_feature":"38","num_nodes":"7","size_leaf_vector":"1"}},{"base_weights":[-1.122085E-2,-8.536935E-1,5.7378995E-1,-2.5023509E-2,-5.410694E-2,5.171E-3,4.7807943E-2],"categories":[],"categories_nodes":[],"categories_segments":[],"categories_sizes":[],"default_left":[0,0,0,0,0,0,0],"id":15,"left_children":[1,3,5,-1,-1,-1,-1],"loss_changes":[1.4248622E1,2.5954723E-1,2.847332E0,0E0,0E0,0E0,0E0],"parents":[2147483647,0,0,1,1,2,2],"right_children":[2,4,6,-1,-1,-1,-1],"split_conditions":[1.9314865E-2,2.6891893E-1,1.1601885E-1,-2.5023509E-2,-5.410694E-2,5.171E-3,4.7807943E-2],"split_indices":[2,5,34,0,0,0,0],"split_type":[0,0,0,0,0,0,0],"sum_hessian":[2.6859665E1,1.0889452E1,1.5970213E1,5.7018027E0,5.187649E0,7.848009E0,8.122204E0],"tree_param":{"num_deleted":"0","num_feature":"38","num_nodes":"7","size_leaf_vector":"1"}},{"base_weights":[9.3327435E-3,-3.8726304E-2,6.0377604E-1,1.3469559E-2,5.1753648E-2],"categories":[],"categories_nodes":[],"categories_segments":[],"categories_sizes":[],"default_left":[0,0,0,0,0],"id":16,"left_children":[1,-1,3,-1,-1],"loss_changes":[1.3229285E1,0E0,1.9315624E0,0E0,0E0],"parents":[2147483647,0,0,2,2],"right_children":[2,-1,4,-1,-1],"split_conditions":[-1.9314865E-2,-3.8726304E-2,1.3333334E0,1.3469559E-2,5.1753648E-2],"split_indices":[2,0,14,0,0],"split_type":[0,0,0,0,0],"sum_hessian":[2.6424522E1,1.1193335E1,1.5231187E1,9.625215E0,5.6059713E0],"tree_param":{"num_deleted":"0","num_feature":"38","num_nodes":"5","size_leaf_vector":"1"}},{"base_weights":[1.00355834E-1,-6.06844E-1,8.61697E-1,-5.211779E-2,-7.3405453E-3,5.8132686E-2,1.6395183E-2],"categories":[],"categories_nodes":[],"categories_segments":[],"categories_sizes":[],"default_left":[0,0,0,0,0,0,0],"id":17,"left_children":[1,3,5,-1,-1,-1,-1],"loss_changes":[1.4374629E1,2.4992256E0,1.5336533E0,0E0,0E0,0E0,0E0],"parents":[2147483647,0,0,1,1,2,2],"right_children":[2,4,6,-1,-1,-1,-1],"split_conditions":[6.1E1,-1.1258969E0,1.8109417E0,-5.211779E-2,-7.3405453E-3,5.8132686E-2,1.6395183E-2],"split_indices":[0,2,2,0,0,0,0],"split_type":[0,0,0,0,0,0,0],"sum_hessian":[2.4679243E1,1.2831661E1,1.1847582E1,5.829598E0,7.0020633E0,6.7029653E0,5.1446166E0],"tree_param":{"num_deleted":"0","num_feature":"38","num_nodes":"7","size_leaf_vector":"1"}},{"base_weights":[-1.3491526E-3,-6.5320295E-1,6.772298E-1,-1.4905377E-2,-4.930098E-2,4.518461E-2,1.6459156E-2],"categories":[],"categories_nodes":[],"categories_segments":[],"categories_sizes":[],"default_left":[0,0,0,0,0,0,0],"id":18,"left_children":[1,3,5,-1,-1,-1,-1],"loss_changes":[1.1683507E1,1.1788697E0,5.93626E-1,0E0,0E0,0E0,0E0],"parents":[2147483647,0,0,1,1,2,2],"right_children":[2,4,6,-1,-1,-1,-1],"split_conditions":[6.1E1,3.5E-1,1.266179E-1,-1.4905377E-2,-4.930098E-2,4.518461E-2,1.6459156E-2],"split_indices":[0,5,34,0,0,0,0],"split_type":[0,0,0,0,0,0,0],"sum_hessian":[2.4418653E1,1.254882E1,1.1869834E1,7.1337323E0,5.415087E0,6.049707E0,5.820127E0],"tree_param":{"num_deleted":"0","num_feature":"38","num_nodes":"7","size_leaf_vector":"1"}},{"base_weights":[-1.933539E-1,-4.3556258E-2,4.4529366E-1,2.57545E-4,3.79869E-2],"categories":[],"categories_nodes":[],"categories_segments":[],"categories_sizes":[],"default_left":[0,0,0,0,0],"id":19,"left_children":[1,-1,3,-1,-1],"loss_changes":[1.10014E1,0E0,1.7408502E0,0E0,0E0],"parents":[2147483647,0,0,2,2],"right_children":[2,-1,4,-1,-1],"split_conditions":[5.249391E-1,-4.3556258E-2,1E0,2.57545E-4,3.79869E-2],"split_indices":[2,0,25,0,0],"split_type":[0,0,0,0,0],"sum_hessian":[2.3421255E1,1.1261955E1,1.2159299E1,5.6229663E0,6.536333E0],"tree_param":{"num_deleted":"0","num_feature":"38","num_nodes":"5","size_leaf_vector":"1"}},{"base_weights":[-1.5800588E-1,-3.9131187E-2,4.3824166E-1,4.1592043E-2,3.7281327E-3],"categories":[],"categories_nodes":[],"categories_segments":[],"categories_sizes":[],"default_left":[0,0,0,0,0],"id":20,"left_children":[1,-1,3,-1,-1],"loss_changes":[9.499433E0,0E0,1.7211504E0,0E0,0E0],"parents":[2147483647,0,0,2,2],"right_children":[2,-1,4,-1,-1],"split_conditions":[3.2188022E-1,-3.9131187E-2,1E0,4.1592043E-2,3.7281327E-3],"split_indices":[2,0,29,0,0],"split_type":[0,0,0,0,0],"sum_hessian":[2.3493444E1,1.1403004E1,1.2090441E1,5.056104E0,7.0343366E0],"tree_param":{"num_deleted":"0","num_feature":"38","num_nodes":"5","size_leaf_vector":"1"}},{"base_weights":[-0E0,-5.676728E-1,4.8726773E-1,-4.110497E-2,-1.3100107E-2,3.3824642E-3,4.7044855E-2],"categories":[],"categories_nodes":[],"categories_segments":[],"categories_sizes":[],"default_left":[0,0,0,0,0,0,0],"id":21,"left_children":[1,3,5,-1,-1,-1,-1],"loss_changes":[7.3312807E0,6.2481284E-1,2.561795E0,0E0,0E0,0E0,0E0],"parents":[2147483647,0,0,1,1,2,2],"right_children":[2,4,6,-1,-1,-1,-1],"split_conditions":[6.1E1,-1.0379242E0,1.3333334E0,-4.110497E-2,-1.3100107E-2,3.3824642E-3,4.7044855E-2],"split_indices":[0,2,14,0,0,0,0],"split_type":[0,0,0,0,0,0,0],"sum_hessian":[2.4520052E1,1.1197578E1,1.33224745E1,5.010455E0,6.1871233E0,7.6321335E0,5.6903405E0],"tree_param":{"num_deleted":"0","num_feature":"38","num_nodes":"7","size_leaf_vector":"1"}},{"base_weights":[-2.0163277E-1,-6.968563E-1,3.684182E-1,-1.2490115E-2,-5.2995183E-2,3.1637643E-3,3.1224275E-2],"categories":[],"categories_nodes":[],"categories_segments":[],"categories_sizes":[],"default_left":[0,0,0,0,0,0,0],"id":22,"left_children":[1,3,5,-1,-1,-1,-1],"loss_changes":[6.9832735E0,1.734961E0,7.967758E-1,0E0,0E0,0E0,0E0],"parents":[2147483647,0,0,1,1,2,2],"right_children":[2,4,6,-1,-1,-1,-1],"split_conditions":[1E2,1E0,2.6891893E-1,-1.2490115E-2,-5.2995183E-2,3.1637643E-3,3.1224275E-2],"split_indices":[0,36,6,0,0,0,0],"split_type":[0,0,0,0,0,0,0],"sum_hessian":[2.2711058E1,1.2128005E1,1.0583053E1,6.3151226E0,5.8128824E0,5.5760145E0,5.0070376E0],"tree_param":{"num_deleted":"0","num_feature":"38","num_nodes":"7","size_leaf_vector":"1"}},{"base_weights":[7.889075E-2,-3.5411265E-2,6.399064E-1,1.0572265E-2,4.660136E-2],"categories":[],"categories_nodes":[],"categories_segments":[],"categories_sizes":[],"default_left":[0,0,0,0,0],"id":23,"left_children":[1,-1,3,-1,-1],"loss_changes":[1.0481759E1,0E0,1.4243541E0,0E0,0E0],"parents":[2147483647,0,0,2,2],"right_children":[2,-1,4,-1,-1],"split_conditions":[-1.9314865E-2,-3.5411265E-2,9.189189E-2,1.0572265E-2,4.660136E-2],"split_indices":[2,0,5,0,0],"split_type":[0,0,0,0,0],"sum_hessian":[2.1725878E1,8.857702E0,1.2868176E1,6.0543118E0,6.8138647E0],"tree_param":{"num_deleted":"0","num_feature":"38","num_nodes":"5","size_leaf_vector":"1"}},{"base_weights":[1.6725995E-1,-4.63648E-1,7.8980726E-1,-7.992885E-3,-3.5452556E-2,4.9954046E-2,2.1011142E-2],"categories":[],"categories_nodes":[],"categories_segments":[],"categories_sizes":[],"default_left":[0,0,0,0,0,0,0],"id":24,"left_children":[1,3,5,-1,-1,-1,-1],"loss_changes":[1.0199859E1,7.6474595E-1,4.4446087E-1,0E0,0E0,0E0,0E0],"parents":[2147483647,0,0,1,1,2,2],"right_children":[2,4,6,-1,-1,-1,-1],"split_conditions":[6.1E1,3.5E-1,6.666667E-1,-7.992885E-3,-3.5452556E-2,4.9954046E-2,2.1011142E-2],"split_indices":[0,5,15,0,0,0,0],"split_type":[0,0,0,0,0,0,0],"sum_hessian":[2.3953661E1,1.19439335E1,1.20097275E1,6.257066E0,5.686868E0,6.4076357E0,5.602092E0],"tree_param":{"num_deleted":"0","num_feature":"38","num_nodes":"7","size_leaf_vector":"1"}},{"base_weights":[7.5295836E-2,-3.797575E-2,5.732769E-1,1.3040917E-2,3.802455E-2],"categories":[],"categories_nodes":[],"categories_segments":[],"categories_sizes":[],"default_left":[0,0,0,0,0],"id":25,"left_children":[1,-1,3,-1,-1],"loss_changes":[1.0472889E1,0E0,6.235523E-1,0E0,0E0],"parents":[2147483647,0,0,2,2],"right_children":[2,-1,4,-1,-1],"split_conditions":[-6.784817E-2,-3.797575E-2,1E0,1.3040917E-2,3.802455E-2],"split_indices":[2,0,25,0,0],"split_type":[0,0,0,0,0],"sum_hessian":[2.31896E1,8.393244E0,1.4796355E1,6.640584E0,8.155772E0],"tree_param":{"num_deleted":"0","num_feature":"38","num_nodes":"5","size_leaf_vector":"1"}},{"base_weights":[1.6016977E-2,-3.6105722E-2,4.9609432E-1,1.1149311E-2,4.336314E-2],"categories":[],"categories_nodes":[],"categories_segments":[],"categories_sizes":[],"default_left":[0,0,0,0,0],"id":26,"left_children":[1,-1,3,-1,-1],"loss_changes":[9.304221E0,0E0,1.3205178E0,0E0,0E0],"parents":[2147483647,0,0,2,2],"right_children":[2,-1,4,-1,-1],"split_conditions":[1.9314865E-2,-3.6105722E-2,4.425E-4,1.1149311E-2,4.336314E-2],"split_indices":[2,0,9,0,0],"split_type":[0,0,0,0,0],"sum_hessian":[2.4309237E1,9.299126E0,1.5010111E1,9.724759E0,5.2853518E0],"tree_param":{"num_deleted":"0","num_feature":"38","num_nodes":"5","size_leaf_vector":"1"}},{"base_weights":[-1.16856374E-1,-4.4004433E-2,3.711507E-1,3.2737274E-2,-5.705533E-3],"categories":[],"categories_nodes":[],"categories_segments":[],"categories_sizes":[],"default_left":[0,0,0,0,0],"id":27,"left_children":[1,-1,3,-1,-1],"loss_changes":[8.95092E0,0E0,2.1468081E0,0E0,0E0],"parents":[2147483647,0,0,2,2],"right_children":[2,-1,4,-1,-1],"split_conditions":[3.0256537E-1,-4.4004433E-2,8.463E-2,3.2737274E-2,-5.705533E-3],"split_indices":[2,0,10,0,0],"split_type":[0,0,0,0,0],"sum_hessian":[2.2018091E1,8.354039E0,1.3664051E1,8.533654E0,5.1303973E0],"tree_param":{"num_deleted":"0","num_feature":"38","num_nodes":"5","size_leaf_vector":"1"}},{"base_weights":[-0E0,-2.8409226E-2,3.7363327E-1,5.502737E-3,2.6550299E-2],"categories":[],"categories_nodes":[],"categories_segments":[],"categories_sizes":[],"default_left":[0,0,0,0,0],"id":28,"left_children":[1,-1,3,-1,-1],"loss_changes":[5.1456585E0,0E0,4.8216462E-1,0E0,0E0],"parents":[2147483647,0,0,2,2],"right_children":[2,-1,4,-1,-1],"split_conditions":[1.9314865E-2,-2.8409226E-2,1.47E2,5.502737E-3,2.6550299E-2],"split_indices":[2,0,33,0,0],"split_type":[0,0,0,0,0],"sum_hessian":[2.2213322E1,8.63498E0,1.3578341E1,5.9491158E0,7.6292243E0],"tree_param":{"num_deleted":"0","num_feature":"38","num_nodes":"5","size_leaf_vector":"1"}},{"base_weights":[6.2501386E-2,-3.0671192E-2,4.5100135E-1,3.6576074E-3,3.1538457E-2],"categories":[],"categories_nodes":[],"categories_segments":[],"categories_sizes":[],"default_left":[0,0,0,0,0],"id":29,"left_children":[1,-1,3,-1,-1],"loss_changes":[6.4287663E0,0E0,9.4218826E-1,0E0,0E0],"parents":[2147483647,0,0,2,2],"right_children":[2,-1,4,-1,-1],"split_conditions":[1.9314865E-2,-3.0671192E-2,-4.589E-2,3.6576074E-3,3.1538457E-2],"split_indices":[2,0,9,0,0],"split_type":[0,0,0,0,0],"sum_hessian":[2.2489817E1,7.903204E0,1.4586613E1,5.335424E0,9.251188E0],"tree_param":{"num_deleted":"0","num_feature":"38","num_nodes":"5","size_leaf_vector":"1"}},{"base_weights":[-5.8539525E-2,-4.1328337E-2,2.917027E-1,2.2349626E-2,3.5604786E-2,1.5757848E-2,-1.3747814E-2],"categories":[],"categories_nodes":[],"categories_segments":[],"categories_sizes":[],"default_left":[0,0,0,0,0,0,0],"id":30,"left_children":[1,-1,3,5,-1,-1,-1],"loss_changes":[6.7310433E0,0E0,1.8450491E0,1.0995752E0,0E0,0E0,0E0],"parents":[2147483647,0,0,2,2,3,3],"right_children":[2,-1,4,6,-1,-1,-1],"split_conditions":[-4.6E1,-4.1328337E-2,4.974625E-2,1.6081081E-1,3.5604786E-2,1.5757848E-2,-1.3747814E-2],"split_indices":[0,0,9,5,0,0,0],"split_type":[0,0,0,0,0,0,0],"sum_hessian":[2.2927704E1,6.844438E0,1.6083265E1,1.0589455E1,5.493811E0,5.4742994E0,5.1151557E0],"tree_param":{"num_deleted":"0","num_feature":"38","num_nodes":"7","size_leaf_vector":"1"}},{"base_weights":[2.2256735E-3,-3.3509076E-1,3.3602495E-2,-3.3621415E-2,-1.2501654E-4],"categories":[],"categories_nodes":[],"categories_segments":[],"categories_sizes":[],"default_left":[0,0,0,0,0],"id":31,"left_children":[1,3,-1,-1,-1],"loss_changes":[5.502267E0,1.7261921E0,0E0,0E0,0E0],"parents":[2147483647,0,0,1,1],"right_children":[2,4,-1,-1,-1],"split_conditions":[2.13E2,-4.6E1,3.3602495E-2,-3.3621415E-2,-1.2501654E-4],"split_indices":[0,0,0,0,0],"split_type":[0,0,0,0,0],"sum_hessian":[2.220665E1,1.500216E1,7.204489E0,6.791382E0,8.210778E0],"tree_param":{"num_deleted":"0","num_feature":"38","num_nodes":"5","size_leaf_vector":"1"}},{"base_weights":[1.9617505E-1,-3.2264403E-1,3.661713E-2,-0E0,-2.9082641E-2],"categories":[],"categories_nodes":[],"categories_segments":[],"categories_sizes":[],"default_left":[0,0,0,0,0],"id":32,"left_children":[1,3,-1,-1,-1],"loss_changes":[6.3762655E0,9.4132936E-1,0E0,0E0,0E0],"parents":[2147483647,0,0,1,1],"right_children":[2,4,-1,-1,-1],"split_conditions":[5.1688842E-2,2.6891893E-1,3.661713E-2,-0E0,-2.9082641E-2],"split_indices":[34,5,0,0,0],"split_type":[0,0,0,0,0],"sum_hessian":[2.0925163E1,1.0742238E1,1.0182925E1,5.346853E0,5.3953853E0],"tree_param":{"num_deleted":"0","num_feature":"38","num_nodes":"5","size_leaf_vector":"1"}},{"base_weights":[1.1405631E-2,-3.0984575E-2,3.5552323E-1,2.5419926E-3,3.0244578E-2],"categories":[],"categories_nodes":[],"categories_segments":[],"categories_sizes":[],"default_left":[0,0,0,0,0],"id":33,"left_children":[1,-1,3,-1,-1],"loss_changes":[5.146721E0,0E0,1.0810808E0,0E0,0E0],"parents":[2147483647,0,0,2,2],"right_children":[2,-1,4,-1,-1],"split_conditions":[-4.6E1,-3.0984575E-2,4.189189E-1,2.5419926E-3,3.0244578E-2],"split_indices":[0,0,5,0,0],"split_type":[0,0,0,0,0],"sum_hessian":[2.1806032E1,7.3094316E0,1.44966E1,7.2469788E0,7.2496214E0],"tree_param":{"num_deleted":"0","num_feature":"38","num_nodes":"5","size_leaf_vector":"1"}},{"base_weights":[4.3294393E-2,-2.8971558E-2,4.0702692E-1,-6.0219405E-5,3.512908E-2],"categories":[],"categories_nodes":[],"categories_segments":[],"categories_sizes":[],"default_left":[0,0,0,0,0],"id":34,"left_children":[1,-1,3,-1,-1],"loss_changes":[5.2609925E0,0E0,1.8496718E0,0E0,0E0],"parents":[2147483647,0,0,2,2],"right_children":[2,-1,4,-1,-1],"split_conditions":[1.9314865E-2,-2.8971558E-2,9.189189E-2,-6.0219405E-5,3.512908E-2],"split_indices":[2,0,5,0,0],"split_type":[0,0,0,0,0],"sum_hessian":[2.1261658E1,7.5196886E0,1.3741969E1,6.0470853E0,7.6948833E0],"tree_param":{"num_deleted":"0","num_feature":"38","num_nodes":"5","size_leaf_vector":"1"}},{"base_weights":[6.701999E-2,3.080019E-1,-2.8508306E-2,3.6344863E-2,-1.2467242E-3],"categories":[],"categories_nodes":[],"categories_segments":[],"categories_sizes":[],"default_left":[0,0,0,0,0],"id":35,"left_children":[1,3,-1,-1,-1],"loss_changes":[3.4520807E0,2.3713188E0,0E0,0E0,0E0],"parents":[2147483647,0,0,1,1],"right_children":[2,4,-1,-1,-1],"split_conditions":[4.7140452E-1,1.74E2,-2.8508306E-2,3.6344863E-2,-1.2467242E-3],"split_indices":[19,33,0,0,0],"split_type":[0,0,0,0,0],"sum_hessian":[2.050881E1,1.5369625E1,5.1391854E0,6.4151945E0,8.954431E0],"tree_param":{"num_deleted":"0","num_feature":"38","num_nodes":"5","size_leaf_vector":"1"}},{"base_weights":[-9.438264E-2,-3.0122569E-2,3.551581E-1,3.4466922E-2,-1.7455092E-3],"categories":[],"categories_nodes":[],"categories_segments":[],"categories_sizes":[],"default_left":[0,0,0,0,0],"id":36,"left_children":[1,-1,3,-1,-1],"loss_changes":[5.0190015E0,0E0,1.6054072E0,0E0,0E0],"parents":[2147483647,0,0,2,2],"right_children":[2,-1,4,-1,-1],"split_conditions":[6.1E1,-3.0122569E-2,1E0,3.4466922E-2,-1.7455092E-3],"split_indices":[0,0,29,0,0],"split_type":[0,0,0,0,0],"sum_hessian":[1.992976E1,9.300585E0,1.0629174E1,5.4495564E0,5.1796184E0],"tree_param":{"num_deleted":"0","num_feature":"38","num_nodes":"5","size_leaf_vector":"1"}},{"base_weights":[-2.0022911E-1,-3.9134566E-2,2.1439448E-1,2.4668807E-2,-2.078969E-3],"categories":[],"categories_nodes":[],"categories_segments":[],"categories_sizes":[],"default_left":[0,0,0,0,0],"id":37,"left_children":[1,-1,3,-1,-1],"loss_changes":[5.457899E0,0E0,1.0185661E0,0E0,0E0],"parents":[2147483647,0,0,2,2],"right_children":[2,-1,4,-1,-1],"split_conditions":[3.2188022E-1,-3.9134566E-2,6.666667E-1,2.4668807E-2,-2.078969E-3],"split_indices":[2,0,15,0,0],"split_type":[0,0,0,0,0],"sum_hessian":[2.0669605E1,8.3263035E0,1.2343303E1,5.649368E0,6.693935E0],"tree_param":{"num_deleted":"0","num_feature":"38","num_nodes":"5","size_leaf_vector":"1"}},{"base_weights":[-5.112356E-2,-3.2058477E-1,2.176186E-2,-0E0,-3.0578991E-2],"categories":[],"categories_nodes":[],"categories_segments":[],"categories_sizes":[],"default_left":[0,0,0,0,0],"id":38,"left_children":[1,3,-1,-1,-1],"loss_changes":[3.193872E0,1.44376E0,0E0,0E0,0E0],"parents":[2147483647,0,0,1,1],"right_children":[2,4,-1,-1,-1],"split_conditions":[1.1601885E-1,2.6891893E-1,2.176186E-2,-0E0,-3.0578991E-2],"split_indices":[34,5,0,0,0],"split_type":[0,0,0,0,0],"sum_hessian":[2.239322E1,1.4761359E1,7.6318607E0,7.570498E0,7.190861E0],"tree_param":{"num_deleted":"0","num_feature":"38","num_nodes":"5","size_leaf_vector":"1"}},{"base_weights":[8.514962E-2,-1.6848201E-2,4.2898437E-1,3.2832768E-2,4.5087333E-3],"categories":[],"categories_nodes":[],"categories_segments":[],"categories_sizes":[],"default_left":[0,0,0,0,0],"id":39,"left_children":[1,-1,3,-1,-1],"loss_changes":[3.4372795E0,0E0,8.718419E-1,0E0,0E0],"parents":[2147483647,0,0,2,2],"right_children":[2,-1,4,-1,-1],"split_conditions":[6.1E1,-1.6848201E-2,1E0,3.2832768E-2,4.5087333E-3],"split_indices":[0,0,29,0,0],"split_type":[0,0,0,0,0],"sum_hessian":[2.1623571E1,9.58525E0,1.2038322E1,6.4624543E0,5.575868E0],"tree_param":{"num_deleted":"0","num_feature":"38","num_nodes":"5","size_leaf_vector":"1"}},{"base_weights":[2.14127E-2,-3.0511865E-2,3.2177803E-1,6.1126414E-4,2.928334E-2],"categories":[],"categories_nodes":[],"categories_segments":[],"categories_sizes":[],"default_left":[0,0,0,0,0],"id":40,"left_children":[1,-1,3,-1,-1],"loss_changes":[4.2997737E0,0E0,1.2010863E0,0E0,0E0],"parents":[2147483647,0,0,2,2],"right_children":[2,-1,4,-1,-1],"split_conditions":[-4.6E1,-3.0511865E-2,4.189189E-1,6.1126414E-4,2.928334E-2],"split_indices":[0,0,5,0,0],"split_type":[0,0,0,0,0],"sum_hessian":[2.0780165E1,6.25716E0,1.45230055E1,7.3391476E0,7.183858E0],"tree_param":{"num_deleted":"0","num_feature":"38","num_nodes":"5","size_leaf_vector":"1"}},{"base_weights":[2.7073873E-2,-2.4633454E-2,3.0136502E-1,2.7808025E-2,2.64935E-3],"categories":[],"categories_nodes":[],"categories_segments":[],"categories_sizes":[],"default_left":[0,0,0,0,0],"id":41,"left_children":[1,-1,3,-1,-1],"loss_changes":[3.0648015E0,0E0,8.0981517E-1,0E0,0E0],"parents":[2147483647,0,0,2,2],"right_children":[2,-1,4,-1,-1],"split_conditions":[-4.6E1,-2.4633454E-2,3.8E-1,2.7808025E-2,2.64935E-3],"split_indices":[0,0,1,0,0],"split_type":[0,0,0,0,0],"sum_hessian":[1.9590914E1,6.366523E0,1.3224391E1,5.7174416E0,7.506949E0],"tree_param":{"num_deleted":"0","num_feature":"38","num_nodes":"5","size_leaf_vector":"1"}},{"base_weights":[-8.5645884E-2,-2.6103113E-2,2.7666628E-1,2.1096892E-3,2.1173224E-2],"categories":[],"categories_nodes":[],"categories_segments":[],"categories_sizes":[],"default_left":[0,0,0,0,0],"id":42,"left_children":[1,-1,3,-1,-1],"loss_changes":[3.6481287E0,0E0,3.675676E-1,0E0,0E0],"parents":[2147483647,0,0,2,2],"right_children":[2,-1,4,-1,-1],"split_conditions":[6.1E1,-2.6103113E-2,6.666667E-1,2.1096892E-3,2.1173224E-2],"split_indices":[0,0,14,0,0],"split_type":[0,0,0,0,0],"sum_hessian":[2.1003384E1,9.452562E0,1.1550821E1,5.2053094E0,6.3455124E0],"tree_param":{"num_deleted":"0","num_feature":"38","num_nodes":"5","size_leaf_vector":"1"}},{"base_weights":[3.2999508E-2,3.6773974E-1,-2.2797367E-2,-0E0,3.1137919E-2],"categories":[],"categories_nodes":[],"categories_segments":[],"categories_sizes":[],"default_left":[0,0,0,0,0],"id":43,"left_children":[1,3,-1,-1,-1],"loss_changes":[3.4640553E0,1.1433184E0,0E0,0E0,0E0],"parents":[2147483647,0,0,1,1],"right_children":[2,4,-1,-1,-1],"split_conditions":[4.5945945E-1,1.04E2,-2.2797367E-2,-0E0,3.1137919E-2],"split_indices":[6,0,0,0,0],"split_type":[0,0,0,0,0],"sum_hessian":[1.9194311E1,1.1662445E1,7.5318666E0,5.299149E0,6.363296E0],"tree_param":{"num_deleted":"0","num_feature":"38","num_nodes":"5","size_leaf_vector":"1"}},{"base_weights":[7.291253E-2,-2.840639E-2,4.5530027E-1,3.2771889E-3,3.5294216E-2],"categories":[],"categories_nodes":[],"categories_segments":[],"categories_sizes":[],"default_left":[0,0,0,0,0],"id":44,"left_children":[1,-1,3,-1,-1],"loss_changes":[5.548262E0,0E0,1.2632692E0,0E0,0E0],"parents":[2147483647,0,0,2,2],"right_children":[2,-1,4,-1,-1],"split_conditions":[6.784817E-2,-2.840639E-2,9.189189E-2,3.2771889E-3,3.5294216E-2],"split_indices":[2,0,5,0,0],"split_type":[0,0,0,0,0],"sum_hessian":[2.0625113E1,7.427048E0,1.3198064E1,5.814643E0,7.3834205E0],"tree_param":{"num_deleted":"0","num_feature":"38","num_nodes":"5","size_leaf_vector":"1"}},{"base_weights":[2.6760703E-2,-2.0804329E-1,2.4334064E-2,9.985945E-3,-3.7116352E-2],"categories":[],"categories_nodes":[],"categories_segments":[],"categories_sizes":[],"default_left":[0,0,0,0,0],"id":45,"left_children":[1,3,-1,-1,-1],"loss_changes":[2.4067502E0,3.3656788E0,0E0,0E0,0E0],"parents":[2147483647,0,0,1,1],"right_children":[2,4,-1,-1,-1],"split_conditions":[2.13E2,4.4606414E-1,2.4334064E-2,9.985945E-3,-3.7116352E-2],"split_indices":[0,5,0,0,0],"split_type":[0,0,0,0,0],"sum_hessian":[2.009094E1,1.3519191E1,6.571749E0,7.9164386E0,5.602752E0],"tree_param":{"num_deleted":"0","num_feature":"38","num_nodes":"5","size_leaf_vector":"1"}},{"base_weights":[2.2166283E-3,-1.6972264E-2,1.5863664E-1,-1.2223471E-2,2.0195296E-2],"categories":[],"categories_nodes":[],"categories_segments":[],"categories_sizes":[],"default_left":[0,0,0,0,0],"id":46,"left_children":[1,-1,3,-1,-1],"loss_changes":[1.1248568E0,0E0,1.5839953E0,0E0,0E0],"parents":[2147483647,0,0,2,2],"right_children":[2,-1,4,-1,-1],"split_conditions":[-3.0256537E-1,-1.6972264E-2,-4.589E-2,-1.2223471E-2,2.0195296E-2],"split_indices":[2,0,9,0,0],"split_type":[0,0,0,0,0],"sum_hessian":[1.937861E1,5.5175204E0,1.386109E1,5.0904145E0,8.770675E0],"tree_param":{"num_deleted":"0","num_feature":"38","num_nodes":"5","size_leaf_vector":"1"}},{"base_weights":[-1.1982086E-1,-3.6980852E-2,2.1897471E-1,-6.9900765E-3,2.866422E-2],"categories":[],"categories_nodes":[],"categories_segments":[],"categories_sizes":[],"default_left":[0,0,0,0,0],"id":47,"left_children":[1,-1,3,-1,-1],"loss_changes":[4.2970695E0,0E0,1.8064713E0,0E0,0E0],"parents":[2147483647,0,0,2,2],"right_children":[2,-1,4,-1,-1],"split_conditions":[1.9314865E-2,-3.6980852E-2,1.57E2,-6.9900765E-3,2.866422E-2],"split_indices":[2,0,33,0,0],"split_type":[0,0,0,0,0],"sum_hessian":[1.8444546E1,6.2050495E0,1.2239497E1,6.2419972E0,5.9975E0],"tree_param":{"num_deleted":"0","num_feature":"38","num_nodes":"5","size_leaf_vector":"1"}},{"base_weights":[1.2673128E-1,-2.304595E-2,4.1463974E-1,3.9695078E-4,3.292181E-2],"categories":[],"categories_nodes":[],"categories_segments":[],"categories_sizes":[],"default_left":[0,0,0,0,0],"id":48,"left_children":[1,-1,3,-1,-1],"loss_changes":[3.7083316E0,0E0,1.3769205E0,0E0,0E0],"parents":[2147483647,0,0,2,2],"right_children":[2,-1,4,-1,-1],"split_conditions":[1.9314865E-2,-2.304595E-2,9.189189E-2,3.9695078E-4,3.292181E-2],"split_indices":[2,0,5,0,0],"split_type":[0,0,0,0,0],"sum_hessian":[1.9815973E1,6.204239E0,1.3611734E1,5.642189E0,7.9695454E0],"tree_param":{"num_deleted":"0","num_feature":"38","num_nodes":"5","size_leaf_vector":"1"}},{"base_weights":[-9.087616E-2,-2.7038902E-1,1.1808074E-2,-7.9040205E-5,-2.080699E-2],"categories":[],"categories_nodes":[],"categories_segments":[],"categories_sizes":[],"default_left":[0,0,0,0,0],"id":49,"left_children":[1,3,-1,-1,-1],"loss_changes":[1.2865795E0,5.0891733E-1,0E0,0E0,0E0],"parents":[2147483647,0,0,1,1],"right_children":[2,4,-1,-1,-1],"split_conditions":[1.84E2,-1.6E-1,1.1808074E-2,-7.9040205E-5,-2.080699E-2],"split_indices":[0,1,0,0,0],"split_type":[0,0,0,0,0],"sum_hessian":[1.97691E1,1.3072515E1,6.6965866E0,5.192652E0,7.8798623E0],"tree_param":{"num_deleted":"0","num_feature":"38","num_nodes":"5","size_leaf_vector":"1"}},{"base_weights":[-9.81189E-3,-2.3145443E-2,2.291102E-1,2.2089977E-2,-4.439467E-3],"categories":[],"categories_nodes":[],"categories_segments":[],"categories_sizes":[],"default_left":[0,0,0,0,0],"id":50,"left_children":[1,-1,3,-1,-1],"loss_changes":[2.3061454E0,0E0,1.0001326E0,0E0,0E0],"parents":[2147483647,0,0,2,2],"right_children":[2,-1,4,-1,-1],"split_conditions":[1.9314865E-2,-2.3145443E-2,1.5476428E0,2.2089977E-2,-4.439467E-3],"split_indices":[2,0,2,0,0],"split_type":[0,0,0,0,0],"sum_hessian":[1.9107254E1,6.4176817E0,1.2689572E1,7.5578465E0,5.131726E0],"tree_param":{"num_deleted":"0","num_feature":"38","num_nodes":"5","size_leaf_vector":"1"}},{"base_weights":[9.5506996E-2,-2.5612194E-2,3.5391963E-1,4.423804E-3,2.8409356E-2],"categories":[],"categories_nodes":[],"categories_segments":[],"categories_sizes":[],"default_left":[0,0,0,0,0],"id":51,"left_children":[1,-1,3,-1,-1],"loss_changes":[3.1805139E0,0E0,6.9040823E-1,0E0,0E0],"parents":[2147483647,0,0,2,2],"right_children":[2,-1,4,-1,-1],"split_conditions":[-4.8E1,-2.5612194E-2,6.666667E-1,4.423804E-3,2.8409356E-2],"split_indices":[0,0,14,0,0],"split_type":[0,0,0,0,0],"sum_hessian":[1.8197985E1,5.0207124E0,1.3177272E1,6.725308E0,6.4519634E0],"tree_param":{"num_deleted":"0","num_feature":"38","num_nodes":"5","size_leaf_vector":"1"}},{"base_weights":[1.0774157E-1,-1.7582482E-2,4.2773008E-1,2.7832985E-2,1.0748889E-2],"categories":[],"categories_nodes":[],"categories_segments":[],"categories_sizes":[],"default_left":[0,0,0,0,0],"id":52,"left_children":[1,-1,3,-1,-1],"loss_changes":[2.9270048E0,0E0,1.2361646E-1,0E0,0E0],"parents":[2147483647,0,0,2,2],"right_children":[2,-1,4,-1,-1],"split_conditions":[3.2188022E-1,-1.7582482E-2,3.8E-1,2.7832985E-2,1.0748889E-2],"split_indices":[2,0,1,0,0],"split_type":[0,0,0,0,0],"sum_hessian":[1.783665E1,7.1542306E0,1.068242E1,5.352353E0,5.3300667E0],"tree_param":{"num_deleted":"0","num_feature":"38","num_nodes":"5","size_leaf_vector":"1"}},{"base_weights":[-5.44345E-2,1.9816814E-2,-2.696954E-1,-3.0039733E-2,1.7036501E-3],"categories":[],"categories_nodes":[],"categories_segments":[],"categories_sizes":[],"default_left":[0,0,0,0,0],"id":53,"left_children":[1,-1,3,-1,-1],"loss_changes":[2.070697E0,0E0,1.5386312E0,0E0,0E0],"parents":[2147483647,0,0,2,2],"right_children":[2,-1,4,-1,-1],"split_conditions":[-2.1860313E-2,1.9816814E-2,1.1145984E0,-3.0039733E-2,1.7036501E-3],"split_indices":[10,0,2,0,0],"split_type":[0,0,0,0,0],"sum_hessian":[1.9368992E1,5.8380275E0,1.3530965E1,6.163888E0,7.3670774E0],"tree_param":{"num_deleted":"0","num_feature":"38","num_nodes":"5","size_leaf_vector":"1"}},{"base_weights":[8.685688E-2,-1.8789854E-2,3.9797E-1,-5.798907E-3,4.056442E-2],"categories":[],"categories_nodes":[],"categories_segments":[],"categories_sizes":[],"default_left":[0,0,0,0,0],"id":54,"left_children":[1,-1,3,-1,-1],"loss_changes":[2.9554074E0,0E0,2.7682283E0,0E0,0E0],"parents":[2147483647,0,0,2,2],"right_children":[2,-1,4,-1,-1],"split_conditions":[9.189189E-2,-1.8789854E-2,1.47E2,-5.798907E-3,4.056442E-2],"split_indices":[5,0,33,0,0],"split_type":[0,0,0,0,0],"sum_hessian":[1.847811E1,7.2167687E0,1.126134E1,5.2324324E0,6.028908E0],"tree_param":{"num_deleted":"0","num_feature":"38","num_nodes":"5","size_leaf_vector":"1"}},{"base_weights":[-1.2457903E-1,-2.2580653E-2,1.3279454E-1,2.50798E-2,-1.1324031E-2],"categories":[],"categories_nodes":[],"categories_segments":[],"categories_sizes":[],"default_left":[0,0,0,0,0],"id":55,"left_children":[1,-1,3,-1,-1],"loss_changes":[1.840786E0,0E0,1.7615153E0,0E0,0E0],"parents":[2147483647,0,0,2,2],"right_children":[2,-1,4,-1,-1],"split_conditions":[6.1E1,-2.2580653E-2,1.5476428E0,2.50798E-2,-1.1324031E-2],"split_indices":[0,0,2,0,0],"split_type":[0,0,0,0,0],"sum_hessian":[1.977859E1,8.54925E0,1.122934E1,5.48308E0,5.746259E0],"tree_param":{"num_deleted":"0","num_feature":"38","num_nodes":"5","size_leaf_vector":"1"}},{"base_weights":[-9.572031E-2,1.6217042E-2,-3.0413243E-1,-3.6174413E-2,6.653517E-3],"categories":[],"categories_nodes":[],"categories_segments":[],"categories_sizes":[],"default_left":[0,0,0,0,0],"id":56,"left_children":[1,-1,3,-1,-1],"loss_changes":[1.9075164E0,0E0,2.81394E0,0E0,0E0],"parents":[2147483647,0,0,2,2],"right_children":[2,-1,4,-1,-1],"split_conditions":[-2.1860313E-2,1.6217042E-2,1.1145984E0,-3.6174413E-2,6.653517E-3],"split_indices":[10,0,2,0,0],"split_type":[0,0,0,0,0],"sum_hessian":[1.9685104E1,6.1843295E0,1.3500775E1,6.6735554E0,6.8272204E0],"tree_param":{"num_deleted":"0","num_feature":"38","num_nodes":"5","size_leaf_vector":"1"}},{"base_weights":[-1.2943988E-1,1.0284124E-1,-2.7517332E-2,2.7205525E-2,-1.5760703E-2],"categories":[],"categories_nodes":[],"categories_segments":[],"categories_sizes":[],"default_left":[0,0,0,0,0],"id":57,"left_children":[1,3,-1,-1,-1],"loss_changes":[1.9471802E0,2.565871E0,0E0,0E0,0E0],"parents":[2147483647,0,0,1,1],"right_children":[2,4,-1,-1,-1],"split_conditions":[2E0,1.74E2,-2.7517332E-2,2.7205525E-2,-1.5760703E-2],"split_indices":[25,33,0,0,0],"split_type":[0,0,0,0,0],"sum_hessian":[1.7879576E1,1.1855242E1,6.024335E0,5.73717E0,6.1180716E0],"tree_param":{"num_deleted":"0","num_feature":"38","num_nodes":"5","size_leaf_vector":"1"}},{"base_weights":[-1.1290919E-1,-4.870388E-1,1.8068673E-2,-3.5963412E-2,-7.817674E-3],"categories":[],"categories_nodes":[],"categories_segments":[],"categories_sizes":[],"default_left":[0,0,0,0,0],"id":58,"left_children":[1,3,-1,-1,-1],"loss_changes":[3.5886962E0,6.643574E-1,0E0,0E0,0E0],"parents":[2147483647,0,0,1,1],"right_children":[2,4,-1,-1,-1],"split_conditions":[1.1145984E0,1.44E2,1.8068673E-2,-3.5963412E-2,-7.817674E-3],"split_indices":[2,33,0,0,0],"split_type":[0,0,0,0,0],"sum_hessian":[1.8161777E1,1.0255698E1,7.90608E0,5.1567774E0,5.098921E0],"tree_param":{"num_deleted":"0","num_feature":"38","num_nodes":"5","size_leaf_vector":"1"}},{"base_weights":[3.5078045E-2,-1.8438077E-2,2.2463918E-1,2.6555374E-2,-6.0326676E-3],"categories":[],"categories_nodes":[],"categories_segments":[],"categories_sizes":[],"default_left":[0,0,0,0,0],"id":59,"left_children":[1,-1,3,-1,-1],"loss_changes":[1.6022422E0,0E0,1.631661E0,0E0,0E0],"parents":[2147483647,0,0,2,2],"right_children":[2,-1,4,-1,-1],"split_conditions":[2.0564398E-1,-1.8438077E-2,3.8E-1,2.6555374E-2,-6.0326676E-3],"split_indices":[2,0,1,0,0],"split_type":[0,0,0,0,0],"sum_hessian":[1.9036192E1,5.6105795E0,1.3425612E1,6.9810095E0,6.444603E0],"tree_param":{"num_deleted":"0","num_feature":"38","num_nodes":"5","size_leaf_vector":"1"}},{"base_weights":[4.7557442E-3,-2.609955E-1,2.7188718E-2,-3.6751534E-4,-2.4785941E-2],"categories":[],"categories_nodes":[],"categories_segments":[],"categories_sizes":[],"default_left":[0,0,0,0,0],"id":60,"left_children":[1,3,-1,-1,-1],"loss_changes":[2.9828596E0,7.618639E-1,0E0,0E0,0E0],"parents":[2147483647,0,0,1,1],"right_children":[2,4,-1,-1,-1],"split_conditions":[5.95925E-2,1E0,2.7188718E-2,-3.6751534E-4,-2.4785941E-2],"split_indices":[9,35,0,0,0],"split_type":[0,0,0,0,0],"sum_hessian":[1.863532E1,1.2702771E1,5.932549E0,6.8057423E0,5.897029E0],"tree_param":{"num_deleted":"0","num_feature":"38","num_nodes":"5","size_leaf_vector":"1"}},{"base_weights":[-1.1916163E-1,-3.223377E-2,1.7458585E-1,-5.785772E-3,2.1505006E-2],"categories":[],"categories_nodes":[],"categories_segments":[],"categories_sizes":[],"default_left":[0,0,0,0,0],"id":61,"left_children":[1,-1,3,-1,-1],"loss_changes":[3.1285295E0,0E0,1.0456327E0,0E0,0E0],"parents":[2147483647,0,0,2,2],"right_children":[2,-1,4,-1,-1],"split_conditions":[3.2188022E-1,-3.223377E-2,1E0,-5.785772E-3,2.1505006E-2],"split_indices":[2,0,25,0,0],"split_type":[0,0,0,0,0],"sum_hessian":[1.8233023E1,6.231195E0,1.2001828E1,5.691368E0,6.31046E0],"tree_param":{"num_deleted":"0","num_feature":"38","num_nodes":"5","size_leaf_vector":"1"}},{"base_weights":[6.6219755E-2,3.4505534E-1,-1.6423509E-2,7.488967E-4,2.963758E-2],"categories":[],"categories_nodes":[],"categories_segments":[],"categories_sizes":[],"default_left":[0,0,0,0,0],"id":62,"left_children":[1,3,-1,-1,-1],"loss_changes":[2.1519544E0,8.69138E-1,0E0,0E0,0E0],"parents":[2147483647,0,0,1,1],"right_children":[2,4,-1,-1,-1],"split_conditions":[4.5945945E-1,1.1566457E0,-1.6423509E-2,7.488967E-4,2.963758E-2],"split_indices":[6,2,0,0,0],"split_type":[0,0,0,0,0],"sum_hessian":[1.7508759E1,1.0482402E1,7.0263567E0,5.1216006E0,5.360801E0],"tree_param":{"num_deleted":"0","num_feature":"38","num_nodes":"5","size_leaf_vector":"1"}},{"base_weights":[-5.5141974E-2,-2.324118E-2,1.2038043E-1,1.7388143E-2,-9.205509E-3],"categories":[],"categories_nodes":[],"categories_segments":[],"categories_sizes":[],"default_left":[0,0,0,0,0],"id":63,"left_children":[1,-1,3,-1,-1],"loss_changes":[1.4684749E0,0E0,1.0524431E0,0E0,0E0],"parents":[2147483647,0,0,2,2],"right_children":[2,-1,4,-1,-1],"split_conditions":[1.9314865E-2,-2.324118E-2,1.6959792E0,1.7388143E-2,-9.205509E-3],"split_indices":[2,0,2,0,0],"split_type":[0,0,0,0,0],"sum_hessian":[1.8164335E1,5.124617E0,1.3039718E1,7.5717306E0,5.467987E0],"tree_param":{"num_deleted":"0","num_feature":"38","num_nodes":"5","size_leaf_vector":"1"}},{"base_weights":[-5.752698E-2,-2.3417018E-2,1.2797028E-1,-8.204302E-3,1.6593963E-2],"categories":[],"categories_nodes":[],"categories_segments":[],"categories_sizes":[],"default_left":[0,0,0,0,0],"id":64,"left_children":[1,-1,3,-1,-1],"loss_changes":[1.5359975E0,0E0,8.8438714E-1,0E0,0E0],"parents":[2147483647,0,0,2,2],"right_children":[2,-1,4,-1,-1],"split_conditions":[1.9314865E-2,-2.3417018E-2,9.189189E-2,-8.204302E-3,1.6593963E-2],"split_indices":[2,0,5,0,0],"split_type":[0,0,0,0,0],"sum_hessian":[1.7923054E1,5.2687874E0,1.2654265E1,5.0812855E0,7.57298E0],"tree_param":{"num_deleted":"0","num_feature":"38","num_nodes":"5","size_leaf_vector":"1"}},{"base_weights":[-1.2376114E-1,5.5471916E-2,-2.1412453E-2,-1.0705802E-2,1.588848E-2],"categories":[],"categories_nodes":[],"categories_segments":[],"categories_sizes":[],"default_left":[0,0,0,0,0],"id":65,"left_children":[1,3,-1,-1,-1],"loss_changes":[1.0860078E0,9.6236783E-1,0E0,0E0,0E0],"parents":[2147483647,0,0,1,1],"right_children":[2,4,-1,-1,-1],"split_conditions":[4.5945945E-1,1.1566457E0,-2.1412453E-2,-1.0705802E-2,1.588848E-2],"split_indices":[6,2,0,0,0],"split_type":[0,0,0,0,0],"sum_hessian":[1.7781265E1,1.1500837E1,6.2804275E0,5.5741773E0,5.9266605E0],"tree_param":{"num_deleted":"0","num_feature":"38","num_nodes":"5","size_leaf_vector":"1"}},{"base_weights":[-1.3383363E-3,-1.5776178E-2,1.2391091E-1,1.779498E-2,-2.6209315E-3],"categories":[],"categories_nodes":[],"categories_segments":[],"categories_sizes":[],"default_left":[0,0,0,0,0],"id":66,"left_children":[1,-1,3,-1,-1],"loss_changes":[8.527977E-1,0E0,6.595916E-1,0E0,0E0],"parents":[2147483647,0,0,2,2],"right_children":[2,-1,4,-1,-1],"split_conditions":[-1.9314865E-2,-1.5776178E-2,1E0,1.779498E-2,-2.6209315E-3],"split_indices":[2,0,35,0,0],"split_type":[0,0,0,0,0],"sum_hessian":[1.9190855E1,5.264416E0,1.3926438E1,5.8191686E0,8.10727E0],"tree_param":{"num_deleted":"0","num_feature":"38","num_nodes":"5","size_leaf_vector":"1"}},{"base_weights":[4.6761747E-2,-2.7754614E-1,3.5446048E-2,-3.5445213E-2,8.492771E-3],"categories":[],"categories_nodes":[],"categories_segments":[],"categories_sizes":[],"default_left":[0,0,0,0,0],"id":67,"left_children":[1,3,-1,-1,-1],"loss_changes":[3.992026E0,2.5569067E0,0E0,0E0,0E0],"parents":[2147483647,0,0,1,1],"right_children":[2,4,-1,-1,-1],"split_conditions":[5.95925E-2,6.359032E-2,3.5446048E-2,-3.5445213E-2,8.492771E-3],"split_indices":[9,34,0,0,0],"split_type":[0,0,0,0,0],"sum_hessian":[1.6472618E1,1.1345649E1,5.12697E0,5.5926075E0,5.7530413E0],"tree_param":{"num_deleted":"0","num_feature":"38","num_nodes":"5","size_leaf_vector":"1"}},{"base_weights":[-6.1009596E-3,-1.8143234E-1,1.7740902E-2,1.9877849E-3,-2.3484146E-2],"categories":[],"categories_nodes":[],"categories_segments":[],"categories_sizes":[],"default_left":[0,0,0,0,0],"id":68,"left_children":[1,3,-1,-1,-1],"loss_changes":[1.3050419E0,9.688154E-1,0E0,0E0,0E0],"parents":[2147483647,0,0,1,1],"right_children":[2,4,-1,-1,-1],"split_conditions":[4.974625E-2,3.5E-1,1.7740902E-2,1.9877849E-3,-2.3484146E-2],"split_indices":[9,5,0,0,0],"split_type":[0,0,0,0,0],"sum_hessian":[1.8879845E1,1.3228114E1,5.65173E0,7.7762194E0,5.4518948E0],"tree_param":{"num_deleted":"0","num_feature":"38","num_nodes":"5","size_leaf_vector":"1"}},{"base_weights":[1.1344349E-1,3.150697E-1,-1.11477515E-2,3.301107E-2,-3.29328E-3],"categories":[],"categories_nodes":[],"categories_segments":[],"categories_sizes":[],"default_left":[0,0,0,0,0],"id":69,"left_children":[1,3,-1,-1,-1],"loss_changes":[1.3733959E0,1.750131E0,0E0,0E0,0E0],"parents":[2147483647,0,0,1,1],"right_children":[2,4,-1,-1,-1],"split_conditions":[2E0,1.74E2,-1.11477515E-2,3.301107E-2,-3.29328E-3],"split_indices":[25,33,0,0,0],"split_type":[0,0,0,0,0],"sum_hessian":[1.8077105E1,1.1528169E1,6.548936E0,5.801234E0,5.726935E0],"tree_param":{"num_deleted":"0","num_feature":"38","num_nodes":"5","size_leaf_vector":"1"}},{"base_weights":[-5.7047196E-2,-1.6746609E-2,1.4655204E-1,2.4156561E-2,-1.3248838E-2],"categories":[],"categories_nodes":[],"categories_segments":[],"categories_sizes":[],"default_left":[0,0,0,0,0],"id":70,"left_children":[1,-1,3,-1,-1],"loss_changes":[1.2277381E0,0E0,1.8561888E0,0E0,0E0],"parents":[2147483647,0,0,2,2],"right_children":[2,-1,4,-1,-1],"split_conditions":[6.1E1,-1.6746609E-2,1.6959792E0,2.4156561E-2,-1.3248838E-2],"split_indices":[0,0,2,0,0],"split_type":[0,0,0,0,0],"sum_hessian":[1.9499702E1,8.180521E0,1.1319181E1,6.2645593E0,5.0546227E0],"tree_param":{"num_deleted":"0","num_feature":"38","num_nodes":"5","size_leaf_vector":"1"}},{"base_weights":[-0E0,-1.1004089E-2,1.0669798E-2],"categories":[],"categories_nodes":[],"categories_segments":[],"categories_sizes":[],"default_left":[0,0,0],"id":71,"left_children":[1,-1,-1],"loss_changes":[8.8383174E-1,0E0,0E0],"parents":[2147483647,0,0],"right_children":[2,-1,-1],"split_conditions":[1.04E2,-1.1004089E-2,1.0669798E-2],"split_indices":[0,0,0],"split_type":[0,0,0],"sum_hessian":[1.6808367E1,8.433395E0,8.37497E0],"tree_param":{"num_deleted":"0","num_feature":"38","num_nodes":"3","size_leaf_vector":"1"}},{"base_weights":[1.0547116E-2,2.4382168E-1,-1.9249504E-2,2.6692098E-2,-2.813792E-3],"categories":[],"categories_nodes":[],"categories_segments":[],"categories_sizes":[],"default_left":[0,0,0,0,0],"id":72,"left_children":[1,3,-1,-1,-1],"loss_changes":[1.6870383E0,1.098592E0,0E0,0E0,0E0],"parents":[2147483647,0,0,1,1],"right_children":[2,4,-1,-1,-1],"split_conditions":[4.5945945E-1,1.52E2,-1.9249504E-2,2.6692098E-2,-2.813792E-3],"split_indices":[6,33,0,0,0],"split_type":[0,0,0,0,0],"sum_hessian":[1.6419611E1,1.072862E1,5.690991E0,5.2292743E0,5.499346E0],"tree_param":{"num_deleted":"0","num_feature":"38","num_nodes":"5","size_leaf_vector":"1"}},{"base_weights":[8.0351725E-2,-1.8873626E-1,3.0760733E-2,4.949195E-3,-2.3518728E-2],"categories":[],"categories_nodes":[],"categories_segments":[],"categories_sizes":[],"default_left":[0,0,0,0,0],"id":73,"left_children":[1,3,-1,-1,-1],"loss_changes":[2.8591473E0,1.1471246E0,0E0,0E0,0E0],"parents":[2147483647,0,0,1,1],"right_children":[2,4,-1,-1,-1],"split_conditions":[2.13E2,6.666667E-1,3.0760733E-2,4.949195E-3,-2.3518728E-2],"split_indices":[0,14,0,0,0],"split_type":[0,0,0,0,0],"sum_hessian":[1.7762432E1,1.2123368E1,5.6390634E0,6.142104E0,5.9812636E0],"tree_param":{"num_deleted":"0","num_feature":"38","num_nodes":"5","size_leaf_vector":"1"}},{"base_weights":[-4.3114528E-2,-1.767608E-2,1.2295145E-2],"categories":[],"categories_nodes":[],"categories_segments":[],"categories_sizes":[],"default_left":[0,0,0],"id":74,"left_children":[1,-1,-1],"loss_changes":[1.7041602E0,0E0,0E0],"parents":[2147483647,0,0],"right_children":[2,-1,-1],"split_conditions":[1E0,-1.767608E-2,1.2295145E-2],"split_indices":[25,0,0],"split_type":[0,0,0],"sum_hessian":[1.690672E1,8.21093E0,8.695789E0],"tree_param":{"num_deleted":"0","num_feature":"38","num_nodes":"3","size_leaf_vector":"1"}},{"base_weights":[1.3930338E-2,-1.9946226E-1,2.550754E-2,4.9399678E-3,-3.0560194E-2],"categories":[],"categories_nodes":[],"categories_segments":[],"categories_sizes":[],"default_left":[0,0,0,0,0],"id":75,"left_children":[1,3,-1,-1,-1],"loss_changes":[2.194846E0,1.8549087E0,0E0,0E0,0E0],"parents":[2147483647,0,0,1,1],"right_children":[2,4,-1,-1,-1],"split_conditions":[2.13E2,4.4606414E-1,2.550754E-2,4.9399678E-3,-3.0560194E-2],"split_indices":[0,5,0,0,0],"split_type":[0,0,0,0,0],"sum_hessian":[1.8473282E1,1.319533E1,5.2779517E0,7.952088E0,5.2432413E0],"tree_param":{"num_deleted":"0","num_feature":"38","num_nodes":"5","size_leaf_vector":"1"}},{"base_weights":[2.0897428E-2,-1.7778572E-1,2.0074269E-2,9.871058E-3,-3.0907882E-2],"categories":[],"categories_nodes":[],"categories_segments":[],"categories_sizes":[],"default_left":[0,0,0,0,0],"id":76,"left_children":[1,3,-1,-1,-1],"loss_changes":[1.4498671E0,2.1970136E0,0E0,0E0,0E0],"parents":[2147483647,0,0,1,1],"right_children":[2,4,-1,-1,-1],"split_conditions":[5.95925E-2,2E-1,2.0074269E-2,9.871058E-3,-3.0907882E-2],"split_indices":[9,6,0,0,0],"split_type":[0,0,0,0,0],"sum_hessian":[1.6934187E1,1.1303429E1,5.630758E0,6.278563E0,5.024865E0],"tree_param":{"num_deleted":"0","num_feature":"38","num_nodes":"5","size_leaf_vector":"1"}},{"base_weights":[-8.584799E-3,-1.9088581E-2,1.3488762E-2],"categories":[],"categories_nodes":[],"categories_segments":[],"categories_sizes":[],"default_left":[0,0,0],"id":77,"left_children":[1,-1,-1],"loss_changes":[1.9259026E0,0E0,0E0],"parents":[2147483647,0,0],"right_children":[2,-1,-1],"split_conditions":[1E0,-1.9088581E-2,1.3488762E-2],"split_indices":[25,0,0],"split_type":[0,0,0],"sum_hessian":[1.6440363E1,7.0185723E0,9.421791E0],"tree_param":{"num_deleted":"0","num_feature":"38","num_nodes":"3","size_leaf_vector":"1"}},{"base_weights":[-0E0,1.7270597E-2,-1.6085237E-1,2.5707064E-3,-2.1193234E-2],"categories":[],"categories_nodes":[],"categories_segments":[],"categories_sizes":[],"default_left":[0,0,0,0,0],"id":78,"left_children":[1,-1,3,-1,-1],"loss_changes":[1.0793822E0,0E0,7.859392E-1,0E0,0E0],"parents":[2147483647,0,0,2,2],"right_children":[2,-1,4,-1,-1],"split_conditions":[1.02E2,1.7270597E-2,1.2904224E0,2.5707064E-3,-2.1193234E-2],"split_indices":[33,0,2,0,0],"split_type":[0,0,0,0,0],"sum_hessian":[1.724356E1,5.2233496E0,1.202021E1,6.886614E0,5.133597E0],"tree_param":{"num_deleted":"0","num_feature":"38","num_nodes":"5","size_leaf_vector":"1"}},{"base_weights":[1.1535632E-1,-1.5273965E-2,3.094543E-1,8.64335E-4,2.5147421E-2],"categories":[],"categories_nodes":[],"categories_segments":[],"categories_sizes":[],"default_left":[0,0,0,0,0],"id":79,"left_children":[1,-1,3,-1,-1],"loss_changes":[1.5962989E0,0E0,6.8767107E-1,0E0,0E0],"parents":[2147483647,0,0,2,2],"right_children":[2,-1,4,-1,-1],"split_conditions":[2.0564398E-1,-1.5273965E-2,1E0,8.64335E-4,2.5147421E-2],"split_indices":[2,0,25,0,0],"split_type":[0,0,0,0,0],"sum_hessian":[1.7380362E1,5.1422005E0,1.223816E1,5.5157585E0,6.7224016E0],"tree_param":{"num_deleted":"0","num_feature":"38","num_nodes":"5","size_leaf_vector":"1"}},{"base_weights":[4.3793492E-2,2.2014256E-1,-1.505199E-2,2.5752459E-2,-4.5123836E-3],"categories":[],"categories_nodes":[],"categories_segments":[],"categories_sizes":[],"default_left":[0,0,0,0,0],"id":80,"left_children":[1,3,-1,-1,-1],"loss_changes":[1.1843824E0,1.2810163E0,0E0,0E0,0E0],"parents":[2147483647,0,0,1,1],"right_children":[2,4,-1,-1,-1],"split_conditions":[4.7140452E-1,1.74E2,-1.505199E-2,2.5752459E-2,-4.5123836E-3],"split_indices":[19,33,0,0,0],"split_type":[0,0,0,0,0],"sum_hessian":[1.7519674E1,1.2022774E1,5.4969006E0,5.9922543E0,6.03052E0],"tree_param":{"num_deleted":"0","num_feature":"38","num_nodes":"5","size_leaf_vector":"1"}},{"base_weights":[-8.825686E-2,-3.1452697E-2,1.7807811E-1,-3.910083E-3,1.9652074E-2],"categories":[],"categories_nodes":[],"categories_segments":[],"categories_sizes":[],"default_left":[0,0,0,0,0],"id":81,"left_children":[1,-1,3,-1,-1],"loss_changes":[2.731862E0,0E0,7.581731E-1,0E0,0E0],"parents":[2147483647,0,0,2,2],"right_children":[2,-1,4,-1,-1],"split_conditions":[2.0564398E-1,-3.1452697E-2,1.57E2,-3.910083E-3,1.9652074E-2],"split_indices":[2,0,33,0,0],"split_type":[0,0,0,0,0],"sum_hessian":[1.6876045E1,5.243209E0,1.1632836E1,5.384472E0,6.2483644E0],"tree_param":{"num_deleted":"0","num_feature":"38","num_nodes":"5","size_leaf_vector":"1"}},{"base_weights":[-1.7682815E-1,-2.6158923E-2,4.5260144E-3],"categories":[],"categories_nodes":[],"categories_segments":[],"categories_sizes":[],"default_left":[0,0,0],"id":82,"left_children":[1,-1,-1],"loss_changes":[1.7102797E0,0E0,0E0],"parents":[2147483647,0,0],"right_children":[2,-1,-1],"split_conditions":[6.1E1,-2.6158923E-2,4.5260144E-3],"split_indices":[0,0,0],"split_type":[0,0,0],"sum_hessian":[1.6491596E1,6.9303913E0,9.561205E0],"tree_param":{"num_deleted":"0","num_feature":"38","num_nodes":"3","size_leaf_vector":"1"}},{"base_weights":[2.0068465E-2,1.475848E-2,-1.0267381E-2],"categories":[],"categories_nodes":[],"categories_segments":[],"categories_sizes":[],"default_left":[0,0,0],"id":83,"left_children":[1,-1,-1],"loss_changes":[1.2064826E0,0E0,0E0],"parents":[2147483647,0,0],"right_children":[2,-1,-1],"split_conditions":[6.666667E-1,1.475848E-2,-1.0267381E-2],"split_indices":[15,0,0],"split_type":[0,0,0],"sum_hessian":[1.733329E1,7.8667603E0,9.46653E0],"tree_param":{"num_deleted":"0","num_feature":"38","num_nodes":"3","size_leaf_vector":"1"}},{"base_weights":[1.6351672E-2,1.379773E-2,-1.1032297E-2],"categories":[],"categories_nodes":[],"categories_segments":[],"categories_sizes":[],"default_left":[0,0,0],"id":84,"left_children":[1,-1,-1],"loss_changes":[1.2026486E0,0E0,0E0],"parents":[2147483647,0,0],"right_children":[2,-1,-1],"split_conditions":[1E0,1.379773E-2,-1.1032297E-2],"split_indices":[35,0,0],"split_type":[0,0,0],"sum_hessian":[1.7467688E1,8.459199E0,9.008488E0],"tree_param":{"num_deleted":"0","num_feature":"38","num_nodes":"3","size_leaf_vector":"1"}},{"base_weights":[-6.780824E-2,-2.2486454E-2,1.1930284E-1,2.3073092E-2,-1.2200352E-2],"categories":[],"categories_nodes":[],"categories_segments":[],"categories_sizes":[],"default_left":[0,0,0,0,0],"id":85,"left_children":[1,-1,3,-1,-1],"loss_changes":[1.3392222E0,0E0,1.6731111E0,0E0,0E0],"parents":[2147483647,0,0,2,2],"right_children":[2,-1,4,-1,-1],"split_conditions":[2.0564398E-1,-2.2486454E-2,1.5476428E0,2.3073092E-2,-1.2200352E-2],"split_indices":[2,0,2,0,0],"split_type":[0,0,0,0,0],"sum_hessian":[1.6527248E1,5.1487684E0,1.1378481E1,5.8624306E0,5.51605E0],"tree_param":{"num_deleted":"0","num_feature":"38","num_nodes":"5","size_leaf_vector":"1"}},{"base_weights":[1.5144289E-1,-3.1712588E-3,2.6177093E-2],"categories":[],"categories_nodes":[],"categories_segments":[],"categories_sizes":[],"default_left":[0,0,0],"id":86,"left_children":[1,-1,-1],"loss_changes":[1.3303777E0,0E0,0E0],"parents":[2147483647,0,0],"right_children":[2,-1,-1],"split_conditions":[1.1601885E-1,-3.1712588E-3,2.6177093E-2],"split_indices":[34,0,0],"split_type":[0,0,0],"sum_hessian":[1.4648858E1,9.641936E0,5.006922E0],"tree_param":{"num_deleted":"0","num_feature":"38","num_nodes":"3","size_leaf_vector":"1"}},{"base_weights":[-5.2916E-2,1.5440091E-2,-2.2267434E-1,9.711412E-3,-2.908513E-2],"categories":[],"categories_nodes":[],"categories_segments":[],"categories_sizes":[],"default_left":[0,0,0,0,0],"id":87,"left_children":[1,-1,3,-1,-1],"loss_changes":[1.1743878E0,0E0,2.115391E0,0E0,0E0],"parents":[2147483647,0,0,2,2],"right_children":[2,-1,4,-1,-1],"split_conditions":[-8.463E-2,1.5440091E-2,1E0,9.711412E-3,-2.908513E-2],"split_indices":[10,0,29,0,0],"split_type":[0,0,0,0,0],"sum_hessian":[1.714584E1,5.026765E0,1.2119074E1,5.6910877E0,6.4279866E0],"tree_param":{"num_deleted":"0","num_feature":"38","num_nodes":"5","size_leaf_vector":"1"}},{"base_weights":[1.5794998E-2,1.7964627E-1,-1.4975265E-2,3.5333324E-2,-1.7209832E-2],"categories":[],"categories_nodes":[],"categories_segments":[],"categories_sizes":[],"default_left":[0,0,0,0,0],"id":88,"left_children":[1,3,-1,-1,-1],"loss_changes":[1.0283043E0,3.9785995E0,0E0,0E0,0E0],"parents":[2147483647,0,0,1,1],"right_children":[2,4,-1,-1,-1],"split_conditions":[4.7140452E-1,1.74E2,-1.4975265E-2,3.5333324E-2,-1.7209832E-2],"split_indices":[19,33,0,0,0],"split_type":[0,0,0,0,0],"sum_hessian":[1.8094856E1,1.2398932E1,5.6959243E0,6.1019073E0,6.297025E0],"tree_param":{"num_deleted":"0","num_feature":"38","num_nodes":"5","size_leaf_vector":"1"}},{"base_weights":[2.049345E-2,-2.4421977E-1,2.1418799E-2,4.521296E-3,-2.7783632E-2],"categories":[],"categories_nodes":[],"categories_segments":[],"categories_sizes":[],"default_left":[0,0,0,0,0],"id":89,"left_children":[1,3,-1,-1,-1],"loss_changes":[2.0027664E0,1.2480409E0,0E0,0E0,0E0],"parents":[2147483647,0,0,1,1],"right_children":[2,4,-1,-1,-1],"split_conditions":[8.797128E-2,-8E0,2.1418799E-2,4.521296E-3,-2.7783632E-2],"split_indices":[34,0,0,0,0],"split_type":[0,0,0,0,0],"sum_hessian":[1.6409466E1,1.0045852E1,6.3636136E0,5.029939E0,5.015912E0],"tree_param":{"num_deleted":"0","num_feature":"38","num_nodes":"5","size_leaf_vector":"1"}},{"base_weights":[-3.451295E-2,1.06779495E-2,-1.3667926E-2],"categories":[],"categories_nodes":[],"categories_segments":[],"categories_sizes":[],"default_left":[0,0,0],"id":90,"left_children":[1,-1,-1],"loss_changes":[1.1704872E0,0E0,0E0],"parents":[2147483647,0,0],"right_children":[2,-1,-1],"split_conditions":[6.666667E-1,1.06779495E-2,-1.3667926E-2],"split_indices":[15,0,0],"split_type":[0,0,0],"sum_hessian":[1.7668566E1,8.513445E0,9.155121E0],"tree_param":{"num_deleted":"0","num_feature":"38","num_nodes":"3","size_leaf_vector":"1"}},{"base_weights":[1.4460778E-1,-6.79478E-3,2.5266865E-2],"categories":[],"categories_nodes":[],"categories_segments":[],"categories_sizes":[],"default_left":[0,0,0],"id":91,"left_children":[1,-1,-1],"loss_changes":[1.7221661E0,0E0,0E0],"parents":[2147483647,0,0],"right_children":[2,-1,-1],"split_conditions":[1.1566457E0,-6.79478E-3,2.5266865E-2],"split_indices":[2,0,0],"split_type":[0,0,0],"sum_hessian":[1.4976037E1,8.619539E0,6.3564973E0],"tree_param":{"num_deleted":"0","num_feature":"38","num_nodes":"3","size_leaf_vector":"1"}},{"base_weights":[-1.9127105E-1,-3.9073926E-1,1.184639E-2,-5.467543E-3,-2.8062826E-2],"categories":[],"categories_nodes":[],"categories_segments":[],"categories_sizes":[],"default_left":[0,0,0,0,0],"id":92,"left_children":[1,3,-1,-1,-1],"loss_changes":[1.5981088E0,4.684081E-1,0E0,0E0,0E0],"parents":[2147483647,0,0,1,1],"right_children":[2,4,-1,-1,-1],"split_conditions":[4.425E-4,1E0,1.184639E-2,-5.467543E-3,-2.8062826E-2],"split_indices":[9,35,0,0,0],"split_type":[0,0,0,0,0],"sum_hessian":[1.644661E1,1.1438993E1,5.007617E0,5.156859E0,6.282134E0],"tree_param":{"num_deleted":"0","num_feature":"38","num_nodes":"5","size_leaf_vector":"1"}},{"base_weights":[2.8193256E-2,-1.65441E-2,2.984411E-1,-2.5558912E-3,3.0716661E-2],"categories":[],"categories_nodes":[],"categories_segments":[],"categories_sizes":[],"default_left":[0,0,0,0,0],"id":93,"left_children":[1,-1,3,-1,-1],"loss_changes":[1.8836029E0,0E0,1.3242815E0,0E0,0E0],"parents":[2147483647,0,0,2,2],"right_children":[2,-1,4,-1,-1],"split_conditions":[9.189189E-2,-1.65441E-2,8.3E1,-2.5558912E-3,3.0716661E-2],"split_indices":[5,0,0,0,0],"split_type":[0,0,0,0,0],"sum_hessian":[1.7426535E1,7.228162E0,1.0198372E1,5.088818E0,5.109554E0],"tree_param":{"num_deleted":"0","num_feature":"38","num_nodes":"5","size_leaf_vector":"1"}},{"base_weights":[-7.434581E-2,-1.9834857E-2,8.034178E-2,1.5798908E-2,-1.0302743E-2],"categories":[],"categories_nodes":[],"categories_segments":[],"categories_sizes":[],"default_left":[0,0,0,0,0],"id":94,"left_children":[1,-1,3,-1,-1],"loss_changes":[9.5601076E-1,0E0,9.343014E-1,0E0,0E0],"parents":[2147483647,0,0,2,2],"right_children":[2,-1,4,-1,-1],"split_conditions":[8E0,-1.9834857E-2,1E0,1.5798908E-2,-1.0302743E-2],"split_indices":[0,0,29,0,0],"split_type":[0,0,0,0,0],"sum_hessian":[1.6898851E1,5.182037E0,1.1716816E1,6.5629473E0,5.153868E0],"tree_param":{"num_deleted":"0","num_feature":"38","num_nodes":"5","size_leaf_vector":"1"}},{"base_weights":[-3.2476035E-3,-1.7637293E-1,1.5451908E-2,9.298489E-3,-2.3159785E-2],"categories":[],"categories_nodes":[],"categories_segments":[],"categories_sizes":[],"default_left":[0,0,0,0,0],"id":95,"left_children":[1,3,-1,-1,-1],"loss_changes":[1.0240287E0,1.4168507E0,0E0,0E0,0E0],"parents":[2147483647,0,0,1,1],"right_children":[2,4,-1,-1,-1],"split_conditions":[1.1601885E-1,-2E-2,1.5451908E-2,9.298489E-3,-2.3159785E-2],"split_indices":[34,1,0,0,0],"split_type":[0,0,0,0,0],"sum_hessian":[1.7178062E1,1.1537391E1,5.6406727E0,5.098914E0,6.438476E0],"tree_param":{"num_deleted":"0","num_feature":"38","num_nodes":"5","size_leaf_vector":"1"}},{"base_weights":[-1.3100948E-2,1.9560171E-2,-2.228749E-1,-2.6904285E-2,5.2892654E-3],"categories":[],"categories_nodes":[],"categories_segments":[],"categories_sizes":[],"default_left":[0,0,0,0,0],"id":96,"left_children":[1,-1,3,-1,-1],"loss_changes":[1.6154885E0,0E0,1.4256397E0,0E0,0E0],"parents":[2147483647,0,0,2,2],"right_children":[2,-1,4,-1,-1],"split_conditions":[2E-2,1.9560171E-2,4.189189E-1,-2.6904285E-2,5.2892654E-3],"split_indices":[1,0,5,0,0],"split_type":[0,0,0,0,0],"sum_hessian":[1.7218206E1,5.4235783E0,1.1794628E1,5.8505497E0,5.9440784E0],"tree_param":{"num_deleted":"0","num_feature":"38","num_nodes":"5","size_leaf_vector":"1"}},{"base_weights":[-5.891593E-2,-2.1545028E-2,2.1415307E-1,-3.735444E-3,2.389156E-2],"categories":[],"categories_nodes":[],"categories_segments":[],"categories_sizes":[],"default_left":[0,0,0,0,0],"id":97,"left_children":[1,-1,3,-1,-1],"loss_changes":[2.002378E0,0E0,9.316571E-1,0E0,0E0],"parents":[2147483647,0,0,2,2],"right_children":[2,-1,4,-1,-1],"split_conditions":[9.189189E-2,-2.1545028E-2,-1.1033063E-1,-3.735444E-3,2.389156E-2],"split_indices":[5,0,9,0,0],"split_type":[0,0,0,0,0],"sum_hessian":[1.7590977E1,7.357092E0,1.0233884E1,5.0447392E0,5.1891446E0],"tree_param":{"num_deleted":"0","num_feature":"38","num_nodes":"5","size_leaf_vector":"1"}},{"base_weights":[1.1143968E-2,-1.0120946E-2,1.6639702E-1,1.3824195E-2,1.6368706E-4],"categories":[],"categories_nodes":[],"categories_segments":[],"categories_sizes":[],"default_left":[0,0,0,0,0],"id":98,"left_children":[1,-1,3,-1,-1],"loss_changes":[6.489167E-1,0E0,1.799227E-1,0E0,0E0],"parents":[2147483647,0,0,2,2],"right_children":[2,-1,4,-1,-1],"split_conditions":[3.505747E-2,-1.0120946E-2,5E-1,1.3824195E-2,1.6368706E-4],"split_indices":[34,0,15,0,0],"split_type":[0,0,0,0,0],"sum_hessian":[1.7664244E1,7.0367393E0,1.0627503E1,5.564334E0,5.0631695E0],"tree_param":{"num_deleted":"0","num_feature":"38","num_nodes":"5","size_leaf_vector":"1"}},{"base_weights":[8.25252E-2,2.572687E-1,-1.0891332E-2,2.5262637E-2,-1.9777627E-3],"categories":[],"categories_nodes":[],"categories_segments":[],"categories_sizes":[],"default_left":[0,0,0,0,0],"id":99,"left_children":[1,3,-1,-1,-1],"loss_changes":[1.0181228E0,9.6530825E-1,0E0,0E0,0E0],"parents":[2147483647,0,0,1,1],"right_children":[2,4,-1,-1,-1],"split_conditions":[2.25E2,3.5E-1,-1.0891332E-2,2.5262637E-2,-1.9777627E-3],"split_indices":[33,5,0,0,0],"split_type":[0,0,0,0,0],"sum_hessian":[1.725564E1,1.1210059E1,6.045582E0,5.9084764E0,5.3015823E0],"tree_param":{"num_deleted":"0","num_feature":"38","num_nodes":"5","size_leaf_vector":"1"}},{"base_weights":[-3.4942983E-3,1.2391903E-1,-1.4207776E-2,2.3688357E-2,-1.0952059E-2],"categories":[],"categories_nodes":[],"categories_segments":[],"categories_sizes":[],"default_left":[0,0,0,0,0],"id":100,"left_children":[1,3,-1,-1,-1],"loss_changes":[7.359035E-1,1.7633626E0,0E0,0E0,0E0],"parents":[2147483647,0,0,1,1],"right_children":[2,4,-1,-1,-1],"split_conditions":[4.7140452E-1,1.67E2,-1.4207776E-2,2.3688357E-2,-1.0952059E-2],"split_indices":[19,33,0,0,0],"split_type":[0,0,0,0,0],"sum_hessian":[1.8146194E1,1.2619447E1,5.526747E0,6.2025256E0,6.416921E0],"tree_param":{"num_deleted":"0","num_feature":"38","num_nodes":"5","size_leaf_vector":"1"}},{"base_weights":[8.695986E-3,1.2185306E-2,-1.1112437E-2],"categories":[],"categories_nodes":[],"categories_segments":[],"categories_sizes":[],"default_left":[0,0,0],"id":101,"left_children":[1,-1,-1],"loss_changes":[9.693994E-1,0E0,0E0],"parents":[2147483647,0,0],"right_children":[2,-1,-1],"split_conditions":[2.2972973E-1,1.2185306E-2,-1.1112437E-2],"split_indices":[6,0,0],"split_type":[0,0,0],"sum_hessian":[1.5823606E1,8.029999E0,7.7936068E0],"tree_param":{"num_deleted":"0","num_feature":"38","num_nodes":"3","size_leaf_vector":"1"}},{"base_weights":[2.5170464E-2,2.311757E-1,-1.9574111E-2,2.3255778E-2,-2.412054E-3],"categories":[],"categories_nodes":[],"categories_segments":[],"categories_sizes":[],"default_left":[0,0,0,0,0],"id":102,"left_children":[1,3,-1,-1,-1],"loss_changes":[1.6378441E0,9.124153E-1,0E0,0E0,0E0],"parents":[2147483647,0,0,1,1],"right_children":[2,4,-1,-1,-1],"split_conditions":[1.5E0,1.74E2,-1.9574111E-2,2.3255778E-2,-2.412054E-3],"split_indices":[26,33,0,0,0],"split_type":[0,0,0,0,0],"sum_hessian":[1.7214207E1,1.1977399E1,5.236808E0,6.3522844E0,5.6251144E0],"tree_param":{"num_deleted":"0","num_feature":"38","num_nodes":"5","size_leaf_vector":"1"}},{"base_weights":[-6.839622E-2,-2.226097E-2,1.0223961E-2],"categories":[],"categories_nodes":[],"categories_segments":[],"categories_sizes":[],"default_left":[0,0,0],"id":103,"left_children":[1,-1,-1],"loss_changes":[1.9512942E0,0E0,0E0],"parents":[2147483647,0,0],"right_children":[2,-1,-1],"split_conditions":[5.7E1,-2.226097E-2,1.0223961E-2],"split_indices":[0,0,0],"split_type":[0,0,0],"sum_hessian":[1.6857214E1,6.9687324E0,9.888482E0],"tree_param":{"num_deleted":"0","num_feature":"38","num_nodes":"3","size_leaf_vector":"1"}},{"base_weights":[1.01717755E-1,2.2545742E-2,-1.5752485E-2],"categories":[],"categories_nodes":[],"categories_segments":[],"categories_sizes":[],"default_left":[0,0,0],"id":104,"left_children":[1,-1,-1],"loss_changes":[2.500465E0,0E0,0E0],"parents":[2147483647,0,0],"right_children":[2,-1,-1],"split_conditions":[1E0,2.2545742E-2,-1.5752485E-2],"split_indices":[29,0,0],"split_type":[0,0,0],"sum_hessian":[1.5111826E1,8.308439E0,6.8033867E0],"tree_param":{"num_deleted":"0","num_feature":"38","num_nodes":"3","size_leaf_vector":"1"}},{"base_weights":[-1.8713276E-1,-2.1831771E-2,-4.301858E-2,6.9691017E-3,-1.276383E-2],"categories":[],"categories_nodes":[],"categories_segments":[],"categories_sizes":[],"default_left":[0,0,0,0,0],"id":105,"left_children":[1,-1,3,-1,-1],"loss_changes":[5.815057E-1,0E0,5.423949E-1,0E0,0E0],"parents":[2147483647,0,0,2,2],"right_children":[2,-1,4,-1,-1],"split_conditions":[8.963586E-3,-2.1831771E-2,6.666667E-1,6.9691017E-3,-1.276383E-2],"split_indices":[34,0,15,0,0],"split_type":[0,0,0,0,0],"sum_hessian":[1.7028667E1,5.2374563E0,1.1791211E1,6.272902E0,5.5183086E0],"tree_param":{"num_deleted":"0","num_feature":"38","num_nodes":"5","size_leaf_vector":"1"}},{"base_weights":[1.1620883E-1,-5.5976603E-2,2.3061184E-2,1.197842E-2,-1.6522994E-2],"categories":[],"categories_nodes":[],"categories_segments":[],"categories_sizes":[],"default_left":[0,0,0,0,0],"id":106,"left_children":[1,3,-1,-1,-1],"loss_changes":[1.1334529E0,1.1169759E0,0E0,0E0,0E0],"parents":[2147483647,0,0,1,1],"right_children":[2,4,-1,-1,-1],"split_conditions":[5.95925E-2,1E0,2.3061184E-2,1.197842E-2,-1.6522994E-2],"split_indices":[9,35,0,0,0],"split_type":[0,0,0,0,0],"sum_hessian":[1.696285E1,1.168111E1,5.2817407E0,5.5105762E0,6.170534E0],"tree_param":{"num_deleted":"0","num_feature":"38","num_nodes":"5","size_leaf_vector":"1"}},{"base_weights":[-7.779992E-4,-1.3188006E-2,1.6997745E-2],"categories":[],"categories_nodes":[],"categories_segments":[],"categories_sizes":[],"default_left":[0,0,0],"id":107,"left_children":[1,-1,-1],"loss_changes":[1.675517E0,0E0,0E0],"parents":[2147483647,0,0],"right_children":[2,-1,-1],"split_conditions":[6.4116985E-2,-1.3188006E-2,1.6997745E-2],"split_indices":[34,0,0],"split_type":[0,0,0],"sum_hessian":[1.678294E1,9.765325E0,7.0176163E0],"tree_param":{"num_deleted":"0","num_feature":"38","num_nodes":"3","size_leaf_vector":"1"}},{"base_weights":[-8.427851E-2,-1.590772E-2,1.0894647E-2],"categories":[],"categories_nodes":[],"categories_segments":[],"categories_sizes":[],"default_left":[0,0,0],"id":108,"left_children":[1,-1,-1],"loss_changes":[1.3318267E0,0E0,0E0],"parents":[2147483647,0,0],"right_children":[2,-1,-1],"split_conditions":[8.797128E-2,-1.590772E-2,1.0894647E-2],"split_indices":[34,0,0],"split_type":[0,0,0],"sum_hessian":[1.6722742E1,9.583392E0,7.139349E0],"tree_param":{"num_deleted":"0","num_feature":"38","num_nodes":"3","size_leaf_vector":"1"}},{"base_weights":[2.4021698E-2,-1.3407965E-1,1.5469578E-2,7.472982E-3,-1.8660095E-2],"categories":[],"categories_nodes":[],"categories_segments":[],"categories_sizes":[],"default_left":[0,0,0,0,0],"id":109,"left_children":[1,3,-1,-1,-1],"loss_changes":[8.673158E-1,8.9180386E-1,0E0,0E0,0E0],"parents":[2147483647,0,0,1,1],"right_children":[2,4,-1,-1,-1],"split_conditions":[4.425E-4,5.1509535E-1,1.5469578E-2,7.472982E-3,-1.8660095E-2],"split_indices":[8,2,0,0,0],"split_type":[0,0,0,0,0],"sum_hessian":[1.6915533E1,1.1000655E1,5.9148784E0,5.013118E0,5.987537E0],"tree_param":{"num_deleted":"0","num_feature":"38","num_nodes":"5","size_leaf_vector":"1"}},{"base_weights":[9.138107E-2,1.4815628E-2,-9.72212E-3],"categories":[],"categories_nodes":[],"categories_segments":[],"categories_sizes":[],"default_left":[0,0,0],"id":110,"left_children":[1,-1,-1],"loss_changes":[1.0291005E0,0E0,0E0],"parents":[2147483647,0,0],"right_children":[2,-1,-1],"split_conditions":[2.01E2,1.4815628E-2,-9.72212E-3],"split_indices":[33,0,0],"split_type":[0,0,0],"sum_hessian":[1.5411619E1,9.158366E0,6.253253E0],"tree_param":{"num_deleted":"0","num_feature":"38","num_nodes":"3","size_leaf_vector":"1"}},{"base_weights":[-2.1045953E-2,1.21246345E-1,-1.3426937E-2,1.5623833E-2,-3.9379434E-3],"categories":[],"categories_nodes":[],"categories_segments":[],"categories_sizes":[],"default_left":[0,0,0,0,0],"id":111,"left_children":[1,3,-1,-1,-1],"loss_changes":[6.8078065E-1,5.0136995E-1,0E0,0E0,0E0],"parents":[2147483647,0,0,1,1],"right_children":[2,4,-1,-1,-1],"split_conditions":[2.25E2,3.5E-1,-1.3426937E-2,1.5623833E-2,-3.9379434E-3],"split_indices":[33,5,0,0,0],"split_type":[0,0,0,0,0],"sum_hessian":[1.6988592E1,1.0854188E1,6.134404E0,5.5169396E0,5.337249E0],"tree_param":{"num_deleted":"0","num_feature":"38","num_nodes":"5","size_leaf_vector":"1"}},{"base_weights":[2.3330634E-2,-8.784106E-2,1.2809423E-2,8.561243E-3,-2.1207469E-2],"categories":[],"categories_nodes":[],"categories_segments":[],"categories_sizes":[],"default_left":[0,0,0,0,0],"id":112,"left_children":[1,3,-1,-1,-1],"loss_changes":[5.3769296E-1,1.2727348E0,0E0,0E0,0E0],"parents":[2147483647,0,0,1,1],"right_children":[2,4,-1,-1,-1],"split_conditions":[4.8E-1,3.5E-1,1.2809423E-2,8.561243E-3,-2.1207469E-2],"split_indices":[1,5,0,0,0],"split_type":[0,0,0,0,0],"sum_hessian":[1.8250998E1,1.2484116E1,5.7668815E0,7.1612024E0,5.322913E0],"tree_param":{"num_deleted":"0","num_feature":"38","num_nodes":"5","size_leaf_vector":"1"}},{"base_weights":[-2.2572082E-2,1.9549315E-1,-2.056892E-2,2.7905757E-2,-9.252991E-3],"categories":[],"categories_nodes":[],"categories_segments":[],"categories_sizes":[],"default_left":[0,0,0,0,0],"id":113,"left_children":[1,3,-1,-1,-1],"loss_changes":[1.5573789E0,1.7290008E0,0E0,0E0,0E0],"parents":[2147483647,0,0,1,1],"right_children":[2,4,-1,-1,-1],"split_conditions":[4.5945945E-1,1.52E2,-2.056892E-2,2.7905757E-2,-9.252991E-3],"split_indices":[6,33,0,0,0],"split_type":[0,0,0,0,0],"sum_hessian":[1.6165375E1,1.0510483E1,5.6548924E0,5.277672E0,5.2328115E0],"tree_param":{"num_deleted":"0","num_feature":"38","num_nodes":"5","size_leaf_vector":"1"}},{"base_weights":[1.0580675E-1,-5.479288E-2,2.2152396E-2,1.040702E-2,-1.5064167E-2],"categories":[],"categories_nodes":[],"categories_segments":[],"categories_sizes":[],"default_left":[0,0,0,0,0],"id":114,"left_children":[1,3,-1,-1,-1],"loss_changes":[1.0246491E0,8.9612037E-1,0E0,0E0,0E0],"parents":[2147483647,0,0,1,1],"right_children":[2,4,-1,-1,-1],"split_conditions":[4.425E-4,1E0,2.2152396E-2,1.040702E-2,-1.5064167E-2],"split_indices":[9,35,0,0,0],"split_type":[0,0,0,0,0],"sum_hessian":[1.6753572E1,1.1715477E1,5.038095E0,5.547647E0,6.1678295E0],"tree_param":{"num_deleted":"0","num_feature":"38","num_nodes":"5","size_leaf_vector":"1"}},{"base_weights":[1.6871208E-3,-2.0514308E-1,2.231514E-2,-1.1659133E-3,-1.860199E-2],"categories":[],"categories_nodes":[],"categories_segments":[],"categories_sizes":[],"default_left":[0,0,0,0,0],"id":115,"left_children":[1,3,-1,-1,-1],"loss_changes":[1.7469285E0,3.3531344E-1,0E0,0E0,0E0],"parents":[2147483647,0,0,1,1],"right_children":[2,4,-1,-1,-1],"split_conditions":[7.276937E-2,1E0,2.231514E-2,-1.1659133E-3,-1.860199E-2],"split_indices":[9,35,0,0,0],"split_type":[0,0,0,0,0],"sum_hessian":[1.6738771E1,1.1638408E1,5.1003637E0,6.40232E0,5.236088E0],"tree_param":{"num_deleted":"0","num_feature":"38","num_nodes":"5","size_leaf_vector":"1"}},{"base_weights":[2.8546256E-1,-1.7735934E-3,2.5595555E-2],"categories":[],"categories_nodes":[],"categories_segments":[],"categories_sizes":[],"default_left":[0,0,0],"id":116,"left_children":[1,-1,-1],"loss_changes":[1.2700151E0,0E0,0E0],"parents":[2147483647,0,0],"right_children":[2,-1,-1],"split_conditions":[6.1E1,-1.7735934E-3,2.5595555E-2],"split_indices":[0,0,0],"split_type":[0,0,0],"sum_hessian":[1.5569798E1,6.607321E0,8.962478E0],"tree_param":{"num_deleted":"0","num_feature":"38","num_nodes":"3","size_leaf_vector":"1"}},{"base_weights":[-1.0085457E-1,-2.7718168E-1,1.2757125E-2,-6.3869203E-3,-1.9684182E-2],"categories":[],"categories_nodes":[],"categories_segments":[],"categories_sizes":[],"default_left":[0,0,0,0,0],"id":117,"left_children":[1,3,-1,-1,-1],"loss_changes":[1.2035522E0,1.1890185E-1,0E0,0E0,0E0],"parents":[2147483647,0,0,1,1],"right_children":[2,4,-1,-1,-1],"split_conditions":[1.1601885E-1,3.5E-1,1.2757125E-2,-6.3869203E-3,-1.9684182E-2],"split_indices":[34,5,0,0,0],"split_type":[0,0,0,0,0],"sum_hessian":[1.701167E1,1.1712637E1,5.2990327E0,6.4253283E0,5.2873087E0],"tree_param":{"num_deleted":"0","num_feature":"38","num_nodes":"5","size_leaf_vector":"1"}},{"base_weights":[4.770619E-2,2.2470769E-2,-1.3947286E-1,1.0588726E-2,-2.4592703E-2],"categories":[],"categories_nodes":[],"categories_segments":[],"categories_sizes":[],"default_left":[0,0,0,0,0],"id":118,"left_children":[1,-1,3,-1,-1],"loss_changes":[1.4575496E0,0E0,1.7370858E0,0E0,0E0],"parents":[2147483647,0,0,2,2],"right_children":[2,-1,4,-1,-1],"split_conditions":[0E0,2.2470769E-2,1E0,1.0588726E-2,-2.4592703E-2],"split_indices":[8,0,35,0,0],"split_type":[0,0,0,0,0],"sum_hessian":[1.7138664E1,5.1720552E0,1.1966609E1,6.0506563E0,5.915952E0],"tree_param":{"num_deleted":"0","num_feature":"38","num_nodes":"5","size_leaf_vector":"1"}},{"base_weights":[1.0392486E-1,1.4101989E-2,-8.763662E-3],"categories":[],"categories_nodes":[],"categories_segments":[],"categories_sizes":[],"default_left":[0,0,0],"id":119,"left_children":[1,-1,-1],"loss_changes":[9.0954167E-1,0E0,0E0],"parents":[2147483647,0,0],"right_children":[2,-1,-1],"split_conditions":[2E0,1.4101989E-2,-8.763662E-3],"split_indices":[25,0,0],"split_type":[0,0,0],"sum_hessian":[1.6081083E1,1.0030254E1,6.050828E0],"tree_param":{"num_deleted":"0","num_feature":"38","num_nodes":"3","size_leaf_vector":"1"}},{"base_weights":[-7.126892E-2,1.1656079E-1,-1.7642487E-2,1.3446042E-2,-1.9349781E-3],"categories":[],"categories_nodes":[],"categories_segments":[],"categories_sizes":[],"default_left":[0,0,0,0,0],"id":120,"left_children":[1,3,-1,-1,-1],"loss_changes":[9.896618E-1,2.9431972E-1,0E0,0E0,0E0],"parents":[2147483647,0,0,1,1],"right_children":[2,4,-1,-1,-1],"split_conditions":[1E0,1.47E2,-1.7642487E-2,1.3446042E-2,-1.9349781E-3],"split_indices":[29,33,0,0,0],"split_type":[0,0,0,0,0],"sum_hessian":[1.6487574E1,1.0028757E1,6.458816E0,5.017248E0,5.011509E0],"tree_param":{"num_deleted":"0","num_feature":"38","num_nodes":"5","size_leaf_vector":"1"}},{"base_weights":[3.5444595E-2,-1.4727935E-1,2.0185249E-2,6.485226E-3,-2.168351E-2],"categories":[],"categories_nodes":[],"categories_segments":[],"categories_sizes":[],"default_left":[0,0,0,0,0],"id":121,"left_children":[1,3,-1,-1,-1],"loss_changes":[1.2637051E0,1.0590099E0,0E0,0E0,0E0],"parents":[2147483647,0,0,1,1],"right_children":[2,4,-1,-1,-1],"split_conditions":[1.1601885E-1,3.5E-1,2.0185249E-2,6.485226E-3,-2.168351E-2],"split_indices":[34,5,0,0,0],"split_type":[0,0,0,0,0],"sum_hessian":[1.6515312E1,1.1257882E1,5.257431E0,5.8235497E0,5.4343324E0],"tree_param":{"num_deleted":"0","num_feature":"38","num_nodes":"5","size_leaf_vector":"1"}},{"base_weights":[-6.26377E-2,-1.5896918E-2,5.8478923E-3],"categories":[],"categories_nodes":[],"categories_segments":[],"categories_sizes":[],"default_left":[0,0,0],"id":122,"left_children":[1,-1,-1],"loss_changes":[8.6788625E-1,0E0,0E0],"parents":[2147483647,0,0],"right_children":[2,-1,-1],"split_conditions":[6.1E1,-1.5896918E-2,5.8478923E-3],"split_indices":[0,0,0],"split_type":[0,0,0],"sum_hessian":[1.6679117E1,6.7996736E0,9.879444E0],"tree_param":{"num_deleted":"0","num_feature":"38","num_nodes":"3","size_leaf_vector":"1"}},{"base_weights":[-1.1897139E-1,4.987726E-3,-2.1075131E-2],"categories":[],"categories_nodes":[],"categories_segments":[],"categories_sizes":[],"default_left":[0,0,0],"id":123,"left_children":[1,-1,-1],"loss_changes":[1.2345178E0,0E0,0E0],"parents":[2147483647,0,0],"right_children":[2,-1,-1],"split_conditions":[1E0,4.987726E-3,-2.1075131E-2],"split_indices":[29,0,0],"split_type":[0,0,0],"sum_hessian":[1.6534702E1,9.793709E0,6.7409935E0],"tree_param":{"num_deleted":"0","num_feature":"38","num_nodes":"3","size_leaf_vector":"1"}},{"base_weights":[1.13053575E-1,3.6596718E-1,-1.6191866E-2,2.8975949E-2,4.0954533E-3],"categories":[],"categories_nodes":[],"categories_segments":[],"categories_sizes":[],"default_left":[0,0,0,0,0],"id":124,"left_children":[1,3,-1,-1,-1],"loss_changes":[1.96965E0,5.658481E-1,0E0,0E0,0E0],"parents":[2147483647,0,0,1,1],"right_children":[2,4,-1,-1,-1],"split_conditions":[2.25E2,4.189189E-1,-1.6191866E-2,2.8975949E-2,4.0954533E-3],"split_indices":[33,5,0,0,0],"split_type":[0,0,0,0,0],"sum_hessian":[1.5714897E1,1.0200889E1,5.514008E0,5.0284047E0,5.172484E0],"tree_param":{"num_deleted":"0","num_feature":"38","num_nodes":"5","size_leaf_vector":"1"}},{"base_weights":[-2.5543708E-2,-1.5977887E-2,1.2434636E-2],"categories":[],"categories_nodes":[],"categories_segments":[],"categories_sizes":[],"default_left":[0,0,0],"id":125,"left_children":[1,-1,-1],"loss_changes":[1.5926905E0,0E0,0E0],"parents":[2147483647,0,0],"right_children":[2,-1,-1],"split_conditions":[1E0,-1.5977887E-2,1.2434636E-2],"split_indices":[25,0,0],"split_type":[0,0,0],"sum_hessian":[1.76797E1,8.6284075E0,9.051293E0],"tree_param":{"num_deleted":"0","num_feature":"38","num_nodes":"3","size_leaf_vector":"1"}},{"base_weights":[-3.4760395E-3,1.47313E-2,-1.4647642E-1,-1.5750682E-2,2.5715907E-3],"categories":[],"categories_nodes":[],"categories_segments":[],"categories_sizes":[],"default_left":[0,0,0,0,0],"id":126,"left_children":[1,-1,3,-1,-1],"loss_changes":[8.1232774E-1,0E0,4.869646E-1,0E0,0E0],"parents":[2147483647,0,0,2,2],"right_children":[2,-1,4,-1,-1],"split_conditions":[-4.589E-2,1.47313E-2,4.425E-4,-1.5750682E-2,2.5715907E-3],"split_indices":[8,0,8,0,0],"split_type":[0,0,0,0,0],"sum_hessian":[1.7391054E1,5.067534E0,1.2323519E1,6.608952E0,5.7145667E0],"tree_param":{"num_deleted":"0","num_feature":"38","num_nodes":"5","size_leaf_vector":"1"}},{"base_weights":[-7.03257E-2,-2.6025993E-1,1.5105705E-2,-2.2438182E-2,-0E0],"categories":[],"categories_nodes":[],"categories_segments":[],"categories_sizes":[],"default_left":[0,0,0,0,0],"id":127,"left_children":[1,3,-1,-1,-1],"loss_changes":[1.3334364E0,6.051071E-1,0E0,0E0,0E0],"parents":[2147483647,0,0,1,1],"right_children":[2,4,-1,-1,-1],"split_conditions":[5.95925E-2,1.47E2,1.5105705E-2,-2.2438182E-2,-0E0],"split_indices":[9,0,0,0,0],"split_type":[0,0,0,0,0],"sum_hessian":[1.6797714E1,1.1501806E1,5.2959075E0,6.2095356E0,5.2922707E0],"tree_param":{"num_deleted":"0","num_feature":"38","num_nodes":"5","size_leaf_vector":"1"}},{"base_weights":[-0E0,-1.4606923E-2,1.2447703E-2],"categories":[],"categories_nodes":[],"categories_segments":[],"categories_sizes":[],"default_left":[0,0,0],"id":128,"left_children":[1,-1,-1],"loss_changes":[1.2696507E0,0E0,0E0],"parents":[2147483647,0,0],"right_children":[2,-1,-1],"split_conditions":[9.189189E-2,-1.4606923E-2,1.2447703E-2],"split_indices":[5,0,0],"split_type":[0,0,0],"sum_hessian":[1.5467566E1,7.0046926E0,8.462873E0],"tree_param":{"num_deleted":"0","num_feature":"38","num_nodes":"3","size_leaf_vector":"1"}},{"base_weights":[-0E0,-1.4028713E-2,1.2024446E-2],"categories":[],"categories_nodes":[],"categories_segments":[],"categories_sizes":[],"default_left":[0,0,0],"id":129,"left_children":[1,-1,-1],"loss_changes":[1.2514348E0,0E0,0E0],"parents":[2147483647,0,0],"right_children":[2,-1,-1],"split_conditions":[5E-1,-1.4028713E-2,1.2024446E-2],"split_indices":[14,0,0],"split_type":[0,0,0],"sum_hessian":[1.658961E1,7.44095E0,9.148659E0],"tree_param":{"num_deleted":"0","num_feature":"38","num_nodes":"3","size_leaf_vector":"1"}},{"base_weights":[7.8779355E-2,-8.9435E-3,2.022256E-1,-3.1487942E-3,1.9746168E-2],"categories":[],"categories_nodes":[],"categories_segments":[],"categories_sizes":[],"default_left":[0,0,0,0,0],"id":130,"left_children":[1,-1,3,-1,-1],"loss_changes":[6.348751E-1,0E0,7.432817E-1,0E0,0E0],"parents":[2147483647,0,0,2,2],"right_children":[2,-1,4,-1,-1],"split_conditions":[1.9314865E-2,-8.9435E-3,9.189189E-2,-3.1487942E-3,1.9746168E-2],"split_indices":[2,0,5,0,0],"split_type":[0,0,0,0,0],"sum_hessian":[1.7750248E1,5.3419085E0,1.24083395E1,5.2867117E0,7.1216283E0],"tree_param":{"num_deleted":"0","num_feature":"38","num_nodes":"5","size_leaf_vector":"1"}},{"base_weights":[-1.0375583E-2,1.6613585E-1,-1.7324887E-2,1.9680304E-2,-6.73678E-3],"categories":[],"categories_nodes":[],"categories_segments":[],"categories_sizes":[],"default_left":[0,0,0,0,0],"id":131,"left_children":[1,3,-1,-1,-1],"loss_changes":[1.1763731E0,9.4440216E-1,0E0,0E0,0E0],"parents":[2147483647,0,0,1,1],"right_children":[2,4,-1,-1,-1],"split_conditions":[2.25E2,3.5E-1,-1.7324887E-2,1.9680304E-2,-6.73678E-3],"split_indices":[33,5,0,0,0],"split_type":[0,0,0,0,0],"sum_hessian":[1.7553555E1,1.1645988E1,5.9075656E0,6.64572E0,5.000268E0],"tree_param":{"num_deleted":"0","num_feature":"38","num_nodes":"5","size_leaf_vector":"1"}},{"base_weights":[-8.744667E-2,1.0925311E-2,-2.4431218E-1,3.0521434E-3,-2.8549124E-2],"categories":[],"categories_nodes":[],"categories_segments":[],"categories_sizes":[],"default_left":[0,0,0,0,0],"id":132,"left_children":[1,-1,3,-1,-1],"loss_changes":[9.3717945E-1,0E0,1.3652568E0,0E0,0E0],"parents":[2147483647,0,0,2,2],"right_children":[2,-1,4,-1,-1],"split_conditions":[-2E-2,1.0925311E-2,6.666667E-1,3.0521434E-3,-2.8549124E-2],"split_indices":[1,0,15,0,0],"split_type":[0,0,0,0,0],"sum_hessian":[1.736115E1,5.535055E0,1.1826097E1,6.3745255E0,5.451571E0],"tree_param":{"num_deleted":"0","num_feature":"38","num_nodes":"5","size_leaf_vector":"1"}},{"base_weights":[-1.3347352E-2,1.590586E-1,-1.2933135E-2,-2.0315952E-3,1.7602494E-2],"categories":[],"categories_nodes":[],"categories_segments":[],"categories_sizes":[],"default_left":[0,0,0,0,0],"id":133,"left_children":[1,3,-1,-1,-1],"loss_changes":[8.275428E-1,4.7557753E-1,0E0,0E0,0E0],"parents":[2147483647,0,0,1,1],"right_children":[2,4,-1,-1,-1],"split_conditions":[1E0,3.0256537E-1,-1.2933135E-2,-2.0315952E-3,1.7602494E-2],"split_indices":[29,2,0,0,0],"split_type":[0,0,0,0,0],"sum_hessian":[1.735823E1,1.0161074E1,7.197156E0,5.1271996E0,5.033874E0],"tree_param":{"num_deleted":"0","num_feature":"38","num_nodes":"5","size_leaf_vector":"1"}},{"base_weights":[-5.799759E-2,-1.5323238E-2,8.782964E-3],"categories":[],"categories_nodes":[],"categories_segments":[],"categories_sizes":[],"default_left":[0,0,0],"id":134,"left_children":[1,-1,-1],"loss_changes":[1.1140779E0,0E0,0E0],"parents":[2147483647,0,0],"right_children":[2,-1,-1],"split_conditions":[1E0,-1.5323238E-2,8.782964E-3],"split_indices":[25,0,0],"split_type":[0,0,0],"sum_hessian":[1.7037119E1,8.31328E0,8.723839E0],"tree_param":{"num_deleted":"0","num_feature":"38","num_nodes":"3","size_leaf_vector":"1"}},{"base_weights":[2.7164109E-2,-1.7993486E-1,2.0021612E-2,2.550766E-4,-1.7425885E-2],"categories":[],"categories_nodes":[],"categories_segments":[],"categories_sizes":[],"default_left":[0,0,0,0,0],"id":135,"left_children":[1,3,-1,-1,-1],"loss_changes":[1.3996162E0,3.910895E-1,0E0,0E0,0E0],"parents":[2147483647,0,0,1,1],"right_children":[2,4,-1,-1,-1],"split_conditions":[1.84E2,3.5E-1,2.0021612E-2,2.550766E-4,-1.7425885E-2],"split_indices":[0,5,0,0,0],"split_type":[0,0,0,0,0],"sum_hessian":[1.5888186E1,1.0379442E1,5.508744E0,5.1277676E0,5.2516747E0],"tree_param":{"num_deleted":"0","num_feature":"38","num_nodes":"5","size_leaf_vector":"1"}},{"base_weights":[-0E0,1.0229281E-2,-1.3564825E-1,-1.617351E-2,2.9861224E-3],"categories":[],"categories_nodes":[],"categories_segments":[],"categories_sizes":[],"default_left":[0,0,0,0,0],"id":136,"left_children":[1,-1,3,-1,-1],"loss_changes":[5.2214515E-1,0E0,4.6119437E-1,0E0,0E0],"parents":[2147483647,0,0,2,2],"right_children":[2,-1,4,-1,-1],"split_conditions":[1.13E2,1.0229281E-2,2.24E2,-1.617351E-2,2.9861224E-3],"split_indices":[33,0,0,0,0],"split_type":[0,0,0,0,0],"sum_hessian":[1.682026E1,6.4971294E0,1.0323129E1,5.189915E0,5.133214E0],"tree_param":{"num_deleted":"0","num_feature":"38","num_nodes":"5","size_leaf_vector":"1"}},{"base_weights":[-0E0,-1.1181971E-2,8.759781E-3],"categories":[],"categories_nodes":[],"categories_segments":[],"categories_sizes":[],"default_left":[0,0,0],"id":137,"left_children":[1,-1,-1],"loss_changes":[7.173864E-1,0E0,0E0],"parents":[2147483647,0,0],"right_children":[2,-1,-1],"split_conditions":[5.7E1,-1.1181971E-2,8.759781E-3],"split_indices":[0,0,0],"split_type":[0,0,0],"sum_hessian":[1.6342592E1,6.990651E0,9.351941E0],"tree_param":{"num_deleted":"0","num_feature":"38","num_nodes":"3","size_leaf_vector":"1"}},{"base_weights":[3.138205E-2,-1.2307785E-2,1.2671898E-2],"categories":[],"categories_nodes":[],"categories_segments":[],"categories_sizes":[],"default_left":[0,0,0],"id":138,"left_children":[1,-1,-1],"loss_changes":[1.1076028E0,0E0,0E0],"parents":[2147483647,0,0],"right_children":[2,-1,-1],"split_conditions":[9.189189E-2,-1.2307785E-2,1.2671898E-2],"split_indices":[5,0,0],"split_type":[0,0,0],"sum_hessian":[1.5948046E1,6.840075E0,9.107971E0],"tree_param":{"num_deleted":"0","num_feature":"38","num_nodes":"3","size_leaf_vector":"1"}},{"base_weights":[1.401748E-1,-1.2531656E-2,2.0909885E-2],"categories":[],"categories_nodes":[],"categories_segments":[],"categories_sizes":[],"default_left":[0,0,0],"id":139,"left_children":[1,-1,-1],"loss_changes":[2.031216E0,0E0,0E0],"parents":[2147483647,0,0],"right_children":[2,-1,-1],"split_conditions":[6.1E1,-1.2531656E-2,2.0909885E-2],"split_indices":[0,0,0],"split_type":[0,0,0],"sum_hessian":[1.6575544E1,6.781641E0,9.793903E0],"tree_param":{"num_deleted":"0","num_feature":"38","num_nodes":"3","size_leaf_vector":"1"}},{"base_weights":[-1.0726658E-1,-1.7821101E-2,5.095801E-2,2.3824608E-2,-1.9651854E-2],"categories":[],"categories_nodes":[],"categories_segments":[],"categories_sizes":[],"default_left":[0,0,0,0,0],"id":140,"left_children":[1,-1,3,-1,-1],"loss_changes":[7.5889575E-1,0E0,2.396216E0,0E0,0E0],"parents":[2147483647,0,0,2,2],"right_children":[2,-1,4,-1,-1],"split_conditions":[6.1E1,-1.7821101E-2,1.5476428E0,2.3824608E-2,-1.9651854E-2],"split_indices":[0,0,2,0,0],"split_type":[0,0,0,0,0],"sum_hessian":[1.7014746E1,6.367405E0,1.0647341E1,5.514329E0,5.1330123E0],"tree_param":{"num_deleted":"0","num_feature":"38","num_nodes":"5","size_leaf_vector":"1"}},{"base_weights":[1.2106851E-2,-9.554164E-3,1.2372124E-2],"categories":[],"categories_nodes":[],"categories_segments":[],"categories_sizes":[],"default_left":[0,0,0],"id":141,"left_children":[1,-1,-1],"loss_changes":[9.33799E-1,0E0,0E0],"parents":[2147483647,0,0],"right_children":[2,-1,-1],"split_conditions":[5.2910052E-2,-9.554164E-3,1.2372124E-2],"split_indices":[34,0,0],"split_type":[0,0,0],"sum_hessian":[1.7421585E1,9.2221985E0,8.199386E0],"tree_param":{"num_deleted":"0","num_feature":"38","num_nodes":"3","size_leaf_vector":"1"}},{"base_weights":[-7.944287E-2,8.047392E-3,-1.9169688E-2],"categories":[],"categories_nodes":[],"categories_segments":[],"categories_sizes":[],"default_left":[0,0,0],"id":142,"left_children":[1,-1,-1],"loss_changes":[1.3118193E0,0E0,0E0],"parents":[2147483647,0,0],"right_children":[2,-1,-1],"split_conditions":[1E0,8.047392E-3,-1.9169688E-2],"split_indices":[29,0,0],"split_type":[0,0,0],"sum_hessian":[1.5804699E1,8.904069E0,6.900629E0],"tree_param":{"num_deleted":"0","num_feature":"38","num_nodes":"3","size_leaf_vector":"1"}},{"base_weights":[9.73876E-2,-8.568434E-3,1.5750496E-2],"categories":[],"categories_nodes":[],"categories_segments":[],"categories_sizes":[],"default_left":[0,0,0],"id":143,"left_children":[1,-1,-1],"loss_changes":[1.0942729E0,0E0,0E0],"parents":[2147483647,0,0],"right_children":[2,-1,-1],"split_conditions":[9.189189E-2,-8.568434E-3,1.5750496E-2],"split_indices":[5,0,0],"split_type":[0,0,0],"sum_hessian":[1.6540983E1,7.2904954E0,9.250487E0],"tree_param":{"num_deleted":"0","num_feature":"38","num_nodes":"3","size_leaf_vector":"1"}},{"base_weights":[5.598887E-2,1.8630791E-2,-6.420338E-3],"categories":[],"categories_nodes":[],"categories_segments":[],"categories_sizes":[],"default_left":[0,0,0],"id":144,"left_children":[1,-1,-1],"loss_changes":[1.0078148E0,0E0,0E0],"parents":[2147483647,0,0],"right_children":[2,-1,-1],"split_conditions":[2E-2,1.8630791E-2,-6.420338E-3],"split_indices":[1,0,0],"split_type":[0,0,0],"sum_hessian":[1.5023867E1,5.353282E0,9.670585E0],"tree_param":{"num_deleted":"0","num_feature":"38","num_nodes":"3","size_leaf_vector":"1"}},{"base_weights":[1.1634745E-1,1.676608E-2,-9.937354E-3],"categories":[],"categories_nodes":[],"categories_segments":[],"categories_sizes":[],"default_left":[0,0,0],"id":145,"left_children":[1,-1,-1],"loss_changes":[1.2571536E0,0E0,0E0],"parents":[2147483647,0,0],"right_children":[2,-1,-1],"split_conditions":[4.310811E-1,1.676608E-2,-9.937354E-3],"split_indices":[6,0,0],"split_type":[0,0,0],"sum_hessian":[1.6056429E1,9.622481E0,6.433948E0],"tree_param":{"num_deleted":"0","num_feature":"38","num_nodes":"3","size_leaf_vector":"1"}},{"base_weights":[-1.5153584E-2,-1.3585942E-2,9.127769E-3],"categories":[],"categories_nodes":[],"categories_segments":[],"categories_sizes":[],"default_left":[0,0,0],"id":146,"left_children":[1,-1,-1],"loss_changes":[1.0135999E0,0E0,0E0],"parents":[2147483647,0,0],"right_children":[2,-1,-1],"split_conditions":[9.189189E-2,-1.3585942E-2,9.127769E-3],"split_indices":[5,0,0],"split_type":[0,0,0],"sum_hessian":[1.782849E1,7.816517E0,1.0011972E1],"tree_param":{"num_deleted":"0","num_feature":"38","num_nodes":"3","size_leaf_vector":"1"}},{"base_weights":[-3.4524594E-2,1.2388228E-1,-1.4647971E-2,-1.1309131E-2,2.2188159E-2],"categories":[],"categories_nodes":[],"categories_segments":[],"categories_sizes":[],"default_left":[0,0,0,0,0],"id":147,"left_children":[1,3,-1,-1,-1],"loss_changes":[8.1699646E-1,1.4692621E0,0E0,0E0,0E0],"parents":[2147483647,0,0,1,1],"right_children":[2,4,-1,-1,-1],"split_conditions":[4.5945945E-1,1.1566457E0,-1.4647971E-2,-1.1309131E-2,2.2188159E-2],"split_indices":[6,2,0,0,0],"split_type":[0,0,0,0,0],"sum_hessian":[1.765746E1,1.1030218E1,6.627241E0,5.257223E0,5.7729955E0],"tree_param":{"num_deleted":"0","num_feature":"38","num_nodes":"5","size_leaf_vector":"1"}},{"base_weights":[-1.5626112E-1,-2.3582062E-2,1.148794E-2],"categories":[],"categories_nodes":[],"categories_segments":[],"categories_sizes":[],"default_left":[0,0,0],"id":148,"left_children":[1,-1,-1],"loss_changes":[2.2023466E0,0E0,0E0],"parents":[2147483647,0,0],"right_children":[2,-1,-1],"split_conditions":[1.1566457E0,-2.3582062E-2,1.148794E-2],"split_indices":[2,0,0],"split_type":[0,0,0],"sum_hessian":[1.6001345E1,8.8269415E0,7.174404E0],"tree_param":{"num_deleted":"0","num_feature":"38","num_nodes":"3","size_leaf_vector":"1"}},{"base_weights":[3.7302943E-6,1.9114396E-1,-1.3383838E-2,-7.304679E-3,2.7201045E-2],"categories":[],"categories_nodes":[],"categories_segments":[],"categories_sizes":[],"default_left":[0,0,0,0,0],"id":149,"left_children":[1,3,-1,-1,-1],"loss_changes":[1.001176E0,1.5141377E0,0E0,0E0,0E0],"parents":[2147483647,0,0,1,1],"right_children":[2,4,-1,-1,-1],"split_conditions":[3.8E-1,3E0,-1.3383838E-2,-7.304679E-3,2.7201045E-2],"split_indices":[1,0,0,0,0],"split_type":[0,0,0,0,0],"sum_hessian":[1.7717358E1,1.0721241E1,6.9961166E0,5.636836E0,5.084405E0],"tree_param":{"num_deleted":"0","num_feature":"38","num_nodes":"5","size_leaf_vector":"1"}},{"base_weights":[-1.0443461E-1,-1.4775234E-2,8.642643E-3],"categories":[],"categories_nodes":[],"categories_segments":[],"categories_sizes":[],"default_left":[0,0,0],"id":150,"left_children":[1,-1,-1],"loss_changes":[9.3324006E-1,0E0,0E0],"parents":[2147483647,0,0],"right_children":[2,-1,-1],"split_conditions":[1.47E2,-1.4775234E-2,8.642643E-3],"split_indices":[0,0,0],"split_type":[0,0,0],"sum_hessian":[1.5418913E1,9.303265E0,6.1156487E0],"tree_param":{"num_deleted":"0","num_feature":"38","num_nodes":"3","size_leaf_vector":"1"}},{"base_weights":[-0E0,-1.4359461E-1,1.5467701E-2,-0E0,-1.4670245E-2],"categories":[],"categories_nodes":[],"categories_segments":[],"categories_sizes":[],"default_left":[0,0,0,0,0],"id":151,"left_children":[1,3,-1,-1,-1],"loss_changes":[8.3122563E-1,2.733746E-1,0E0,0E0,0E0],"parents":[2147483647,0,0,1,1],"right_children":[2,4,-1,-1,-1],"split_conditions":[4.974625E-2,1E0,1.5467701E-2,-0E0,-1.4670245E-2],"split_indices":[9,35,0,0,0],"split_type":[0,0,0,0,0],"sum_hessian":[1.6345972E1,1.1313214E1,5.0327587E0,6.1883726E0,5.124841E0],"tree_param":{"num_deleted":"0","num_feature":"38","num_nodes":"5","size_leaf_vector":"1"}},{"base_weights":[5.5183318E-2,-5.707534E-3,1.0904453E-2],"categories":[],"categories_nodes":[],"categories_segments":[],"categories_sizes":[],"default_left":[0,0,0],"id":152,"left_children":[1,-1,-1],"loss_changes":[5.1102775E-1,0E0,0E0],"parents":[2147483647,0,0],"right_children":[2,-1,-1],"split_conditions":[1.04E2,-5.707534E-3,1.0904453E-2],"split_indices":[0,0,0],"split_type":[0,0,0],"sum_hessian":[1.624599E1,7.811589E0,8.434402E0],"tree_param":{"num_deleted":"0","num_feature":"38","num_nodes":"3","size_leaf_vector":"1"}},{"base_weights":[1.422065E-1,3.8925508E-1,-1.6350899E-2,3.8543478E-2,-0E0],"categories":[],"categories_nodes":[],"categories_segments":[],"categories_sizes":[],"default_left":[0,0,0,0,0],"id":153,"left_children":[1,3,-1,-1,-1],"loss_changes":[2.1129117E0,1.7829747E0,0E0,0E0,0E0],"parents":[2147483647,0,0,1,1],"right_children":[2,4,