{"learner":{"attributes":{},"feature_names":["elo_diff","fifa_rank_diff","squad_value_ratio","host_advantage","host_vs_away","momentum","opponent_momentum","momentum_diff","overperformance","opponent_overperformance","overperformance_diff","rest_days_diff","extra_time_diff","cumulative_mins_ratio","goals_scored_per_match","goals_conceded_per_match","goal_diff_per_match","clean_sheet_rate","comeback_rate","goal_consistency","stage_importance","stage_is_knockout","stage_is_r16","stage_is_qf","stage_is_sf","group_pts","group_pts_per_match","group_position","same_confederation","team_is_uefa","team_is_conmebol","opp_is_uefa","opp_is_conmebol","elo_diff_abs","elo_ratio","is_top5","opp_is_top5","coming_off_close_loss"],"feature_types":[],"gradient_booster":{"model":{"cats":{"enc":[],"feature_segments":[],"sorted_idx":[]},"gbtree_model_param":{"num_parallel_tree":"1","num_trees":"200"},"iteration_indptr":[0,1,2,3,4,5,6,7,8,9,10,11,12,13,14,15,16,17,18,19,20,21,22,23,24,25,26,27,28,29,30,31,32,33,34,35,36,37,38,39,40,41,42,43,44,45,46,47,48,49,50,51,52,53,54,55,56,57,58,59,60,61,62,63,64,65,66,67,68,69,70,71,72,73,74,75,76,77,78,79,80,81,82,83,84,85,86,87,88,89,90,91,92,93,94,95,96,97,98,99,100,101,102,103,104,105,106,107,108,109,110,111,112,113,114,115,116,117,118,119,120,121,122,123,124,125,126,127,128,129,130,131,132,133,134,135,136,137,138,139,140,141,142,143,144,145,146,147,148,149,150,151,152,153,154,155,156,157,158,159,160,161,162,163,164,165,166,167,168,169,170,171,172,173,174,175,176,177,178,179,180,181,182,183,184,185,186,187,188,189,190,191,192,193,194,195,196,197,198,199,200],"tree_info":[0,0,0,0,0,0,0,0,0,0,0,0,0,0,0,0,0,0,0,0,0,0,0,0,0,0,0,0,0,0,0,0,0,0,0,0,0,0,0,0,0,0,0,0,0,0,0,0,0,0,0,0,0,0,0,0,0,0,0,0,0,0,0,0,0,0,0,0,0,0,0,0,0,0,0,0,0,0,0,0,0,0,0,0,0,0,0,0,0,0,0,0,0,0,0,0,0,0,0,0,0,0,0,0,0,0,0,0,0,0,0,0,0,0,0,0,0,0,0,0,0,0,0,0,0,0,0,0,0,0,0,0,0,0,0,0,0,0,0,0,0,0,0,0,0,0,0,0,0,0,0,0,0,0,0,0,0,0,0,0,0,0,0,0,0,0,0,0,0,0,0,0,0,0,0,0,0,0,0,0,0,0,0,0,0,0,0,0,0,0,0,0,0,0,0,0,0,0,0,0],"trees":[{"base_weights":[-5.4588135E-2,-5.995648E-2,7.506653E-2],"categories":[],"categories_nodes":[],"categories_segments":[],"categories_sizes":[],"default_left":[0,0,0],"id":0,"left_children":[1,-1,-1],"loss_changes":[5.0320347E1,0E0,0E0],"parents":[2147483647,0,0],"right_children":[2,-1,-1],"split_conditions":[5.3E1,-5.995648E-2,7.506653E-2],"split_indices":[0,0,0],"split_type":[0,0,0],"sum_hessian":[2.6262978E1,1.530104E1,1.0961939E1],"tree_param":{"num_deleted":"0","num_feature":"38","num_nodes":"3","size_leaf_vector":"1"}},{"base_weights":[-0E0,-5.6848057E-2,1.1868534E0,2.3323655E-2,7.63308E-2],"categories":[],"categories_nodes":[],"categories_segments":[],"categories_sizes":[],"default_left":[0,0,0,0,0],"id":1,"left_children":[1,-1,3,-1,-1],"loss_changes":[3.934094E1,0E0,2.5775414E0,0E0,0E0],"parents":[2147483647,0,0,2,2],"right_children":[2,-1,4,-1,-1],"split_conditions":[8.854781E-3,-5.6848057E-2,6.666667E-1,2.3323655E-2,7.63308E-2],"split_indices":[34,0,14,0,0],"split_type":[0,0,0,0,0],"sum_hessian":[2.7155102E1,1.3900324E1,1.3254778E1,5.1028166E0,8.151961E0],"tree_param":{"num_deleted":"0","num_feature":"38","num_nodes":"5","size_leaf_vector":"1"}},{"base_weights":[4.643337E-2,-1.0915253E0,1.3960702E0,-6.264069E-2,-3.0323787E-2,3.737431E-2,8.43664E-2],"categories":[],"categories_nodes":[],"categories_segments":[],"categories_sizes":[],"default_left":[0,0,0,0,0,0,0],"id":2,"left_children":[1,3,5,-1,-1,-1,-1],"loss_changes":[4.614494E1,3.2736015E-1,1.0946903E0,0E0,0E0,0E0,0E0],"parents":[2147483647,0,0,1,1,2,2],"right_children":[2,4,6,-1,-1,-1,-1],"split_conditions":[5.287818E-2,-1.58E2,1E0,-6.264069E-2,-3.0323787E-2,3.737431E-2,8.43664E-2],"split_indices":[34,0,25,0,0,0,0],"split_type":[0,0,0,0,0,0,0],"sum_hessian":[2.803356E1,1.5273077E1,1.2760483E1,1.0119217E1,5.1538596E0,5.166117E0,7.5943656E0],"tree_param":{"num_deleted":"0","num_feature":"38","num_nodes":"7","size_leaf_vector":"1"}},{"base_weights":[-1.545473E-2,-9.9114245E-1,1.2014459E0,-6.1541107E-2,-2.393791E-2,3.63958E-2,7.850172E-2],"categories":[],"categories_nodes":[],"categories_segments":[],"categories_sizes":[],"default_left":[0,0,0,0,0,0,0],"id":3,"left_children":[1,3,5,-1,-1,-1,-1],"loss_changes":[3.7888393E1,1.4205456E0,1.100235E0,0E0,0E0,0E0,0E0],"parents":[2147483647,0,0,1,1,2,2],"right_children":[2,4,6,-1,-1,-1,-1],"split_conditions":[5.287818E-2,-1.48E2,2.75E2,-6.1541107E-2,-2.393791E-2,3.63958E-2,7.850172E-2],"split_indices":[34,0,0,0,0,0,0],"split_type":[0,0,0,0,0,0,0],"sum_hessian":[2.9925758E1,1.675756E1,1.3168198E1,1.032874E1,6.428821E0,7.184441E0,5.9837565E0],"tree_param":{"num_deleted":"0","num_feature":"38","num_nodes":"7","size_leaf_vector":"1"}},{"base_weights":[2.7173117E-2,-9.638341E-1,7.297588E-2,-6.44323E-2,-1.645723E-2],"categories":[],"categories_nodes":[],"categories_segments":[],"categories_sizes":[],"default_left":[0,0,0,0,0],"id":4,"left_children":[1,3,-1,-1,-1],"loss_changes":[4.121938E1,2.9430676E0,0E0,0E0,0E0],"parents":[2147483647,0,0,1,1],"right_children":[2,4,-1,-1,-1],"split_conditions":[1.33E2,-1.48E2,7.297588E-2,-6.44323E-2,-1.645723E-2],"split_indices":[0,0,0,0,0],"split_type":[0,0,0,0,0],"sum_hessian":[2.7012747E1,1.61182E1,1.08945465E1,9.876064E0,6.2421374E0],"tree_param":{"num_deleted":"0","num_feature":"38","num_nodes":"5","size_leaf_vector":"1"}},{"base_weights":[2.837883E-2,-9.855102E-1,1.1936061E0,-5.923567E-2,-2.175448E-2,3.4006033E-2,6.950421E-2],"categories":[],"categories_nodes":[],"categories_segments":[],"categories_sizes":[],"default_left":[0,0,0,0,0,0,0],"id":5,"left_children":[1,3,5,-1,-1,-1,-1],"loss_changes":[3.66733E1,1.138176E0,3.073845E-1,0E0,0E0,0E0,0E0],"parents":[2147483647,0,0,1,1,2,2],"right_children":[2,4,6,-1,-1,-1,-1],"split_conditions":[1.33E2,-1.33E2,5E-1,-5.923567E-2,-2.175448E-2,3.4006033E-2,6.950421E-2],"split_indices":[0,0,14,0,0,0,0],"split_type":[0,0,0,0,0,0,0],"sum_hessian":[2.902865E1,1.5558919E1,1.3469731E1,1.044478E1,5.114138E0,5.1032257E0,8.366506E0],"tree_param":{"num_deleted":"0","num_feature":"38","num_nodes":"7","size_leaf_vector":"1"}},{"base_weights":[-7.2386794E-2,-1.049891E0,1.0406374E0,-3.1983174E-2,-6.2380213E-2,2.4772143E-2,6.544573E-2],"categories":[],"categories_nodes":[],"categories_segments":[],"categories_sizes":[],"default_left":[0,0,0,0,0,0,0],"id":6,"left_children":[1,3,5,-1,-1,-1,-1],"loss_changes":[3.100089E1,2.4451828E-1,1.1175108E0,0E0,0E0,0E0,0E0],"parents":[2147483647,0,0,1,1,2,2],"right_children":[2,4,6,-1,-1,-1,-1],"split_conditions":[5.287818E-2,6.666667E-1,2.2972973E-1,-3.1983174E-2,-6.2380213E-2,2.4772143E-2,6.544573E-2],"split_indices":[34,15,5,0,0,0,0],"split_type":[0,0,0,0,0,0,0],"sum_hessian":[2.6488783E1,1.4181003E1,1.230778E1,6.153804E0,8.027199E0,5.120787E0,7.186993E0],"tree_param":{"num_deleted":"0","num_feature":"38","num_nodes":"7","size_leaf_vector":"1"}},{"base_weights":[3.9872896E-2,-5.3046376E-2,1.1000911E0,3.3618648E-2,7.6398276E-2],"categories":[],"categories_nodes":[],"categories_segments":[],"categories_sizes":[],"default_left":[0,0,0,0,0],"id":7,"left_children":[1,-1,3,-1,-1],"loss_changes":[3.363552E1,0E0,1.4440746E0,0E0,0E0],"parents":[2147483647,0,0,2,2],"right_children":[2,-1,4,-1,-1],"split_conditions":[8.854781E-3,-5.3046376E-2,1.795422E-1,3.3618648E-2,7.6398276E-2],"split_indices":[34,0,34,0,0],"split_type":[0,0,0,0,0],"sum_hessian":[2.681664E1,1.31099205E1,1.370672E1,8.257438E0,5.449283E0],"tree_param":{"num_deleted":"0","num_feature":"38","num_nodes":"5","size_leaf_vector":"1"}},{"base_weights":[-9.6544206E-2,-4.9197644E-2,8.1045485E-1,5.366525E-2,1.6892444E-2],"categories":[],"categories_nodes":[],"categories_segments":[],"categories_sizes":[],"default_left":[0,0,0,0,0],"id":8,"left_children":[1,-1,3,-1,-1],"loss_changes":[2.32018E1,0E0,1.2662029E0,0E0,0E0],"parents":[2147483647,0,0,2,2],"right_children":[2,-1,4,-1,-1],"split_conditions":[1.5E1,-4.9197644E-2,1.7584243E0,5.366525E-2,1.6892444E-2],"split_indices":[0,0,2,0,0],"split_type":[0,0,0,0,0],"sum_hessian":[2.6814123E1,1.3566277E1,1.3247848E1,7.56036E0,5.687487E0],"tree_param":{"num_deleted":"0","num_feature":"38","num_nodes":"5","size_leaf_vector":"1"}},{"base_weights":[4.8379272E-2,-7.446611E-1,1.0506216E0,-9.535604E-3,-5.4226756E-2,3.2846253E-2,6.4360105E-2],"categories":[],"categories_nodes":[],"categories_segments":[],"categories_sizes":[],"default_left":[0,0,0,0,0,0,0],"id":9,"left_children":[1,3,5,-1,-1,-1,-1],"loss_changes":[2.2832315E1,2.6771536E0,1.4364338E-1,0E0,0E0,0E0,0E0],"parents":[2147483647,0,0,1,1,2,2],"right_children":[2,4,6,-1,-1,-1,-1],"split_conditions":[1.58E2,1.55E2,2.75E2,-9.535604E-3,-5.4226756E-2,3.2846253E-2,6.4360105E-2],"split_indices":[0,33,0,0,0,0,0],"split_type":[0,0,0,0,0,0,0],"sum_hessian":[2.6703632E1,1.4995461E1,1.1708171E1,6.407481E0,8.587979E0,5.9710712E0,5.737099E0],"tree_param":{"num_deleted":"0","num_feature":"38","num_nodes":"7","size_leaf_vector":"1"}},{"base_weights":[1.5109071E-1,-6.221551E-1,1.2450551E0,-6.7183706E-3,-5.2316345E-2,7.573011E-2,3.8923305E-2],"categories":[],"categories_nodes":[],"categories_segments":[],"categories_sizes":[],"default_left":[0,0,0,0,0,0,0],"id":10,"left_children":[1,3,5,-1,-1,-1,-1],"loss_changes":[2.3998716E1,3.1874304E0,6.635475E-2,0E0,0E0,0E0,0E0],"parents":[2147483647,0,0,1,1,2,2],"right_children":[2,4,6,-1,-1,-1,-1],"split_conditions":[1.0177706E-1,1.68E2,1.7584243E0,-6.7183706E-3,-5.2316345E-2,7.573011E-2,3.8923305E-2],"split_indices":[34,33,2,0,0,0,0],"split_type":[0,0,0,0,0,0,0],"sum_hessian":[2.6381155E1,1.5655363E1,1.0725793E1,8.003757E0,7.651605E0,5.2388725E0,5.48692E0],"tree_param":{"num_deleted":"0","num_feature":"38","num_nodes":"7","size_leaf_vector":"1"}},{"base_weights":[3.0264676E-2,-4.7134973E-2,9.4459647E-1,6.625767E-2,2.1793598E-2],"categories":[],"categories_nodes":[],"categories_segments":[],"categories_sizes":[],"default_left":[0,0,0,0,0],"id":11,"left_children":[1,-1,3,-1,-1],"loss_changes":[2.3842571E1,0E0,1.9282608E0,0E0,0E0],"parents":[2147483647,0,0,2,2],"right_children":[2,-1,4,-1,-1],"split_conditions":[2.0564398E-1,-4.7134973E-2,1E0,6.625767E-2,2.1793598E-2],"split_indices":[2,0,29,0,0],"split_type":[0,0,0,0,0],"sum_hessian":[2.4799911E1,1.1946712E1,1.28532E1,6.3223057E0,6.5308943E0],"tree_param":{"num_deleted":"0","num_feature":"38","num_nodes":"5","size_leaf_vector":"1"}},{"base_weights":[3.828168E-2,-8.818681E-1,1.0093608E0,-2.6523856E-2,-5.650881E-2,2.8008748E-2,6.0897477E-2],"categories":[],"categories_nodes":[],"categories_segments":[],"categories_sizes":[],"default_left":[0,0,0,0,0,0,0],"id":12,"left_children":[1,3,5,-1,-1,-1,-1],"loss_changes":[2.541954E1,5.0560665E-1,4.3934155E-1,0E0,0E0,0E0,0E0],"parents":[2147483647,0,0,1,1,2,2],"right_children":[2,4,6,-1,-1,-1,-1],"split_conditions":[5.3E1,6.666667E-1,1.263473E-1,-2.6523856E-2,-5.650881E-2,2.8008748E-2,6.0897477E-2],"split_indices":[0,14,34,0,0,0,0],"split_type":[0,0,0,0,0,0,0],"sum_hessian":[2.6437737E1,1.3569137E1,1.28686E1,7.083738E0,6.4853992E0,5.4015594E0,7.4670405E0],"tree_param":{"num_deleted":"0","num_feature":"38","num_nodes":"7","size_leaf_vector":"1"}},{"base_weights":[-5.0131064E-2,-4.602501E-2,5.998348E-1,1.6178144E-2,4.651017E-2],"categories":[],"categories_nodes":[],"categories_segments":[],"categories_sizes":[],"default_left":[0,0,0,0,0],"id":13,"left_children":[1,-1,3,-1,-1],"loss_changes":[1.5559132E1,0E0,1.0060544E0,0E0,0E0],"parents":[2147483647,0,0,2,2],"right_children":[2,-1,4,-1,-1],"split_conditions":[3E0,-4.602501E-2,2.75E2,1.6178144E-2,4.651017E-2],"split_indices":[0,0,0,0,0],"split_type":[0,0,0,0,0],"sum_hessian":[2.5471003E1,1.0777063E1,1.4693938E1,9.244926E0,5.449012E0],"tree_param":{"num_deleted":"0","num_feature":"38","num_nodes":"5","size_leaf_vector":"1"}},{"base_weights":[1.699837E-2,-7.770822E-1,5.2144963E-2,-5.444914E-2,-2.1190932E-2],"categories":[],"categories_nodes":[],"categories_segments":[],"categories_sizes":[],"default_left":[0,0,0,0,0],"id":14,"left_children":[1,3,-1,-1,-1],"loss_changes":[2.2610832E1,1.104311E0,0E0,0E0,0E0],"parents":[2147483647,0,0,1,1],"right_children":[2,4,-1,-1,-1],"split_conditions":[1.0035843E-1,-1.1566457E0,5.2144963E-2,-5.444914E-2,-2.1190932E-2],"split_indices":[34,2,0,0,0],"split_type":[0,0,0,0,0],"sum_hessian":[2.5727901E1,1.4584268E1,1.1143635E1,6.489182E0,8.095085E0],"tree_param":{"num_deleted":"0","num_feature":"38","num_nodes":"5","size_leaf_vector":"1"}},{"base_weights":[-2.1678668E-3,-4.6048682E-2,7.0375127E-1,1.8836383E-2,5.324734E-2],"categories":[],"categories_nodes":[],"categories_segments":[],"categories_sizes":[],"default_left":[0,0,0,0,0],"id":15,"left_children":[1,-1,3,-1,-1],"loss_changes":[1.8380781E1,0E0,1.3383365E0,0E0,0E0],"parents":[2147483647,0,0,2,2],"right_children":[2,-1,4,-1,-1],"split_conditions":[1.5E1,-4.6048682E-2,2.75E2,1.8836383E-2,5.324734E-2],"split_indices":[0,0,0,0,0],"split_type":[0,0,0,0,0],"sum_hessian":[2.6306278E1,1.1358877E1,1.4947401E1,9.062313E0,5.8850875E0],"tree_param":{"num_deleted":"0","num_feature":"38","num_nodes":"5","size_leaf_vector":"1"}},{"base_weights":[7.5436984E-3,-4.2611036E-2,5.61873E-1,2.4991724E-1,5.014807E-2,2.44881E-2,-1.2319472E-3],"categories":[],"categories_nodes":[],"categories_segments":[],"categories_sizes":[],"default_left":[0,0,0,0,0,0,0],"id":16,"left_children":[1,-1,3,5,-1,-1,-1],"loss_changes":[1.3285199E1,0E0,1.9698186E0,8.125848E-1,0E0,0E0,0E0],"parents":[2147483647,0,0,2,2,3,3],"right_children":[2,-1,4,6,-1,-1,-1],"split_conditions":[-2E1,-4.2611036E-2,2.75E2,9.189189E-2,5.014807E-2,2.44881E-2,-1.2319472E-3],"split_indices":[0,0,0,6,0,0,0],"split_type":[0,0,0,0,0,0,0],"sum_hessian":[2.5931585E1,9.883889E0,1.6047695E1,1.0450194E1,5.5975013E0,5.3537216E0,5.0964723E0],"tree_param":{"num_deleted":"0","num_feature":"38","num_nodes":"7","size_leaf_vector":"1"}},{"base_weights":[1.2527278E-1,-3.935276E-2,8.419894E-1,5.4674026E-2,1.923432E-2],"categories":[],"categories_nodes":[],"categories_segments":[],"categories_sizes":[],"default_left":[0,0,0,0,0],"id":17,"left_children":[1,-1,3,-1,-1],"loss_changes":[1.7055243E1,0E0,1.1083231E0,0E0,0E0],"parents":[2147483647,0,0,2,2],"right_children":[2,-1,4,-1,-1],"split_conditions":[1.5E1,-3.935276E-2,1.8109417E0,5.4674026E-2,1.923432E-2],"split_indices":[0,0,2,0,0],"split_type":[0,0,0,0,0],"sum_hessian":[2.406124E1,1.0481451E1,1.3579787E1,7.722835E0,5.856952E0],"tree_param":{"num_deleted":"0","num_feature":"38","num_nodes":"5","size_leaf_vector":"1"}},{"base_weights":[-0E0,-6.4895374E-1,6.4728016E-1,-4.6096325E-2,-8.570957E-3,3.8997132E-2,1.8567445E-2],"categories":[],"categories_nodes":[],"categories_segments":[],"categories_sizes":[],"default_left":[0,0,0,0,0,0,0],"id":18,"left_children":[1,3,5,-1,-1,-1,-1],"loss_changes":[1.087916E1,1.4185276E0,6.987524E-2,0E0,0E0,0E0,0E0],"parents":[2147483647,0,0,1,1,2,2],"right_children":[2,4,6,-1,-1,-1,-1],"split_conditions":[5.287818E-2,-1.48E2,6.2E-1,-4.6096325E-2,-8.570957E-3,3.8997132E-2,1.8567445E-2],"split_indices":[34,0,1,0,0,0,0],"split_type":[0,0,0,0,0,0,0],"sum_hessian":[2.3899376E1,1.1933233E1,1.1966143E1,6.8675413E0,5.065692E0,6.6026983E0,5.363444E0],"tree_param":{"num_deleted":"0","num_feature":"38","num_nodes":"7","size_leaf_vector":"1"}},{"base_weights":[-1.6689044E-1,-4.6074424E-2,4.1211852E-1,3.632522E-2,-5.327542E-4],"categories":[],"categories_nodes":[],"categories_segments":[],"categories_sizes":[],"default_left":[0,0,0,0,0],"id":19,"left_children":[1,-1,3,-1,-1],"loss_changes":[1.0772121E1,0E0,1.941273E0,0E0,0E0],"parents":[2147483647,0,0,2,2],"right_children":[2,-1,4,-1,-1],"split_conditions":[8E0,-4.6074424E-2,1E0,3.632522E-2,-5.327542E-4],"split_indices":[0,0,29,0,0],"split_type":[0,0,0,0,0],"sum_hessian":[2.2668966E1,9.660309E0,1.3008657E1,7.1843157E0,5.8243423E0],"tree_param":{"num_deleted":"0","num_feature":"38","num_nodes":"5","size_leaf_vector":"1"}},{"base_weights":[-1.43583E-1,-7.300042E-1,2.8749404E-2,-1.2511052E-2,-5.7108223E-2],"categories":[],"categories_nodes":[],"categories_segments":[],"categories_sizes":[],"default_left":[0,0,0,0,0],"id":20,"left_children":[1,3,-1,-1,-1],"loss_changes":[1.0451431E1,2.265438E0,0E0,0E0,0E0],"parents":[2147483647,0,0,1,1],"right_children":[2,4,-1,-1,-1],"split_conditions":[1.58E2,6.666667E-1,2.8749404E-2,-1.2511052E-2,-5.7108223E-2],"split_indices":[0,14,0,0,0],"split_type":[0,0,0,0,0],"sum_hessian":[2.276966E1,1.2605581E1,1.0164079E1,6.6796846E0,5.925897E0],"tree_param":{"num_deleted":"0","num_feature":"38","num_nodes":"5","size_leaf_vector":"1"}},{"base_weights":[1.5456545E-3,-3.293397E-2,4.8475057E-1,7.3305327E-3,4.0843137E-2],"categories":[],"categories_nodes":[],"categories_segments":[],"categories_sizes":[],"default_left":[0,0,0,0,0],"id":21,"left_children":[1,-1,3,-1,-1],"loss_changes":[8.230672E0,0E0,1.4699624E0,0E0,0E0],"parents":[2147483647,0,0,2,2],"right_children":[2,-1,4,-1,-1],"split_conditions":[5.3E1,-3.293397E-2,1.03875E-1,7.3305327E-3,4.0843137E-2],"split_indices":[0,0,8,0,0],"split_type":[0,0,0,0,0],"sum_hessian":[2.3853207E1,9.839267E0,1.401394E1,7.807395E0,6.2065454E0],"tree_param":{"num_deleted":"0","num_feature":"38","num_nodes":"5","size_leaf_vector":"1"}},{"base_weights":[-2.0322941E-1,-8.3946985E-1,4.5254013E-1,-2.4368798E-2,-5.403262E-2,6.80686E-3,3.2896347E-2],"categories":[],"categories_nodes":[],"categories_segments":[],"categories_sizes":[],"default_left":[0,0,0,0,0,0,0],"id":22,"left_children":[1,3,5,-1,-1,-1,-1],"loss_changes":[9.959656E0,3.3846092E-1,6.0001993E-1,0E0,0E0,0E0,0E0],"parents":[2147483647,0,0,1,1,2,2],"right_children":[2,4,6,-1,-1,-1,-1],"split_conditions":[1.33E2,6.666667E-1,1.6081081E-1,-2.4368798E-2,-5.403262E-2,6.80686E-3,3.2896347E-2],"split_indices":[0,14,6,0,0,0,0],"split_type":[0,0,0,0,0,0,0],"sum_hessian":[2.1867807E1,1.10343895E1,1.0833418E1,5.88235E0,5.1520395E0,5.1104207E0,5.722997E0],"tree_param":{"num_deleted":"0","num_feature":"38","num_nodes":"7","size_leaf_vector":"1"}},{"base_weights":[6.377533E-2,-4.7535858E-1,3.6716357E-2,-0E0,-4.132474E-2],"categories":[],"categories_nodes":[],"categories_segments":[],"categories_sizes":[],"default_left":[0,0,0,0,0],"id":23,"left_children":[1,3,-1,-1,-1],"loss_changes":[8.365738E0,2.0790071E0,0E0,0E0,0E0],"parents":[2147483647,0,0,1,1],"right_children":[2,4,-1,-1,-1],"split_conditions":[1.0177706E-1,1.55E2,3.6716357E-2,-0E0,-4.132474E-2],"split_indices":[34,33,0,0,0],"split_type":[0,0,0,0,0],"sum_hessian":[2.1103437E1,1.1776729E1,9.326708E0,5.5066996E0,6.2700295E0],"tree_param":{"num_deleted":"0","num_feature":"38","num_nodes":"5","size_leaf_vector":"1"}},{"base_weights":[1.8940383E-1,-3.331962E-2,7.456473E-1,4.955439E-2,1.0029126E-2],"categories":[],"categories_nodes":[],"categories_segments":[],"categories_sizes":[],"default_left":[0,0,0,0,0],"id":24,"left_children":[1,-1,3,-1,-1],"loss_changes":[1.1944601E1,0E0,1.7031469E0,0E0,0E0],"parents":[2147483647,0,0,2,2],"right_children":[2,-1,4,-1,-1],"split_conditions":[1.5E1,-3.331962E-2,4.5945945E-1,4.955439E-2,1.0029126E-2],"split_indices":[0,0,6,0,0],"split_type":[0,0,0,0,0],"sum_hessian":[2.3031586E1,8.923984E0,1.4107601E1,9.036668E0,5.0709333E0],"tree_param":{"num_deleted":"0","num_feature":"38","num_nodes":"5","size_leaf_vector":"1"}},{"base_weights":[6.77225E-2,-3.7330616E-2,5.5029577E-1,4.01775E-2,1.2848936E-2],"categories":[],"categories_nodes":[],"categories_segments":[],"categories_sizes":[],"default_left":[0,0,0,0,0],"id":25,"left_children":[1,-1,3,-1,-1],"loss_changes":[9.595653E0,0E0,8.284359E-1,0E0,0E0],"parents":[2147483647,0,0,2,2],"right_children":[2,-1,4,-1,-1],"split_conditions":[-6.784817E-2,-3.7330616E-2,1E0,4.01775E-2,1.2848936E-2],"split_indices":[2,0,29,0,0],"split_type":[0,0,0,0,0],"sum_hessian":[2.2422352E1,8.062552E0,1.43598E1,6.589701E0,7.770099E0],"tree_param":{"num_deleted":"0","num_feature":"38","num_nodes":"5","size_leaf_vector":"1"}},{"base_weights":[9.210999E-3,-3.718042E-2,5.003119E-1,3.8521603E-2,8.086626E-3],"categories":[],"categories_nodes":[],"categories_segments":[],"categories_sizes":[],"default_left":[0,0,0,0,0],"id":26,"left_children":[1,-1,3,-1,-1],"loss_changes":[9.412699E0,0E0,1.201335E0,0E0,0E0],"parents":[2147483647,0,0,2,2],"right_children":[2,-1,4,-1,-1],"split_conditions":[1.9314865E-2,-3.718042E-2,1.5476428E0,3.8521603E-2,8.086626E-3],"split_indices":[2,0,2,0,0],"split_type":[0,0,0,0,0],"sum_hessian":[2.3519178E1,9.00201E0,1.4517168E1,7.201191E0,7.315977E0],"tree_param":{"num_deleted":"0","num_feature":"38","num_nodes":"5","size_leaf_vector":"1"}},{"base_weights":[-1.14376485E-1,-7.665287E-1,4.802143E-1,-2.180354E-2,-4.7757696E-2,6.109587E-3,3.9473318E-2],"categories":[],"categories_nodes":[],"categories_segments":[],"categories_sizes":[],"default_left":[0,0,0,0,0,0,0],"id":27,"left_children":[1,3,5,-1,-1,-1,-1],"loss_changes":[9.018071E0,1.3431644E-1,1.1592245E0,0E0,0E0,0E0,0E0],"parents":[2147483647,0,0,1,1,2,2],"right_children":[2,4,6,-1,-1,-1,-1],"split_conditions":[1.58E2,1E0,2.75E2,-2.180354E-2,-4.7757696E-2,6.109587E-3,3.9473318E-2],"split_indices":[0,25,0,0,0,0,0],"split_type":[0,0,0,0,0,0,0],"sum_hessian":[2.1233494E1,1.0068877E1,1.1164617E1,5.05495E0,5.0139265E0,5.9707417E0,5.1938753E0],"tree_param":{"num_deleted":"0","num_feature":"38","num_nodes":"7","size_leaf_vector":"1"}},{"base_weights":[1.7735131E-2,-3.9779406E-2,3.3231297E-1,-3.783026E-3,5.327588E-1,3.777825E-2,9.850766E-3],"categories":[],"categories_nodes":[],"categories_segments":[],"categories_sizes":[],"default_left":[0,0,0,0,0,0,0],"id":28,"left_children":[1,-1,3,-1,5,-1,-1],"loss_changes":[5.877669E0,0E0,1.4553688E0,0E0,6.1742425E-1,0E0,0E0],"parents":[2147483647,0,0,2,2,4,4],"right_children":[2,-1,4,-1,6,-1,-1],"split_conditions":[-1.48E2,-3.9779406E-2,1.33E2,-3.783026E-3,1.2674057E0,3.777825E-2,9.850766E-3],"split_indices":[0,0,33,0,2,0,0],"split_type":[0,0,0,0,0,0,0],"sum_hessian":[2.1120522E1,5.375505E0,1.5745017E1,5.2279873E0,1.0517031E1,5.39111E0,5.1259203E0],"tree_param":{"num_deleted":"0","num_feature":"38","num_nodes":"7","size_leaf_vector":"1"}},{"base_weights":[5.0258055E-2,-4.6908706E-2,3.8727814E-1,1.0384705E-3,5.4511774E-1,1.6423097E-2,3.334539E-2],"categories":[],"categories_nodes":[],"categories_segments":[],"categories_sizes":[],"default_left":[0,0,0,0,0,0,0],"id":29,"left_children":[1,-1,3,-1,5,-1,-1],"loss_changes":[7.938355E0,0E0,9.655242E-1,0E0,4.8122406E-3,0E0,0E0],"parents":[2147483647,0,0,2,2,4,4],"right_children":[2,-1,4,-1,6,-1,-1],"split_conditions":[-1.48E2,-4.6908706E-2,1.58E2,1.0384705E-3,2.75E2,1.6423097E-2,3.334539E-2],"split_indices":[0,0,0,0,0,0,0],"split_type":[0,0,0,0,0,0,0],"sum_hessian":[2.1904888E1,5.0407195E0,1.6864168E1,5.607804E0,1.1256364E1,5.6764326E0,5.5799313E0],"tree_param":{"num_deleted":"0","num_feature":"38","num_nodes":"7","size_leaf_vector":"1"}},{"base_weights":[-5.7118475E-2,-6.313842E-1,4.3886918E-1,-1.0105549E-2,-4.6735466E-2,6.1642732E-3,3.4478277E-2],"categories":[],"categories_nodes":[],"categories_segments":[],"categories_sizes":[],"default_left":[0,0,0,0,0,0,0],"id":30,"left_children":[1,3,5,-1,-1,-1,-1],"loss_changes":[6.86878E0,1.1553783E0,8.525431E-1,0E0,0E0,0E0,0E0],"parents":[2147483647,0,0,1,1,2,2],"right_children":[2,4,6,-1,-1,-1,-1],"split_conditions":[1.33E2,1E0,1.795422E-1,-1.0105549E-2,-4.6735466E-2,6.1642732E-3,3.4478277E-2],"split_indices":[0,14,34,0,0,0,0],"split_type":[0,0,0,0,0,0,0],"sum_hessian":[2.2075037E1,1.0197164E1,1.1877872E1,5.048458E0,5.1487055E0,6.095431E0,5.7824416E0],"tree_param":{"num_deleted":"0","num_feature":"38","num_nodes":"7","size_leaf_vector":"1"}},{"base_weights":[4.8947395E-3,-2.8468579E-2,4.943349E-1,-3.5436638E-3,4.5401085E-2],"categories":[],"categories_nodes":[],"categories_segments":[],"categories_sizes":[],"default_left":[0,0,0,0,0],"id":31,"left_children":[1,-1,3,-1,-1],"loss_changes":[6.5154285E0,0E0,3.0983534E0,0E0,0E0],"parents":[2147483647,0,0,2,2],"right_children":[2,-1,4,-1,-1],"split_conditions":[1.33E2,-2.8468579E-2,4.4606414E-1,-3.5436638E-3,4.5401085E-2],"split_indices":[0,0,5,0,0],"split_type":[0,0,0,0,0],"sum_hessian":[2.1206192E1,9.5883875E0,1.1617804E1,5.1578007E0,6.4600024E0],"tree_param":{"num_deleted":"0","num_feature":"38","num_nodes":"5","size_leaf_vector":"1"}},{"base_weights":[2.1518865E-1,-3.2774383E-1,4.274545E-2,1.5110486E-3,-3.281118E-2],"categories":[],"categories_nodes":[],"categories_segments":[],"categories_sizes":[],"default_left":[0,0,0,0,0],"id":32,"left_children":[1,3,-1,-1,-1],"loss_changes":[7.666688E0,1.5004811E0,0E0,0E0,0E0],"parents":[2147483647,0,0,1,1],"right_children":[2,4,-1,-1,-1],"split_conditions":[1.0177706E-1,3.5E-1,4.274545E-2,1.5110486E-3,-3.281118E-2],"split_indices":[34,5,0,0,0],"split_type":[0,0,0,0,0],"sum_hessian":[2.0115042E1,1.1059862E1,9.05518E0,5.581222E0,5.47864E0],"tree_param":{"num_deleted":"0","num_feature":"38","num_nodes":"5","size_leaf_vector":"1"}},{"base_weights":[1.6765973E-2,-3.1747296E-2,3.795822E-1,2.9546479E-2,4.4021304E-3],"categories":[],"categories_nodes":[],"categories_segments":[],"categories_sizes":[],"default_left":[0,0,0,0,0],"id":33,"left_children":[1,-1,3,-1,-1],"loss_changes":[5.356201E0,0E0,7.8524494E-1,0E0,0E0],"parents":[2147483647,0,0,2,2],"right_children":[2,-1,4,-1,-1],"split_conditions":[1.5E1,-3.1747296E-2,1E0,2.9546479E-2,4.4021304E-3],"split_indices":[0,0,29,0,0],"split_type":[0,0,0,0,0],"sum_hessian":[2.0741117E1,7.0506516E0,1.3690466E1,7.1426053E0,6.547861E0],"tree_param":{"num_deleted":"0","num_feature":"38","num_nodes":"5","size_leaf_vector":"1"}},{"base_weights":[6.277895E-2,-3.1487625E-2,4.5913154E-1,4.115685E-2,8.0431235E-4],"categories":[],"categories_nodes":[],"categories_segments":[],"categories_sizes":[],"default_left":[0,0,0,0,0],"id":34,"left_children":[1,-1,3,-1,-1],"loss_changes":[6.1049523E0,0E0,2.190511E0,0E0,0E0],"parents":[2147483647,0,0,2,2],"right_children":[2,-1,4,-1,-1],"split_conditions":[1.5E1,-3.1487625E-2,1E0,4.115685E-2,8.0431235E-4],"split_indices":[0,0,29,0,0],"split_type":[0,0,0,0,0],"sum_hessian":[2.0250124E1,7.0648375E0,1.31852865E1,6.6434326E0,6.541854E0],"tree_param":{"num_deleted":"0","num_feature":"38","num_nodes":"5","size_leaf_vector":"1"}},{"base_weights":[6.367413E-2,-2.1816356E-2,3.205233E-1,2.674362E-2,3.923626E-3],"categories":[],"categories_nodes":[],"categories_segments":[],"categories_sizes":[],"default_left":[0,0,0,0,0],"id":35,"left_children":[1,-1,3,-1,-1],"loss_changes":[2.7978885E0,0E0,6.4596534E-1,0E0,0E0],"parents":[2147483647,0,0,2,2],"right_children":[2,-1,4,-1,-1],"split_conditions":[8E0,-2.1816356E-2,1.98E2,2.674362E-2,3.923626E-3],"split_indices":[0,0,0,0,0],"split_type":[0,0,0,0,0],"sum_hessian":[1.9787369E1,6.3458924E0,1.3441477E1,6.267965E0,7.1735115E0],"tree_param":{"num_deleted":"0","num_feature":"38","num_nodes":"5","size_leaf_vector":"1"}},{"base_weights":[-1.2653957E-1,-3.23026E-2,2.0421521E-1,2.9252315E-2,-7.2687133E-3],"categories":[],"categories_nodes":[],"categories_segments":[],"categories_sizes":[],"default_left":[0,0,0,0,0],"id":36,"left_children":[1,-1,3,-1,-1],"loss_changes":[3.5986314E0,0E0,1.8347402E0,0E0,0E0],"parents":[2147483647,0,0,2,2],"right_children":[2,-1,4,-1,-1],"split_conditions":[5.3E1,-3.23026E-2,1E0,2.9252315E-2,-7.2687133E-3],"split_indices":[0,0,29,0,0],"split_type":[0,0,0,0,0],"sum_hessian":[1.8917883E1,7.1058645E0,1.1812018E1,5.4679465E0,6.3440723E0],"tree_param":{"num_deleted":"0","num_feature":"38","num_nodes":"5","size_leaf_vector":"1"}},{"base_weights":[-2.0640808E-1,-4.071389E-2,1.8483879E-2],"categories":[],"categories_nodes":[],"categories_segments":[],"categories_sizes":[],"default_left":[0,0,0],"id":37,"left_children":[1,-1,-1],"loss_changes":[7.565916E0,0E0,0E0],"parents":[2147483647,0,0],"right_children":[2,-1,-1],"split_conditions":[1.58E2,-4.071389E-2,1.8483879E-2],"split_indices":[0,0,0],"split_type":[0,0,0],"sum_hessian":[1.9618916E1,9.429396E0,1.018952E1],"tree_param":{"num_deleted":"0","num_feature":"38","num_nodes":"3","size_leaf_vector":"1"}},{"base_weights":[-4.0855024E-2,-2.6902264E-1,2.809375E-2,6.2481943E-3,-4.4017393E-2],"categories":[],"categories_nodes":[],"categories_segments":[],"categories_sizes":[],"default_left":[0,0,0,0,0],"id":38,"left_children":[1,3,-1,-1,-1],"loss_changes":[3.1531599E0,4.2284603E0,0E0,0E0,0E0],"parents":[2147483647,0,0,1,1],"right_children":[2,4,-1,-1,-1],"split_conditions":[1.795422E-1,1.98E2,2.809375E-2,6.2481943E-3,-4.4017393E-2],"split_indices":[34,33,0,0,0],"split_type":[0,0,0,0,0],"sum_hessian":[2.1041967E1,1.5785739E1,5.256229E0,9.983551E0,5.8021874E0],"tree_param":{"num_deleted":"0","num_feature":"38","num_nodes":"5","size_leaf_vector":"1"}},{"base_weights":[7.685394E-2,-1.4403285E-2,4.1315842E-1,4.09861E-3,3.1716604E-2],"categories":[],"categories_nodes":[],"categories_segments":[],"categories_sizes":[],"default_left":[0,0,0,0,0],"id":39,"left_children":[1,-1,3,-1,-1],"loss_changes":[2.7694163E0,0E0,7.3626566E-1,0E0,0E0],"parents":[2147483647,0,0,2,2],"right_children":[2,-1,4,-1,-1],"split_conditions":[1.58E2,-1.4403285E-2,2E-1,4.09861E-3,3.1716604E-2],"split_indices":[0,0,6,0,0],"split_type":[0,0,0,0,0],"sum_hessian":[2.0494476E1,9.7552595E0,1.0739217E1,5.030013E0,5.7092037E0],"tree_param":{"num_deleted":"0","num_feature":"38","num_nodes":"5","size_leaf_vector":"1"}},{"base_weights":[4.8640173E-2,-1.8945238E-2,2.2950338E-2],"categories":[],"categories_nodes":[],"categories_segments":[],"categories_sizes":[],"default_left":[0,0,0],"id":40,"left_children":[1,-1,-1],"loss_changes":[3.7655313E0,0E0,0E0],"parents":[2147483647,0,0],"right_children":[2,-1,-1],"split_conditions":[1.33E2,-1.8945238E-2,2.2950338E-2],"split_indices":[0,0,0],"split_type":[0,0,0],"sum_hessian":[1.9425182E1,9.431674E0,9.993509E0],"tree_param":{"num_deleted":"0","num_feature":"38","num_nodes":"3","size_leaf_vector":"1"}},{"base_weights":[4.9785398E-2,-1.606376E-2,2.1459768E-2],"categories":[],"categories_nodes":[],"categories_segments":[],"categories_sizes":[],"default_left":[0,0,0],"id":41,"left_children":[1,-1,-1],"loss_changes":[2.87834E0,0E0,0E0],"parents":[2147483647,0,0],"right_children":[2,-1,-1],"split_conditions":[1.58E2,-1.606376E-2,2.1459768E-2],"split_indices":[0,0,0],"split_type":[0,0,0],"sum_hessian":[1.8388971E1,9.240994E0,9.147978E0],"tree_param":{"num_deleted":"0","num_feature":"38","num_nodes":"3","size_leaf_vector":"1"}},{"base_weights":[-8.204653E-2,-2.3106609E-2,1.4971244E-2],"categories":[],"categories_nodes":[],"categories_segments":[],"categories_sizes":[],"default_left":[0,0,0],"id":42,"left_children":[1,-1,-1],"loss_changes":[3.142332E0,0E0,0E0],"parents":[2147483647,0,0],"right_children":[2,-1,-1],"split_conditions":[1.58E2,-2.3106609E-2,1.4971244E-2],"split_indices":[0,0,0],"split_type":[0,0,0],"sum_hessian":[1.9605906E1,9.846185E0,9.759721E0],"tree_param":{"num_deleted":"0","num_feature":"38","num_nodes":"3","size_leaf_vector":"1"}},{"base_weights":[1.751992E-2,3.074152E-1,-2.0428931E-2,6.463109E-3,2.049481E-2],"categories":[],"categories_nodes":[],"categories_segments":[],"categories_sizes":[],"default_left":[0,0,0,0,0],"id":43,"left_children":[1,3,-1,-1,-1],"loss_changes":[2.4417398E0,1.10686064E-1,0E0,0E0,0E0],"parents":[2147483647,0,0,1,1],"right_children":[2,4,-1,-1,-1],"split_conditions":[4.5945945E-1,3E-1,-2.0428931E-2,6.463109E-3,2.049481E-2],"split_indices":[6,1,0,0,0],"split_type":[0,0,0,0,0],"sum_hessian":[1.7832401E1,1.0917753E1,6.914648E0,5.169029E0,5.748724E0],"tree_param":{"num_deleted":"0","num_feature":"38","num_nodes":"5","size_leaf_vector":"1"}},{"base_weights":[5.0911054E-2,-2.9171212E-2,4.304481E-1,3.6056094E-2,2.2891664E-3],"categories":[],"categories_nodes":[],"categories_segments":[],"categories_sizes":[],"default_left":[0,0,0,0,0],"id":44,"left_children":[1,-1,3,-1,-1],"loss_changes":[5.1311088E0,0E0,1.3880827E0,0E0,0E0],"parents":[2147483647,0,0,2,2],"right_children":[2,-1,4,-1,-1],"split_conditions":[6.784817E-2,-2.9171212E-2,1.5476428E0,3.6056094E-2,2.2891664E-3],"split_indices":[2,0,2,0,0],"split_type":[0,0,0,0,0],"sum_hessian":[1.933311E1,6.9375057E0,1.2395605E1,6.41411E0,5.981495E0],"tree_param":{"num_deleted":"0","num_feature":"38","num_nodes":"5","size_leaf_vector":"1"}},{"base_weights":[2.9754523E-2,-1.4793682E-2,1.773826E-2],"categories":[],"categories_nodes":[],"categories_segments":[],"categories_sizes":[],"default_left":[0,0,0],"id":45,"left_children":[1,-1,-1],"loss_changes":[2.2172685E0,0E0,0E0],"parents":[2147483647,0,0],"right_children":[2,-1,-1],"split_conditions":[1.0177706E-1,-1.4793682E-2,1.773826E-2],"split_indices":[34,0,0],"split_type":[0,0,0],"sum_hessian":[1.8903254E1,9.333744E0,9.5695095E0],"tree_param":{"num_deleted":"0","num_feature":"38","num_nodes":"3","size_leaf_vector":"1"}},{"base_weights":[3.898526E-3,-2.5142146E-2,2.7089038E-1,2.9517854E-2,-2.330467E-3],"categories":[],"categories_nodes":[],"categories_segments":[],"categories_sizes":[],"default_left":[0,0,0,0,0],"id":46,"left_children":[1,-1,3,-1,-1],"loss_changes":[2.6997552E0,0E0,1.4310005E0,0E0,0E0],"parents":[2147483647,0,0,2,2],"right_children":[2,-1,4,-1,-1],"split_conditions":[8.854781E-3,-2.5142146E-2,1E0,2.9517854E-2,-2.330467E-3],"split_indices":[34,0,29,0,0],"split_type":[0,0,0,0,0],"sum_hessian":[1.8119102E1,5.818286E0,1.2300816E1,5.8600397E0,6.4407763E0],"tree_param":{"num_deleted":"0","num_feature":"38","num_nodes":"5","size_leaf_vector":"1"}},{"base_weights":[-1.1421765E-1,-3.8985398E-2,2.5379863E-1,1.8440656E-2,4.1346382E-3],"categories":[],"categories_nodes":[],"categories_segments":[],"categories_sizes":[],"default_left":[0,0,0,0,0],"id":47,"left_children":[1,-1,3,-1,-1],"loss_changes":[4.66767E0,0E0,1.6584498E-1,0E0,0E0],"parents":[2147483647,0,0,2,2],"right_children":[2,-1,4,-1,-1],"split_conditions":[1.9314865E-2,-3.8985398E-2,6.666667E-1,1.8440656E-2,4.1346382E-3],"split_indices":[2,0,15,0,0],"split_type":[0,0,0,0,0],"sum_hessian":[1.7035877E1,5.7646356E0,1.1271243E1,5.6999393E0,5.571304E0],"tree_param":{"num_deleted":"0","num_feature":"38","num_nodes":"5","size_leaf_vector":"1"}},{"base_weights":[1.3615355E-1,-2.1875238E-2,4.0462032E-1,-0E0,3.181786E-2],"categories":[],"categories_nodes":[],"categories_segments":[],"categories_sizes":[],"default_left":[0,0,0,0,0],"id":48,"left_children":[1,-1,3,-1,-1],"loss_changes":[3.1548805E0,0E0,1.2416203E0,0E0,0E0],"parents":[2147483647,0,0,2,2],"right_children":[2,-1,4,-1,-1],"split_conditions":[1.9314865E-2,-2.1875238E-2,9.189189E-2,-0E0,3.181786E-2],"split_indices":[2,0,5,0,0],"split_type":[0,0,0,0,0],"sum_hessian":[1.8357058E1,5.532696E0,1.2824362E1,5.169201E0,7.6551614E0],"tree_param":{"num_deleted":"0","num_feature":"38","num_nodes":"5","size_leaf_vector":"1"}},{"base_weights":[-7.139404E-2,8.141593E-3,-1.49707E-2],"categories":[],"categories_nodes":[],"categories_segments":[],"categories_sizes":[],"default_left":[0,0,0],"id":49,"left_children":[1,-1,-1],"loss_changes":[1.1090645E0,0E0,0E0],"parents":[2147483647,0,0],"right_children":[2,-1,-1],"split_conditions":[1.98E2,8.141593E-3,-1.49707E-2],"split_indices":[33,0,0],"split_type":[0,0,0],"sum_hessian":[1.8597225E1,9.098463E0,9.498762E0],"tree_param":{"num_deleted":"0","num_feature":"38","num_nodes":"3","size_leaf_vector":"1"}},{"base_weights":[-1.7763846E-2,-2.3645902E-2,1.96722E-1,3.0079994E-2,-1.0116209E-2],"categories":[],"categories_nodes":[],"categories_segments":[],"categories_sizes":[],"default_left":[0,0,0,0,0],"id":50,"left_children":[1,-1,3,-1,-1],"loss_changes":[1.9770354E0,0E0,2.3398323E0,0E0,0E0],"parents":[2147483647,0,0,2,2],"right_children":[2,-1,4,-1,-1],"split_conditions":[1.5E1,-2.3645902E-2,3.8E-1,3.0079994E-2,-1.0116209E-2],"split_indices":[0,0,1,0,0],"split_type":[0,0,0,0,0],"sum_hessian":[1.8015612E1,5.533811E0,1.24818E1,6.068062E0,6.413738E0],"tree_param":{"num_deleted":"0","num_feature":"38","num_nodes":"5","size_leaf_vector":"1"}},{"base_weights":[1.0238308E-1,-2.3502098E-2,3.9185768E-1,3.2365616E-2,4.955478E-3],"categories":[],"categories_nodes":[],"categories_segments":[],"categories_sizes":[],"default_left":[0,0,0,0,0],"id":51,"left_children":[1,-1,3,-1,-1],"loss_changes":[3.1418571E0,0E0,7.9953E-1,0E0,0E0],"parents":[2147483647,0,0,2,2],"right_children":[2,-1,4,-1,-1],"split_conditions":[1.9E1,-2.3502098E-2,1E0,3.2365616E-2,4.955478E-3],"split_indices":[0,0,29,0,0],"split_type":[0,0,0,0,0],"sum_hessian":[1.6896446E1,5.3492594E0,1.1547187E1,5.337174E0,6.2100124E0],"tree_param":{"num_deleted":"0","num_feature":"38","num_nodes":"5","size_leaf_vector":"1"}},{"base_weights":[1.4744973E-1,-1.8119687E-2,4.0114093E-1,2.9593244E-2,7.773192E-3],"categories":[],"categories_nodes":[],"categories_segments":[],"categories_sizes":[],"default_left":[0,0,0,0,0],"id":52,"left_children":[1,-1,3,-1,-1],"loss_changes":[2.3950753E0,0E0,4.0489566E-1,0E0,0E0],"parents":[2147483647,0,0,2,2],"right_children":[2,-1,4,-1,-1],"split_conditions":[1.9314865E-2,-1.8119687E-2,1E0,2.9593244E-2,7.773192E-3],"split_indices":[2,0,29,0,0],"split_type":[0,0,0,0,0],"sum_hessian":[1.6363392E1,5.163545E0,1.1199846E1,5.282658E0,5.917188E0],"tree_param":{"num_deleted":"0","num_feature":"38","num_nodes":"5","size_leaf_vector":"1"}},{"base_weights":[-2.4805376E-2,-1.7643726E-1,1.5697604E-2,7.92919E-3,-3.2887947E-2],"categories":[],"categories_nodes":[],"categories_segments":[],"categories_sizes":[],"default_left":[0,0,0,0,0],"id":53,"left_children":[1,3,-1,-1,-1],"loss_changes":[1.0238807E0,2.420413E0,0E0,0E0,0E0],"parents":[2147483647,0,0,1,1],"right_children":[2,4,-1,-1,-1],"split_conditions":[1.6361555E-1,1.98E2,1.5697604E-2,7.92919E-3,-3.2887947E-2],"split_indices":[34,33,0,0,0],"split_type":[0,0,0,0,0],"sum_hessian":[1.8122204E1,1.3053611E1,5.068592E0,7.969353E0,5.0842576E0],"tree_param":{"num_deleted":"0","num_feature":"38","num_nodes":"5","size_leaf_vector":"1"}},{"base_weights":[9.282738E-2,-1.6006192E-2,2.109626E-2],"categories":[],"categories_nodes":[],"categories_segments":[],"categories_sizes":[],"default_left":[0,0,0],"id":54,"left_children":[1,-1,-1],"loss_changes":[2.5919826E0,0E0,0E0],"parents":[2147483647,0,0],"right_children":[2,-1,-1],"split_conditions":[1E0,-1.6006192E-2,2.109626E-2],"split_indices":[25,0,0],"split_type":[0,0,0],"sum_hessian":[1.700375E1,7.418473E0,9.585277E0],"tree_param":{"num_deleted":"0","num_feature":"38","num_nodes":"3","size_leaf_vector":"1"}},{"base_weights":[-1.0406843E-1,-3.0774555E-1,1.7515793E-2,1.9715927E-4,-2.9541045E-2],"categories":[],"categories_nodes":[],"categories_segments":[],"categories_sizes":[],"default_left":[0,0,0,0,0],"id":55,"left_children":[1,3,-1,-1,-1],"loss_changes":[1.9069961E0,1.3085772E0,0E0,0E0,0E0],"parents":[2147483647,0,0,1,1],"right_children":[2,4,-1,-1,-1],"split_conditions":[1.6361555E-1,3.3783785E-1,1.7515793E-2,1.9715927E-4,-2.9541045E-2],"split_indices":[34,5,0,0,0],"split_type":[0,0,0,0,0],"sum_hessian":[1.8486656E1,1.3139633E1,5.347024E0,6.554932E0,6.5847006E0],"tree_param":{"num_deleted":"0","num_feature":"38","num_nodes":"5","size_leaf_vector":"1"}},{"base_weights":[-7.830857E-2,-1.89455E-2,9.133092E-3],"categories":[],"categories_nodes":[],"categories_segments":[],"categories_sizes":[],"default_left":[0,0,0],"id":56,"left_children":[1,-1,-1],"loss_changes":[1.6248744E0,0E0,0E0],"parents":[2147483647,0,0],"right_children":[2,-1,-1],"split_conditions":[1.58E2,-1.89455E-2,9.133092E-3],"split_indices":[0,0,0],"split_type":[0,0,0],"sum_hessian":[1.8580301E1,8.602585E0,9.977717E0],"tree_param":{"num_deleted":"0","num_feature":"38","num_nodes":"3","size_leaf_vector":"1"}},{"base_weights":[-1.5979068E-1,-2.0963622E-2,5.2857995E-3],"categories":[],"categories_nodes":[],"categories_segments":[],"categories_sizes":[],"default_left":[0,0,0],"id":57,"left_children":[1,-1,-1],"loss_changes":[1.3124007E0,0E0,0E0],"parents":[2147483647,0,0],"right_children":[2,-1,-1],"split_conditions":[1.0177706E-1,-2.0963622E-2,5.2857995E-3],"split_indices":[34,0,0],"split_type":[0,0,0],"sum_hessian":[1.6951038E1,8.470374E0,8.480665E0],"tree_param":{"num_deleted":"0","num_feature":"38","num_nodes":"3","size_leaf_vector":"1"}},{"base_weights":[-9.2375726E-2,-1.9337378E-2,9.7081475E-3],"categories":[],"categories_nodes":[],"categories_segments":[],"categories_sizes":[],"default_left":[0,0,0],"id":58,"left_children":[1,-1,-1],"loss_changes":[1.5916553E0,0E0,0E0],"parents":[2147483647,0,0],"right_children":[2,-1,-1],"split_conditions":[1.0035843E-1,-1.9337378E-2,9.7081475E-3],"split_indices":[34,0,0],"split_type":[0,0,0],"sum_hessian":[1.675132E1,8.262361E0,8.488959E0],"tree_param":{"num_deleted":"0","num_feature":"38","num_nodes":"3","size_leaf_vector":"1"}},{"base_weights":[6.449098E-2,-1.31305335E-2,2.1403351E-1,2.4442805E-2,-1.6479081E-3],"categories":[],"categories_nodes":[],"categories_segments":[],"categories_sizes":[],"default_left":[0,0,0,0,0],"id":59,"left_children":[1,-1,3,-1,-1],"loss_changes":[9.598112E-1,0E0,9.7847253E-1,0E0,0E0],"parents":[2147483647,0,0,2,2],"right_children":[2,-1,4,-1,-1],"split_conditions":[1.9E1,-1.31305335E-2,1.98E2,2.4442805E-2,-1.6479081E-3],"split_indices":[0,0,0,0,0],"split_type":[0,0,0,0,0],"sum_hessian":[1.7572014E1,5.066033E0,1.25059805E1,5.64762E0,6.858361E0],"tree_param":{"num_deleted":"0","num_feature":"38","num_nodes":"5","size_leaf_vector":"1"}},{"base_weights":[-6.5584625E-3,-1.8963752E-2,1.5454279E-1,1.7835597E-2,-6.325189E-4],"categories":[],"categories_nodes":[],"categories_segments":[],"categories_sizes":[],"default_left":[0,0,0,0,0],"id":60,"left_children":[1,-1,3,-1,-1],"loss_changes":[1.1977277E0,0E0,4.9549133E-1,0E0,0E0],"parents":[2147483647,0,0,2,2],"right_children":[2,-1,4,-1,-1],"split_conditions":[1.9314865E-2,-1.8963752E-2,1.98E2,1.7835597E-2,-6.325189E-4],"split_indices":[2,0,33,0,0],"split_type":[0,0,0,0,0],"sum_hessian":[1.759669E1,5.089143E0,1.2507547E1,5.4192257E0,7.0883217E0],"tree_param":{"num_deleted":"0","num_feature":"38","num_nodes":"5","size_leaf_vector":"1"}},{"base_weights":[-1.5023825E-1,-2.825129E-2,1.1927855E-2],"categories":[],"categories_nodes":[],"categories_segments":[],"categories_sizes":[],"default_left":[0,0,0],"id":61,"left_children":[1,-1,-1],"loss_changes":[3.0695546E0,0E0,0E0],"parents":[2147483647,0,0],"right_children":[2,-1,-1],"split_conditions":[1.0177706E-1,-2.825129E-2,1.1927855E-2],"split_indices":[34,0,0],"split_type":[0,0,0],"sum_hessian":[1.6995672E1,8.128106E0,8.867565E0],"tree_param":{"num_deleted":"0","num_feature":"38","num_nodes":"3","size_leaf_vector":"1"}},{"base_weights":[6.515613E-2,1.296771E-2,-1.0747186E-2],"categories":[],"categories_nodes":[],"categories_segments":[],"categories_sizes":[],"default_left":[0,0,0],"id":62,"left_children":[1,-1,-1],"loss_changes":[9.7710687E-1,0E0,0E0],"parents":[2147483647,0,0],"right_children":[2,-1,-1],"split_conditions":[4.5945945E-1,1.296771E-2,-1.0747186E-2],"split_indices":[6,0,0],"split_type":[0,0,0],"sum_hessian":[1.5856731E1,9.618878E0,6.2378535E0],"tree_param":{"num_deleted":"0","num_feature":"38","num_nodes":"3","size_leaf_vector":"1"}},{"base_weights":[-4.403182E-2,-1.9740422E-1,1.1310418E-2,6.8300515E-3,-2.7483732E-2],"categories":[],"categories_nodes":[],"categories_segments":[],"categories_sizes":[],"default_left":[0,0,0,0,0],"id":63,"left_children":[1,3,-1,-1,-1],"loss_changes":[7.7310324E-1,1.5314207E0,0E0,0E0,0E0],"parents":[2147483647,0,0,1,1],"right_children":[2,4,-1,-1,-1],"split_conditions":[2.9525E-1,2.13E2,1.1310418E-2,6.8300515E-3,-2.7483732E-2],"split_indices":[8,33,0,0,0],"split_type":[0,0,0,0,0],"sum_hessian":[1.6644758E1,1.1026392E1,5.6183662E0,5.8284755E0,5.197917E0],"tree_param":{"num_deleted":"0","num_feature":"38","num_nodes":"5","size_leaf_vector":"1"}},{"base_weights":[-2.2033276E-2,-2.2650069E-2,1.879773E-1,2.1548579E-2,-3.941724E-3],"categories":[],"categories_nodes":[],"categories_segments":[],"categories_sizes":[],"default_left":[0,0,0,0,0],"id":64,"left_children":[1,-1,3,-1,-1],"loss_changes":[1.6982688E0,0E0,8.690596E-1,0E0,0E0],"parents":[2147483647,0,0,2,2],"right_children":[2,-1,4,-1,-1],"split_conditions":[2.0564398E-1,-2.2650069E-2,1.5476428E0,2.1548579E-2,-3.941724E-3],"split_indices":[2,0,2,0,0],"split_type":[0,0,0,0,0],"sum_hessian":[1.6530106E1,5.19285E0,1.13372555E1,5.8076077E0,5.529648E0],"tree_param":{"num_deleted":"0","num_feature":"38","num_nodes":"5","size_leaf_vector":"1"}},{"base_weights":[-9.450727E-2,3.371182E-2,-1.5506751E-2,3.2891955E-2,-3.1022588E-2],"categories":[],"categories_nodes":[],"categories_segments":[],"categories_sizes":[],"default_left":[0,0,0,0,0],"id":65,"left_children":[1,3,-1,-1,-1],"loss_changes":[5.225271E-1,5.1475453E0,0E0,0E0,0E0],"parents":[2147483647,0,0,1,1],"right_children":[2,4,-1,-1,-1],"split_conditions":[2E0,2.15E2,-1.5506751E-2,3.2891955E-2,-3.1022588E-2],"split_indices":[25,33,0,0,0],"split_type":[0,0,0,0,0],"sum_hessian":[1.6521584E1,1.0598987E1,5.922598E0,5.4993706E0,5.0996156E0],"tree_param":{"num_deleted":"0","num_feature":"38","num_nodes":"5","size_leaf_vector":"1"}},{"base_weights":[-0E0,1.3038623E-2,-1.2468186E-2],"categories":[],"categories_nodes":[],"categories_segments":[],"categories_sizes":[],"default_left":[0,0,0],"id":66,"left_children":[1,-1,-1],"loss_changes":[1.3053083E0,0E0,0E0],"parents":[2147483647,0,0],"right_children":[2,-1,-1],"split_conditions":[1.98E2,1.3038623E-2,-1.2468186E-2],"split_indices":[33,0,0],"split_type":[0,0,0],"sum_hessian":[1.8088799E1,8.64625E0,9.442548E0],"tree_param":{"num_deleted":"0","num_feature":"38","num_nodes":"3","size_leaf_vector":"1"}},{"base_weights":[5.8448337E-2,-2.3800243E-2,3.5157257E-1,2.9095078E-2,2.0289298E-3],"categories":[],"categories_nodes":[],"categories_segments":[],"categories_sizes":[],"default_left":[0,0,0,0,0],"id":67,"left_children":[1,-1,3,-1,-1],"loss_changes":[2.7053668E0,0E0,7.171056E-1,0E0,0E0],"parents":[2147483647,0,0,2,2],"right_children":[2,-1,4,-1,-1],"split_conditions":[4.7919292E-2,-2.3800243E-2,1E0,2.9095078E-2,2.0289298E-3],"split_indices":[34,0,29,0,0],"split_type":[0,0,0,0,0],"sum_hessian":[1.52801E1,5.0703254E0,1.0209774E1,5.1804023E0,5.0293717E0],"tree_param":{"num_deleted":"0","num_feature":"38","num_nodes":"5","size_leaf_vector":"1"}},{"base_weights":[-2.5218334E-2,-1.1103916E-2,7.314758E-3],"categories":[],"categories_nodes":[],"categories_segments":[],"categories_sizes":[],"default_left":[0,0,0],"id":68,"left_children":[1,-1,-1],"loss_changes":[6.705582E-1,0E0,0E0],"parents":[2147483647,0,0],"right_children":[2,-1,-1],"split_conditions":[1E0,-1.1103916E-2,7.314758E-3],"split_indices":[25,0,0],"split_type":[0,0,0],"sum_hessian":[1.7673386E1,8.362869E0,9.310517E0],"tree_param":{"num_deleted":"0","num_feature":"38","num_nodes":"3","size_leaf_vector":"1"}},{"base_weights":[1.4379E-1,-1.28768785E-2,3.447873E-1,2.6647067E-2,3.7302175E-3],"categories":[],"categories_nodes":[],"categories_segments":[],"categories_sizes":[],"default_left":[0,0,0,0,0],"id":69,"left_children":[1,-1,3,-1,-1],"loss_changes":[1.5561051E0,0E0,5.421277E-1,0E0,0E0],"parents":[2147483647,0,0,2,2],"right_children":[2,-1,4,-1,-1],"split_conditions":[2.0564398E-1,-1.28768785E-2,1.5476428E0,2.6647067E-2,3.7302175E-3],"split_indices":[2,0,2,0,0],"split_type":[0,0,0,0,0],"sum_hessian":[1.7081827E1,5.440355E0,1.1641473E1,6.071012E0,5.570461E0],"tree_param":{"num_deleted":"0","num_feature":"38","num_nodes":"5","size_leaf_vector":"1"}},{"base_weights":[-8.009753E-2,-2.671741E-1,1.6652795E-2,-3.6657874E-3,-2.3301063E-2],"categories":[],"categories_nodes":[],"categories_segments":[],"categories_sizes":[],"default_left":[0,0,0,0,0],"id":70,"left_children":[1,3,-1,-1,-1],"loss_changes":[1.5671167E0,4.49408E-1,0E0,0E0,0E0],"parents":[2147483647,0,0,1,1],"right_children":[2,4,-1,-1,-1],"split_conditions":[2.51E2,6.850447E-1,1.6652795E-2,-3.6657874E-3,-2.3301063E-2],"split_indices":[0,2,0,0,0],"split_type":[0,0,0,0,0],"sum_hessian":[1.8209415E1,1.2943807E1,5.2656074E0,7.50181E0,5.441997E0],"tree_param":{"num_deleted":"0","num_feature":"38","num_nodes":"5","size_leaf_vector":"1"}},{"base_weights":[-2.6512166E-2,-1.3045594E-2,1.6060716E-2],"categories":[],"categories_nodes":[],"categories_segments":[],"categories_sizes":[],"default_left":[0,0,0],"id":71,"left_children":[1,-1,-1],"loss_changes":[1.4547073E0,0E0,0E0],"parents":[2147483647,0,0],"right_children":[2,-1,-1],"split_conditions":[1.263473E-1,-1.3045594E-2,1.6060716E-2],"split_indices":[34,0,0],"split_type":[0,0,0],"sum_hessian":[1.5893386E1,9.8146515E0,6.078735E0],"tree_param":{"num_deleted":"0","num_feature":"38","num_nodes":"3","size_leaf_vector":"1"}},{"base_weights":[4.2019635E-2,-1.511387E-2,1.2009645E-2],"categories":[],"categories_nodes":[],"categories_segments":[],"categories_sizes":[],"default_left":[0,0,0],"id":72,"left_children":[1,-1,-1],"loss_changes":[1.1765015E0,0E0,0E0],"parents":[2147483647,0,0],"right_children":[2,-1,-1],"split_conditions":[2.0564398E-1,-1.511387E-2,1.2009645E-2],"split_indices":[2,0,0],"split_type":[0,0,0],"sum_hessian":[1.5269934E1,5.202107E0,1.0067827E1],"tree_param":{"num_deleted":"0","num_feature":"38","num_nodes":"3","size_leaf_vector":"1"}},{"base_weights":[9.495869E-2,-1.6987054E-2,1.6563242E-2],"categories":[],"categories_nodes":[],"categories_segments":[],"categories_sizes":[],"default_left":[0,0,0],"id":73,"left_children":[1,-1,-1],"loss_changes":[1.8727499E0,0E0,0E0],"parents":[2147483647,0,0],"right_children":[2,-1,-1],"split_conditions":[5.3E1,-1.6987054E-2,1.6563242E-2],"split_indices":[0,0,0],"split_type":[0,0,0],"sum_hessian":[1.6143839E1,5.3821487E0,1.076169E1],"tree_param":{"num_deleted":"0","num_feature":"38","num_nodes":"3","size_leaf_vector":"1"}},{"base_weights":[-4.969878E-2,1.1220917E-2,-1.968014E-2],"categories":[],"categories_nodes":[],"categories_segments":[],"categories_sizes":[],"default_left":[0,0,0],"id":74,"left_children":[1,-1,-1],"loss_changes":[1.6805439E0,0E0,0E0],"parents":[2147483647,0,0],"right_children":[2,-1,-1],"split_conditions":[1E0,1.1220917E-2,-1.968014E-2],"split_indices":[29,0,0],"split_type":[0,0,0],"sum_hessian":[1.5710448E1,8.773765E0,6.9366837E0],"tree_param":{"num_deleted":"0","num_feature":"38","num_nodes":"3","size_leaf_vector":"1"}},{"base_weights":[2.9971652E-2,-1.1691099E-2,1.4755365E-2],"categories":[],"categories_nodes":[],"categories_segments":[],"categories_sizes":[],"default_left":[0,0,0],"id":75,"left_children":[1,-1,-1],"loss_changes":[1.3351452E0,0E0,0E0],"parents":[2147483647,0,0],"right_children":[2,-1,-1],"split_conditions":[1.0035843E-1,-1.1691099E-2,1.4755365E-2],"split_indices":[34,0,0],"split_type":[0,0,0],"sum_hessian":[1.7015362E1,8.399408E0,8.615954E0],"tree_param":{"num_deleted":"0","num_feature":"38","num_nodes":"3","size_leaf_vector":"1"}},{"base_weights":[5.867114E-2,1.493705E-2,-1.2552579E-2],"categories":[],"categories_nodes":[],"categories_segments":[],"categories_sizes":[],"default_left":[0,0,0],"id":76,"left_children":[1,-1,-1],"loss_changes":[1.3196174E0,0E0,0E0],"parents":[2147483647,0,0],"right_children":[2,-1,-1],"split_conditions":[1E0,1.493705E-2,-1.2552579E-2],"split_indices":[29,0,0],"split_type":[0,0,0],"sum_hessian":[1.5674704E1,9.032122E0,6.642582E0],"tree_param":{"num_deleted":"0","num_feature":"38","num_nodes":"3","size_leaf_vector":"1"}},{"base_weights":[3.5921512E-3,-1.7004086E-2,1.3678809E-2],"categories":[],"categories_nodes":[],"categories_segments":[],"categories_sizes":[],"default_left":[0,0,0],"id":77,"left_children":[1,-1,-1],"loss_changes":[1.5875298E0,0E0,0E0],"parents":[2147483647,0,0],"right_children":[2,-1,-1],"split_conditions":[1E0,-1.7004086E-2,1.3678809E-2],"split_indices":[25,0,0],"split_type":[0,0,0],"sum_hessian":[1.5178463E1,6.4007077E0,8.777755E0],"tree_param":{"num_deleted":"0","num_feature":"38","num_nodes":"3","size_leaf_vector":"1"}},{"base_weights":[-5.5450402E-2,1.1841613E-2,-1.503134E-2],"categories":[],"categories_nodes":[],"categories_segments":[],"categories_sizes":[],"default_left":[0,0,0],"id":78,"left_children":[1,-1,-1],"loss_changes":[1.3169876E0,0E0,0E0],"parents":[2147483647,0,0],"right_children":[2,-1,-1],"split_conditions":[1.97E2,1.1841613E-2,-1.503134E-2],"split_indices":[33,0,0],"split_type":[0,0,0],"sum_hessian":[1.629551E1,7.263099E0,9.032411E0],"tree_param":{"num_deleted":"0","num_feature":"38","num_nodes":"3","size_leaf_vector":"1"}},{"base_weights":[9.822649E-2,-7.64804E-2,2.2265604E-2,1.1015415E-2,-2.0050615E-2],"categories":[],"categories_nodes":[],"categories_segments":[],"categories_sizes":[],"default_left":[0,0,0,0,0],"id":79,"left_children":[1,3,-1,-1,-1],"loss_changes":[1.1102276E0,1.2682335E0,0E0,0E0,0E0],"parents":[2147483647,0,0,1,1],"right_children":[2,4,-1,-1,-1],"split_conditions":[2.51E2,1.77E2,2.2265604E-2,1.1015415E-2,-2.0050615E-2],"split_indices":[0,33,0,0,0],"split_type":[0,0,0,0,0],"sum_hessian":[1.6139132E1,1.1062377E1,5.076755E0,5.7849646E0,5.277412E0],"tree_param":{"num_deleted":"0","num_feature":"38","num_nodes":"5","size_leaf_vector":"1"}},{"base_weights":[4.028734E-2,-1.2525702E-2,1.730254E-2],"categories":[],"categories_nodes":[],"categories_segments":[],"categories_sizes":[],"default_left":[0,0,0],"id":80,"left_children":[1,-1,-1],"loss_changes":[1.6577897E0,0E0,0E0],"parents":[2147483647,0,0],"right_children":[2,-1,-1],"split_conditions":[1.0177706E-1,-1.2525702E-2,1.730254E-2],"split_indices":[34,0,0],"split_type":[0,0,0],"sum_hessian":[1.6561945E1,8.413649E0,8.148297E0],"tree_param":{"num_deleted":"0","num_feature":"38","num_nodes":"3","size_leaf_vector":"1"}},{"base_weights":[-7.909094E-2,-1.7975453E-2,1.9239228E-2],"categories":[],"categories_nodes":[],"categories_segments":[],"categories_sizes":[],"default_left":[0,0,0],"id":81,"left_children":[1,-1,-1],"loss_changes":[2.2871392E0,0E0,0E0],"parents":[2147483647,0,0],"right_children":[2,-1,-1],"split_conditions":[1.263473E-1,-1.7975453E-2,1.9239228E-2],"split_indices":[34,0,0],"split_type":[0,0,0],"sum_hessian":[1.5538655E1,9.958929E0,5.5797257E0],"tree_param":{"num_deleted":"0","num_feature":"38","num_nodes":"3","size_leaf_vector":"1"}},{"base_weights":[-1.7736991E-1,-1.5705144E-2,3.0276494E-3],"categories":[],"categories_nodes":[],"categories_segments":[],"categories_sizes":[],"default_left":[0,0,0],"id":82,"left_children":[1,-1,-1],"loss_changes":[5.7132924E-1,0E0,0E0],"parents":[2147483647,0,0],"right_children":[2,-1,-1],"split_conditions":[1.263473E-1,-1.5705144E-2,3.0276494E-3],"split_indices":[34,0,0],"split_type":[0,0,0],"sum_hessian":[1.5198082E1,9.715027E0,5.4830546E0],"tree_param":{"num_deleted":"0","num_feature":"38","num_nodes":"3","size_leaf_vector":"1"}},{"base_weights":[2.714483E-2,-6.6348775E-3,9.994045E-3],"categories":[],"categories_nodes":[],"categories_segments":[],"categories_sizes":[],"default_left":[0,0,0],"id":83,"left_children":[1,-1,-1],"loss_changes":[5.035965E-1,0E0,0E0],"parents":[2147483647,0,0],"right_children":[2,-1,-1],"split_conditions":[1.0177706E-1,-6.6348775E-3,9.994045E-3],"split_indices":[34,0,0],"split_type":[0,0,0],"sum_hessian":[1.6035316E1,8.148201E0,7.887116E0],"tree_param":{"num_deleted":"0","num_feature":"38","num_nodes":"3","size_leaf_vector":"1"}},{"base_weights":[-0E0,1.4345162E-2,-1.2080444E-2],"categories":[],"categories_nodes":[],"categories_segments":[],"categories_sizes":[],"default_left":[0,0,0],"id":84,"left_children":[1,-1,-1],"loss_changes":[1.2817822E0,0E0,0E0],"parents":[2147483647,0,0],"right_children":[2,-1,-1],"split_conditions":[1.98E2,1.4345162E-2,-1.2080444E-2],"split_indices":[33,0,0],"split_type":[0,0,0],"sum_hessian":[1.6439882E1,7.578472E0,8.861409E0],"tree_param":{"num_deleted":"0","num_feature":"38","num_nodes":"3","size_leaf_vector":"1"}},{"base_weights":[-1.0721455E-1,9.048687E-3,-1.8076688E-2],"categories":[],"categories_nodes":[],"categories_segments":[],"categories_sizes":[],"default_left":[0,0,0],"id":85,"left_children":[1,-1,-1],"loss_changes":[1.3093543E0,0E0,0E0],"parents":[2147483647,0,0],"right_children":[2,-1,-1],"split_conditions":[1.98E2,9.048687E-3,-1.8076688E-2],"split_indices":[33,0,0],"split_type":[0,0,0],"sum_hessian":[1.5725883E1,7.322921E0,8.402962E0],"tree_param":{"num_deleted":"0","num_feature":"38","num_nodes":"3","size_leaf_vector":"1"}},{"base_weights":[1.7947903E-1,-3.2982242E-3,2.341171E-2],"categories":[],"categories_nodes":[],"categories_segments":[],"categories_sizes":[],"default_left":[0,0,0],"id":86,"left_children":[1,-1,-1],"loss_changes":[1.1100199E0,0E0,0E0],"parents":[2147483647,0,0],"right_children":[2,-1,-1],"split_conditions":[1.263473E-1,-3.2982242E-3,2.341171E-2],"split_indices":[34,0,0],"split_type":[0,0,0],"sum_hessian":[1.3658685E1,7.6129093E0,6.045775E0],"tree_param":{"num_deleted":"0","num_feature":"38","num_nodes":"3","size_leaf_vector":"1"}},{"base_weights":[-2.9332448E-2,1.3355926E-1,-1.8001717E-2,2.8656468E-2,-1.3180128E-2],"categories":[],"categories_nodes":[],"categories_segments":[],"categories_sizes":[],"default_left":[0,0,0,0,0],"id":87,"left_children":[1,3,-1,-1,-1],"loss_changes":[9.7922754E-1,2.2466502E0,0E0,0E0,0E0],"parents":[2147483647,0,0,1,1],"right_children":[2,4,-1,-1,-1],"split_conditions":[1.5E0,1.98E2,-1.8001717E-2,2.8656468E-2,-1.3180128E-2],"split_indices":[26,33,0,0,0],"split_type":[0,0,0,0,0],"sum_hessian":[1.5865008E1,1.0826176E1,5.038833E0,5.047944E0,5.778231E0],"tree_param":{"num_deleted":"0","num_feature":"38","num_nodes":"5","size_leaf_vector":"1"}},{"base_weights":[1.1134164E-2,2.3434186E-1,-1.5324852E-2,2.4703002E-2,-2.6903318E-3],"categories":[],"categories_nodes":[],"categories_segments":[],"categories_sizes":[],"default_left":[0,0,0,0,0],"id":88,"left_children":[1,3,-1,-1,-1],"loss_changes":[1.3309007E0,9.118672E-1,0E0,0E0,0E0],"parents":[2147483647,0,0,1,1],"right_children":[2,4,-1,-1,-1],"split_conditions":[3.8E-1,2.7027026E-1,-1.5324852E-2,2.4703002E-2,-2.6903318E-3],"split_indices":[1,5,0,0,0],"split_type":[0,0,0,0,0],"sum_hessian":[1.6860813E1,1.0241146E1,6.619668E0,5.1929774E0,5.048168E0],"tree_param":{"num_deleted":"0","num_feature":"38","num_nodes":"5","size_leaf_vector":"1"}},{"base_weights":[4.8110012E-2,-1.8491518E-2,1.7625747E-2],"categories":[],"categories_nodes":[],"categories_segments":[],"categories_sizes":[],"default_left":[0,0,0],"id":89,"left_children":[1,-1,-1],"loss_changes":[2.182354E0,0E0,0E0],"parents":[2147483647,0,0],"right_children":[2,-1,-1],"split_conditions":[9.189189E-2,-1.8491518E-2,1.7625747E-2],"split_indices":[5,0,0],"split_type":[0,0,0],"sum_hessian":[1.5142624E1,6.1522713E0,8.990353E0],"tree_param":{"num_deleted":"0","num_feature":"38","num_nodes":"3","size_leaf_vector":"1"}},{"base_weights":[-2.5502471E-2,-2.14343E-1,1.7232073E-2,1.1634464E-2,-3.5204396E-2],"categories":[],"categories_nodes":[],"categories_segments":[],"categories_sizes":[],"default_left":[0,0,0,0,0],"id":90,"left_children":[1,3,-1,-1,-1],"loss_changes":[1.2765887E0,2.906611E0,0E0,0E0,0E0],"parents":[2147483647,0,0,1,1],"right_children":[2,4,-1,-1,-1],"split_conditions":[2.77E2,2E-1,1.7232073E-2,1.1634464E-2,-3.5204396E-2],"split_indices":[33,1,0,0,0],"split_type":[0,0,0,0,0],"sum_hessian":[1.6393114E1,1.131268E1,5.0804334E0,6.081898E0,5.2307825E0],"tree_param":{"num_deleted":"0","num_feature":"38","num_nodes":"5","size_leaf_vector":"1"}},{"base_weights":[1.7465636E-1,-7.252037E-3,3.304592E-2],"categories":[],"categories_nodes":[],"categories_segments":[],"categories_sizes":[],"default_left":[0,0,0],"id":91,"left_children":[1,-1,-1],"loss_changes":[2.5153139E0,0E0,0E0],"parents":[2147483647,0,0],"right_children":[2,-1,-1],"split_conditions":[1.263473E-1,-7.252037E-3,3.304592E-2],"split_indices":[34,0,0],"split_type":[0,0,0],"sum_hessian":[1.4231687E1,8.885749E0,5.3459377E0],"tree_param":{"num_deleted":"0","num_feature":"38","num_nodes":"3","size_leaf_vector":"1"}},{"base_weights":[-1.7104596E-1,2.2975293E-3,-2.1965733E-2],"categories":[],"categories_nodes":[],"categories_segments":[],"categories_sizes":[],"default_left":[0,0,0],"id":92,"left_children":[1,-1,-1],"loss_changes":[1.001697E0,0E0,0E0],"parents":[2147483647,0,0],"right_children":[2,-1,-1],"split_conditions":[3.8E-1,2.2975293E-3,-2.1965733E-2],"split_indices":[1,0,0],"split_type":[0,0,0],"sum_hessian":[1.5184832E1,8.64668E0,6.5381517E0],"tree_param":{"num_deleted":"0","num_feature":"38","num_nodes":"3","size_leaf_vector":"1"}},{"base_weights":[2.1210745E-2,-1.4295566E-2,1.4888885E-2],"categories":[],"categories_nodes":[],"categories_segments":[],"categories_sizes":[],"default_left":[0,0,0],"id":93,"left_children":[1,-1,-1],"loss_changes":[1.5632645E0,0E0,0E0],"parents":[2147483647,0,0],"right_children":[2,-1,-1],"split_conditions":[1.58E2,-1.4295566E-2,1.4888885E-2],"split_indices":[0,0,0],"split_type":[0,0,0],"sum_hessian":[1.6388071E1,7.5777593E0,8.810312E0],"tree_param":{"num_deleted":"0","num_feature":"38","num_nodes":"3","size_leaf_vector":"1"}},{"base_weights":[-6.270293E-2,5.9810504E-3,-1.2298913E-2],"categories":[],"categories_nodes":[],"categories_segments":[],"categories_sizes":[],"default_left":[0,0,0],"id":94,"left_children":[1,-1,-1],"loss_changes":[6.1293817E-1,0E0,0E0],"parents":[2147483647,0,0],"right_children":[2,-1,-1],"split_conditions":[1.98E2,5.9810504E-3,-1.2298913E-2],"split_indices":[33,0,0],"split_type":[0,0,0],"sum_hessian":[1.6084248E1,7.9636374E0,8.12061E0],"tree_param":{"num_deleted":"0","num_feature":"38","num_nodes":"3","size_leaf_vector":"1"}},{"base_weights":[6.1976356E-3,9.74258E-3,-1.0839495E-2],"categories":[],"categories_nodes":[],"categories_segments":[],"categories_sizes":[],"default_left":[0,0,0],"id":95,"left_children":[1,-1,-1],"loss_changes":[7.671103E-1,0E0,0E0],"parents":[2147483647,0,0],"right_children":[2,-1,-1],"split_conditions":[1E0,9.74258E-3,-1.0839495E-2],"split_indices":[29,0,0],"split_type":[0,0,0],"sum_hessian":[1.628324E1,9.131964E0,7.1512756E0],"tree_param":{"num_deleted":"0","num_feature":"38","num_nodes":"3","size_leaf_vector":"1"}},{"base_weights":[-4.367756E-3,-1.9883436E-1,1.6181996E-2,1.4330015E-2,-3.117613E-2],"categories":[],"categories_nodes":[],"categories_segments":[],"categories_sizes":[],"default_left":[0,0,0,0,0],"id":96,"left_children":[1,3,-1,-1,-1],"loss_changes":[1.1682072E0,2.6446493E0,0E0,0E0,0E0],"parents":[2147483647,0,0,1,1],"right_children":[2,4,-1,-1,-1],"split_conditions":[1E0,1.98E2,1.6181996E-2,1.4330015E-2,-3.117613E-2],"split_indices":[13,33,0,0,0],"split_type":[0,0,0,0,0],"sum_hessian":[1.650114E1,1.0797995E1,5.7031474E0,5.0804887E0,5.7175055E0],"tree_param":{"num_deleted":"0","num_feature":"38","num_nodes":"5","size_leaf_vector":"1"}},{"base_weights":[-8.005731E-2,-1.8791048E-2,8.670154E-3],"categories":[],"categories_nodes":[],"categories_segments":[],"categories_sizes":[],"default_left":[0,0,0],"id":97,"left_children":[1,-1,-1],"loss_changes":[1.406755E0,0E0,0E0],"parents":[2147483647,0,0],"right_children":[2,-1,-1],"split_conditions":[1.6081081E-1,-1.8791048E-2,8.670154E-3],"split_indices":[6,0,0],"split_type":[0,0,0],"sum_hessian":[1.6626305E1,7.632129E0,8.994175E0],"tree_param":{"num_deleted":"0","num_feature":"38","num_nodes":"3","size_leaf_vector":"1"}},{"base_weights":[-6.042051E-3,-1.2838915E-2,1.07167065E-2],"categories":[],"categories_nodes":[],"categories_segments":[],"categories_sizes":[],"default_left":[0,0,0],"id":98,"left_children":[1,-1,-1],"loss_changes":[1.039666E0,0E0,0E0],"parents":[2147483647,0,0],"right_children":[2,-1,-1],"split_conditions":[1.0177706E-1,-1.2838915E-2,1.07167065E-2],"split_indices":[34,0,0],"split_type":[0,0,0],"sum_hessian":[1.6742506E1,7.9667764E0,8.775729E0],"tree_param":{"num_deleted":"0","num_feature":"38","num_nodes":"3","size_leaf_vector":"1"}},{"base_weights":[8.1218824E-2,1.86322E-2,-1.3595529E-2],"categories":[],"categories_nodes":[],"categories_segments":[],"categories_sizes":[],"default_left":[0,0,0],"id":99,"left_children":[1,-1,-1],"loss_changes":[1.874018E0,0E0,0E0],"parents":[2147483647,0,0],"right_children":[2,-1,-1],"split_conditions":[2.15E2,1.86322E-2,-1.3595529E-2],"split_indices":[33,0,0],"split_type":[0,0,0],"sum_hessian":[1.6127638E1,8.960651E0,7.166987E0],"tree_param":{"num_deleted":"0","num_feature":"38","num_nodes":"3","size_leaf_vector":"1"}},{"base_weights":[-2.3039492E-2,1.1550616E-1,-1.6449822E-2,2.6071612E-2,-1.7828137E-2],"categories":[],"categories_nodes":[],"categories_segments":[],"categories_sizes":[],"default_left":[0,0,0,0,0],"id":100,"left_children":[1,3,-1,-1,-1],"loss_changes":[8.332622E-1,2.7092428E0,0E0,0E0,0E0],"parents":[2147483647,0,0,1,1],"right_children":[2,4,-1,-1,-1],"split_conditions":[4.7140452E-1,2.15E2,-1.6449822E-2,2.6071612E-2,-1.7828137E-2],"split_indices":[19,33,0,0,0],"split_type":[0,0,0,0,0],"sum_hessian":[1.7257378E1,1.2081965E1,5.175411E0,6.553747E0,5.5282187E0],"tree_param":{"num_deleted":"0","num_feature":"38","num_nodes":"5","size_leaf_vector":"1"}},{"base_weights":[3.3093553E-2,1.40887E-2,-1.0235654E-2],"categories":[],"categories_nodes":[],"categories_segments":[],"categories_sizes":[],"default_left":[0,0,0],"id":101,"left_children":[1,-1,-1],"loss_changes":[1.0196756E0,0E0,0E0],"parents":[2147483647,0,0],"right_children":[2,-1,-1],"split_conditions":[4.4606414E-1,1.40887E-2,-1.0235654E-2],"split_indices":[5,0,0],"split_type":[0,0,0],"sum_hessian":[1.5136643E1,7.514335E0,7.6223083E0],"tree_param":{"num_deleted":"0","num_feature":"38","num_nodes":"3","size_leaf_vector":"1"}},{"base_weights":[7.951627E-2,-1.14551E-2,1.908221E-2],"categories":[],"categories_nodes":[],"categories_segments":[],"categories_sizes":[],"default_left":[0,0,0],"id":102,"left_children":[1,-1,-1],"loss_changes":[1.7153901E0,0E0,0E0],"parents":[2147483647,0,0],"right_children":[2,-1,-1],"split_conditions":[1.58E2,-1.14551E-2,1.908221E-2],"split_indices":[0,0,0],"split_type":[0,0,0],"sum_hessian":[1.6295824E1,8.0171585E0,8.278666E0],"tree_param":{"num_deleted":"0","num_feature":"38","num_nodes":"3","size_leaf_vector":"1"}},{"base_weights":[-1.1215188E-1,-3.9680463E-1,2.223119E-2,-2.7033571E-2,-8.4551675E-3],"categories":[],"categories_nodes":[],"categories_segments":[],"categories_sizes":[],"default_left":[0,0,0,0,0],"id":103,"left_children":[1,3,-1,-1,-1],"loss_changes":[2.8343532E0,2.2297728E-1,0E0,0E0,0E0],"parents":[2147483647,0,0,1,1],"right_children":[2,4,-1,-1,-1],"split_conditions":[1.4669421E-1,4.189189E-1,2.223119E-2,-2.7033571E-2,-8.4551675E-3],"split_indices":[34,6,0,0,0],"split_type":[0,0,0,0,0],"sum_hessian":[1.5800712E1,1.0764341E1,5.0363703E0,5.4850903E0,5.279251E0],"tree_param":{"num_deleted":"0","num_feature":"38","num_nodes":"5","size_leaf_vector":"1"}},{"base_weights":[1.1051086E-1,2.5466291E-2,-1.6816696E-2],"categories":[],"categories_nodes":[],"categories_segments":[],"categories_sizes":[],"default_left":[0,0,0],"id":104,"left_children":[1,-1,-1],"loss_changes":[2.8960361E0,0E0,0E0],"parents":[2147483647,0,0],"right_children":[2,-1,-1],"split_conditions":[1E0,2.5466291E-2,-1.6816696E-2],"split_indices":[29,0,0],"split_type":[0,0,0],"sum_hessian":[1.4192515E1,7.543661E0,6.6488547E0],"tree_param":{"num_deleted":"0","num_feature":"38","num_nodes":"3","size_leaf_vector":"1"}},{"base_weights":[-1.8541212E-1,1.0321264E-3,-1.786629E-2],"categories":[],"categories_nodes":[],"categories_segments":[],"categories_sizes":[],"default_left":[0,0,0],"id":105,"left_children":[1,-1,-1],"loss_changes":[6.404152E-1,0E0,0E0],"parents":[2147483647,0,0],"right_children":[2,-1,-1],"split_conditions":[1.98E2,1.0321264E-3,-1.786629E-2],"split_indices":[33,0,0],"split_type":[0,0,0],"sum_hessian":[1.5920094E1,7.3766837E0,8.543409E0],"tree_param":{"num_deleted":"0","num_feature":"38","num_nodes":"3","size_leaf_vector":"1"}},{"base_weights":[5.764345E-2,1.8348584E-2,-1.2710322E-1,-1.9193744E-2,6.4257295E-3],"categories":[],"categories_nodes":[],"categories_segments":[],"categories_sizes":[],"default_left":[0,0,0,0,0],"id":106,"left_children":[1,-1,3,-1,-1],"loss_changes":[1.0384555E0,0E0,8.0626583E-1,0E0,0E0],"parents":[2147483647,0,0,2,2],"right_children":[2,-1,4,-1,-1],"split_conditions":[1.77E2,1.8348584E-2,2.45E2,-1.9193744E-2,6.4257295E-3],"split_indices":[33,0,0,0,0],"split_type":[0,0,0,0,0],"sum_hessian":[1.5935611E1,5.792292E0,1.0143318E1,5.0050907E0,5.1382275E0],"tree_param":{"num_deleted":"0","num_feature":"38","num_nodes":"5","size_leaf_vector":"1"}},{"base_weights":[1.9435866E-2,-9.340818E-3,1.9059887E-2],"categories":[],"categories_nodes":[],"categories_segments":[],"categories_sizes":[],"default_left":[0,0,0],"id":107,"left_children":[1,-1,-1],"loss_changes":[1.3213284E0,0E0,0E0],"parents":[2147483647,0,0],"right_children":[2,-1,-1],"split_conditions":[1.263473E-1,-9.340818E-3,1.9059887E-2],"split_indices":[34,0,0],"split_type":[0,0,0],"sum_hessian":[1.5493864E1,9.999812E0,5.4940515E0],"tree_param":{"num_deleted":"0","num_feature":"38","num_nodes":"3","size_leaf_vector":"1"}},{"base_weights":[-4.7385017E-3,-1.6350057E-2,1.1449224E-2],"categories":[],"categories_nodes":[],"categories_segments":[],"categories_sizes":[],"default_left":[0,0,0],"id":108,"left_children":[1,-1,-1],"loss_changes":[1.3276408E0,0E0,0E0],"parents":[2147483647,0,0],"right_children":[2,-1,-1],"split_conditions":[1.58E2,-1.6350057E-2,1.1449224E-2],"split_indices":[0,0,0],"split_type":[0,0,0],"sum_hessian":[1.550236E1,6.528909E0,8.973451E0],"tree_param":{"num_deleted":"0","num_feature":"38","num_nodes":"3","size_leaf_vector":"1"}},{"base_weights":[4.5338143E-3,8.7147495E-3,-1.2715235E-2],"categories":[],"categories_nodes":[],"categories_segments":[],"categories_sizes":[],"default_left":[0,0,0],"id":109,"left_children":[1,-1,-1],"loss_changes":[7.6594603E-1,0E0,0E0],"parents":[2147483647,0,0],"right_children":[2,-1,-1],"split_conditions":[3.8E-1,8.7147495E-3,-1.2715235E-2],"split_indices":[1,0,0],"split_type":[0,0,0],"sum_hessian":[1.5604706E1,9.854516E0,5.75019E0],"tree_param":{"num_deleted":"0","num_feature":"38","num_nodes":"3","size_leaf_vector":"1"}},{"base_weights":[1.026349E-1,1.4296901E-2,-9.836063E-3],"categories":[],"categories_nodes":[],"categories_segments":[],"categories_sizes":[],"default_left":[0,0,0],"id":110,"left_children":[1,-1,-1],"loss_changes":[9.049823E-1,0E0,0E0],"parents":[2147483647,0,0],"right_children":[2,-1,-1],"split_conditions":[3E0,1.4296901E-2,-9.836063E-3],"split_indices":[25,0,0],"split_type":[0,0,0],"sum_hessian":[1.4304646E1,9.10705E0,5.1975965E0],"tree_param":{"num_deleted":"0","num_feature":"38","num_nodes":"3","size_leaf_vector":"1"}},{"base_weights":[-2.7129166E-2,1.2555394E-1,-1.4452969E-2,-6.6734287E-3,1.8519482E-2],"categories":[],"categories_nodes":[],"categories_segments":[],"categories_sizes":[],"default_left":[0,0,0,0,0],"id":111,"left_children":[1,3,-1,-1,-1],"loss_changes":[7.359694E-1,7.865971E-1,0E0,0E0,0E0],"parents":[2147483647,0,0,1,1],"right_children":[2,4,-1,-1,-1],"split_conditions":[1.5476428E0,3.2188022E-1,-1.4452969E-2,-6.6734287E-3,1.8519482E-2],"split_indices":[2,2,0,0,0],"split_type":[0,0,0,0,0],"sum_hessian":[1.6086441E1,1.0250277E1,5.836164E0,5.003393E0,5.246883E0],"tree_param":{"num_deleted":"0","num_feature":"38","num_nodes":"5","size_leaf_vector":"1"}},{"base_weights":[5.4074515E-2,-6.329327E-2,1.52436765E-2,1.363115E-2,-1.9347915E-2],"categories":[],"categories_nodes":[],"categories_segments":[],"categories_sizes":[],"default_left":[0,0,0,0,0],"id":112,"left_children":[1,3,-1,-1,-1],"loss_changes":[5.715286E-1,1.5061328E0,0E0,0E0,0E0],"parents":[2147483647,0,0,1,1],"right_children":[2,4,-1,-1,-1],"split_conditions":[1.4669421E-1,3.5E-1,1.52436765E-2,1.363115E-2,-1.9347915E-2],"split_indices":[34,5,0,0,0],"split_type":[0,0,0,0,0],"sum_hessian":[1.6939905E1,1.1777318E1,5.162588E0,5.705055E0,6.072263E0],"tree_param":{"num_deleted":"0","num_feature":"38","num_nodes":"5","size_leaf_vector":"1"}},{"base_weights":[-8.235452E-2,9.0168575E-3,-1.7312748E-2],"categories":[],"categories_nodes":[],"categories_segments":[],"categories_sizes":[],"default_left":[0,0,0],"id":113,"left_children":[1,-1,-1],"loss_changes":[1.2219039E0,0E0,0E0],"parents":[2147483647,0,0],"right_children":[2,-1,-1],"split_conditions":[9.189189E-2,9.0168575E-3,-1.7312748E-2],"split_indices":[6,0,0],"split_type":[0,0,0],"sum_hessian":[1.54858055E1,7.7294636E0,7.7563424E0],"tree_param":{"num_deleted":"0","num_feature":"38","num_nodes":"3","size_leaf_vector":"1"}},{"base_weights":[7.384677E-2,1.4951139E-2,-6.7515965E-3],"categories":[],"categories_nodes":[],"categories_segments":[],"categories_sizes":[],"default_left":[0,0,0],"id":114,"left_children":[1,-1,-1],"loss_changes":[8.26209E-1,0E0,0E0],"parents":[2147483647,0,0],"right_children":[2,-1,-1],"split_conditions":[1.97E2,1.4951139E-2,-6.7515965E-3],"split_indices":[33,0,0],"split_type":[0,0,0],"sum_hessian":[1.5358904E1,7.4138207E0,7.945083E0],"tree_param":{"num_deleted":"0","num_feature":"38","num_nodes":"3","size_leaf_vector":"1"}},{"base_weights":[3.74026E-2,-7.943667E-3,1.9368283E-2],"categories":[],"categories_nodes":[],"categories_segments":[],"categories_sizes":[],"default_left":[0,0,0],"id":115,"left_children":[1,-1,-1],"loss_changes":[1.1985501E0,0E0,0E0],"parents":[2147483647,0,0],"right_children":[2,-1,-1],"split_conditions":[1E0,-7.943667E-3,1.9368283E-2],"split_indices":[13,0,0],"split_type":[0,0,0],"sum_hessian":[1.5220262E1,9.918038E0,5.3022237E0],"tree_param":{"num_deleted":"0","num_feature":"38","num_nodes":"3","size_leaf_vector":"1"}},{"base_weights":[2.3950918E-1,2.250751E-2,-6.4832713E-3],"categories":[],"categories_nodes":[],"categories_segments":[],"categories_sizes":[],"default_left":[0,0,0],"id":116,"left_children":[1,-1,-1],"loss_changes":[1.2930932E0,0E0,0E0],"parents":[2147483647,0,0],"right_children":[2,-1,-1],"split_conditions":[4.3925E-1,2.250751E-2,-6.4832713E-3],"split_indices":[10,0,0],"split_type":[0,0,0],"sum_hessian":[1.4465856E1,9.243372E0,5.222484E0],"tree_param":{"num_deleted":"0","num_feature":"38","num_nodes":"3","size_leaf_vector":"1"}},{"base_weights":[-7.6990165E-2,-2.2703266E-1,8.148441E-3,4.7608433E-4,-2.2079192E-2],"categories":[],"categories_nodes":[],"categories_segments":[],"categories_sizes":[],"default_left":[0,0,0,0,0],"id":117,"left_children":[1,3,-1,-1,-1],"loss_changes":[6.621422E-1,6.1827743E-1,0E0,0E0,0E0],"parents":[2147483647,0,0,1,1],"right_children":[2,4,-1,-1,-1],"split_conditions":[1.263473E-1,1.48E2,8.148441E-3,4.7608433E-4,-2.2079192E-2],"split_indices":[34,33,0,0,0],"split_type":[0,0,0,0,0],"sum_hessian":[1.6185196E1,1.0247934E1,5.937262E0,5.106867E0,5.141067E0],"tree_param":{"num_deleted":"0","num_feature":"38","num_nodes":"5","size_leaf_vector":"1"}},{"base_weights":[5.2866496E-2,1.35860415E-2,-1.0442375E-2],"categories":[],"categories_nodes":[],"categories_segments":[],"categories_sizes":[],"default_left":[0,0,0],"id":118,"left_children":[1,-1,-1],"loss_changes":[1.0287492E0,0E0,0E0],"parents":[2147483647,0,0],"right_children":[2,-1,-1],"split_conditions":[1E0,1.35860415E-2,-1.0442375E-2],"split_indices":[29,0,0],"split_type":[0,0,0],"sum_hessian":[1.5860338E1,8.824688E0,7.03565E0],"tree_param":{"num_deleted":"0","num_feature":"38","num_nodes":"3","size_leaf_vector":"1"}},{"base_weights":[1.1514058E-1,1.6553823E-2,-1.0552399E-2],"categories":[],"categories_nodes":[],"categories_segments":[],"categories_sizes":[],"default_left":[0,0,0],"id":119,"left_children":[1,-1,-1],"loss_changes":[1.2180037E0,0E0,0E0],"parents":[2147483647,0,0],"right_children":[2,-1,-1],"split_conditions":[2E0,1.6553823E-2,-1.0552399E-2],"split_indices":[25,0,0],"split_type":[0,0,0],"sum_hessian":[1.5129976E1,9.278935E0,5.8510413E0],"tree_param":{"num_deleted":"0","num_feature":"38","num_nodes":"3","size_leaf_vector":"1"}},{"base_weights":[-8.940289E-2,-1.5118926E-2,8.913814E-3],"categories":[],"categories_nodes":[],"categories_segments":[],"categories_sizes":[],"default_left":[0,0,0],"id":120,"left_children":[1,-1,-1],"loss_changes":[9.846554E-1,0E0,0E0],"parents":[2147483647,0,0],"right_children":[2,-1,-1],"split_conditions":[3.5E-1,-1.5118926E-2,8.913814E-3],"split_indices":[6,0,0],"split_type":[0,0,0],"sum_hessian":[1.5108614E1,8.549924E0,6.5586905E0],"tree_param":{"num_deleted":"0","num_feature":"38","num_nodes":"3","size_leaf_vector":"1"}},{"base_weights":[5.8736615E-2,-1.4156914E-1,2.230377E-2,1.0372743E-2,-2.32932E-2],"categories":[],"categories_nodes":[],"categories_segments":[],"categories_sizes":[],"default_left":[0,0,0,0,0],"id":121,"left_children":[1,3,-1,-1,-1],"loss_changes":[1.383976E0,1.4299484E0,0E0,0E0,0E0],"parents":[2147483647,0,0,1,1],"right_children":[2,4,-1,-1,-1],"split_conditions":[1.4669421E-1,4.4606414E-1,2.230377E-2,1.0372743E-2,-2.32932E-2],"split_indices":[34,5,0,0,0],"split_type":[0,0,0,0,0],"sum_hessian":[1.5631503E1,1.05513735E1,5.0801296E0,5.106936E0,5.4444375E0],"tree_param":{"num_deleted":"0","num_feature":"38","num_nodes":"5","size_leaf_vector":"1"}},{"base_weights":[-3.8141288E-2,-9.889242E-3,6.3460604E-3],"categories":[],"categories_nodes":[],"categories_segments":[],"categories_sizes":[],"default_left":[0,0,0],"id":122,"left_children":[1,-1,-1],"loss_changes":[4.6627575E-1,0E0,0E0],"parents":[2147483647,0,0],"right_children":[2,-1,-1],"split_conditions":[1.0177706E-1,-9.889242E-3,6.3460604E-3],"split_indices":[34,0,0],"split_type":[0,0,0],"sum_hessian":[1.5473139E1,8.072879E0,7.4002595E0],"tree_param":{"num_deleted":"0","num_feature":"38","num_nodes":"3","size_leaf_vector":"1"}},{"base_weights":[-1.1685254E-1,5.232064E-3,-1.7241582E-2],"categories":[],"categories_nodes":[],"categories_segments":[],"categories_sizes":[],"default_left":[0,0,0],"id":123,"left_children":[1,-1,-1],"loss_changes":[8.851275E-1,0E0,0E0],"parents":[2147483647,0,0],"right_children":[2,-1,-1],"split_conditions":[1.98E2,5.232064E-3,-1.7241582E-2],"split_indices":[33,0,0],"split_type":[0,0,0],"sum_hessian":[1.5338429E1,7.831794E0,7.506635E0],"tree_param":{"num_deleted":"0","num_feature":"38","num_nodes":"3","size_leaf_vector":"1"}},{"base_weights":[1.1906661E-1,1.8885443E-2,-1.0274671E-2],"categories":[],"categories_nodes":[],"categories_segments":[],"categories_sizes":[],"default_left":[0,0,0],"id":124,"left_children":[1,-1,-1],"loss_changes":[1.4057221E0,0E0,0E0],"parents":[2147483647,0,0],"right_children":[2,-1,-1],"split_conditions":[3.8E-1,1.8885443E-2,-1.0274671E-2],"split_indices":[1,0,0],"split_type":[0,0,0],"sum_hessian":[1.4615996E1,8.214335E0,6.4016604E0],"tree_param":{"num_deleted":"0","num_feature":"38","num_nodes":"3","size_leaf_vector":"1"}},{"base_weights":[-9.551515E-3,-1.4792042E-2,1.1930138E-2],"categories":[],"categories_nodes":[],"categories_segments":[],"categories_sizes":[],"default_left":[0,0,0],"id":125,"left_children":[1,-1,-1],"loss_changes":[1.3135394E0,0E0,0E0],"parents":[2147483647,0,0],"right_children":[2,-1,-1],"split_conditions":[1E0,-1.4792042E-2,1.1930138E-2],"split_indices":[25,0,0],"split_type":[0,0,0],"sum_hessian":[1.6414963E1,7.7197237E0,8.69524E0],"tree_param":{"num_deleted":"0","num_feature":"38","num_nodes":"3","size_leaf_vector":"1"}},{"base_weights":[2.2099374E-3,1.1903261E-2,-1.2237487E-2],"categories":[],"categories_nodes":[],"categories_segments":[],"categories_sizes":[],"default_left":[0,0,0],"id":126,"left_children":[1,-1,-1],"loss_changes":[1.0622739E0,0E0,0E0],"parents":[2147483647,0,0],"right_children":[2,-1,-1],"split_conditions":[1E0,1.1903261E-2,-1.2237487E-2],"split_indices":[29,0,0],"split_type":[0,0,0],"sum_hessian":[1.624862E1,8.536704E0,7.7119155E0],"tree_param":{"num_deleted":"0","num_feature":"38","num_nodes":"3","size_leaf_vector":"1"}},{"base_weights":[-8.52373E-2,-3.2022136E-1,1.8339306E-2,-4.1807205E-3,-2.4823409E-2],"categories":[],"categories_nodes":[],"categories_segments":[],"categories_sizes":[],"default_left":[0,0,0,0,0],"id":127,"left_children":[1,3,-1,-1,-1],"loss_changes":[1.8826697E0,3.8599765E-1,0E0,0E0,0E0],"parents":[2147483647,0,0,1,1],"right_children":[2,4,-1,-1,-1],"split_conditions":[2.75E2,8.13367E-2,1.8339306E-2,-4.1807205E-3,-2.4823409E-2],"split_indices":[33,34,0,0,0],"split_type":[0,0,0,0,0],"sum_hessian":[1.5662602E1,1.0642774E1,5.0198283E0,5.415032E0,5.227742E0],"tree_param":{"num_deleted":"0","num_feature":"38","num_nodes":"5","size_leaf_vector":"1"}},{"base_weights":[-0E0,1.0813358E-2,-8.997482E-3],"categories":[],"categories_nodes":[],"categories_segments":[],"categories_sizes":[],"default_left":[0,0,0],"id":128,"left_children":[1,-1,-1],"loss_changes":[6.2739116E-1,0E0,0E0],"parents":[2147483647,0,0],"right_children":[2,-1,-1],"split_conditions":[6.850447E-1,1.0813358E-2,-8.997482E-3],"split_indices":[2,0,0],"split_type":[0,0,0],"sum_hessian":[1.409261E1,6.386043E0,7.7065673E0],"tree_param":{"num_deleted":"0","num_feature":"38","num_nodes":"3","size_leaf_vector":"1"}},{"base_weights":[-1.2579901E-2,-1.3379954E-2,8.792802E-3],"categories":[],"categories_nodes":[],"categories_segments":[],"categories_sizes":[],"default_left":[0,0,0],"id":129,"left_children":[1,-1,-1],"loss_changes":[8.730488E-1,0E0,0E0],"parents":[2147483647,0,0],"right_children":[2,-1,-1],"split_conditions":[5E-1,-1.3379954E-2,8.792802E-3],"split_indices":[14,0,0],"split_type":[0,0,0],"sum_hessian":[1.5997594E1,6.844793E0,9.1528015E0],"tree_param":{"num_deleted":"0","num_feature":"38","num_nodes":"3","size_leaf_vector":"1"}},{"base_weights":[8.003292E-2,-7.1790903E-3,1.34723475E-2],"categories":[],"categories_nodes":[],"categories_segments":[],"categories_sizes":[],"default_left":[0,0,0],"id":130,"left_children":[1,-1,-1],"loss_changes":[8.040941E-1,0E0,0E0],"parents":[2147483647,0,0],"right_children":[2,-1,-1],"split_conditions":[1.58E2,-7.1790903E-3,1.34723475E-2],"split_indices":[0,0,0],"split_type":[0,0,0],"sum_hessian":[1.677373E1,7.561245E0,9.212483E0],"tree_param":{"num_deleted":"0","num_feature":"38","num_nodes":"3","size_leaf_vector":"1"}},{"base_weights":[-0E0,9.599628E-3,-1.352451E-2],"categories":[],"categories_nodes":[],"categories_segments":[],"categories_sizes":[],"default_left":[0,0,0],"id":131,"left_children":[1,-1,-1],"loss_changes":[9.6832585E-1,0E0,0E0],"parents":[2147483647,0,0],"right_children":[2,-1,-1],"split_conditions":[3.8E-1,9.599628E-3,-1.352451E-2],"split_indices":[1,0,0],"split_type":[0,0,0],"sum_hessian":[1.6601728E1,9.816183E0,6.7855453E0],"tree_param":{"num_deleted":"0","num_feature":"38","num_nodes":"3","size_leaf_vector":"1"}},{"base_weights":[-1.19324274E-1,8.4386375E-3,-2.726376E-1,-2.6020402E-2,-0E0],"categories":[],"categories_nodes":[],"categories_segments":[],"categories_sizes":[],"default_left":[0,0,0,0,0],"id":132,"left_children":[1,-1,3,-1,-1],"loss_changes":[8.2313716E-1,0E0,7.9396147E-1,0E0,0E0],"parents":[2147483647,0,0,2,2],"right_children":[2,-1,4,-1,-1],"split_conditions":[2E-2,8.4386375E-3,2.11E2,-2.6020402E-2,-0E0],"split_indices":[1,0,0,0,0],"split_type":[0,0,0,0,0],"sum_hessian":[1.6359116E1,5.4203787E0,1.0938737E1,5.2083855E0,5.730352E0],"tree_param":{"num_deleted":"0","num_feature":"38","num_nodes":"5","size_leaf_vector":"1"}},{"base_weights":[-8.428191E-3,1.1560312E-2,-1.6201044E-2],"categories":[],"categories_nodes":[],"categories_segments":[],"categories_sizes":[],"default_left":[0,0,0],"id":133,"left_children":[1,-1,-1],"loss_changes":[1.4109459E0,0E0,0E0],"parents":[2147483647,0,0],"right_children":[2,-1,-1],"split_conditions":[2.13E2,1.1560312E-2,-1.6201044E-2],"split_indices":[33,0,0],"split_type":[0,0,0],"sum_hessian":[1.6543352E1,9.375168E0,7.1681848E0],"tree_param":{"num_deleted":"0","num_feature":"38","num_nodes":"3","size_leaf_vector":"1"}},{"base_weights":[-1.06936924E-1,-1.6633406E-2,5.0427592E-3],"categories":[],"categories_nodes":[],"categories_segments":[],"categories_sizes":[],"default_left":[0,0,0],"id":134,"left_children":[1,-1,-1],"loss_changes":[8.6616296E-1,0E0,0E0],"parents":[2147483647,0,0],"right_children":[2,-1,-1],"split_conditions":[5E-1,-1.6633406E-2,5.0427592E-3],"split_indices":[26,0,0],"split_type":[0,0,0],"sum_hessian":[1.6256744E1,7.7346406E0,8.522103E0],"tree_param":{"num_deleted":"0","num_feature":"38","num_nodes":"3","size_leaf_vector":"1"}},{"base_weights":[2.166882E-2,-1.743078E-2,1.2918725E-2],"categories":[],"categories_nodes":[],"categories_segments":[],"categories_sizes":[],"default_left":[0,0,0],"id":135,"left_children":[1,-1,-1],"loss_changes":[1.4776407E0,0E0,0E0],"parents":[2147483647,0,0],"right_children":[2,-1,-1],"split_conditions":[5.3E1,-1.743078E-2,1.2918725E-2],"split_indices":[0,0,0],"split_type":[0,0,0],"sum_hessian":[1.4934018E1,5.4746475E0,9.459371E0],"tree_param":{"num_deleted":"0","num_feature":"38","num_nodes":"3","size_leaf_vector":"1"}},{"base_weights":[-1.425284E-2,-1.1071474E-2,8.430505E-3],"categories":[],"categories_nodes":[],"categories_segments":[],"categories_sizes":[],"default_left":[0,0,0],"id":136,"left_children":[1,-1,-1],"loss_changes":[6.902305E-1,0E0,0E0],"parents":[2147483647,0,0],"right_children":[2,-1,-1],"split_conditions":[1.0177706E-1,-1.1071474E-2,8.430505E-3],"split_indices":[34,0,0],"split_type":[0,0,0],"sum_hessian":[1.609422E1,7.7029862E0,8.3912325E0],"tree_param":{"num_deleted":"0","num_feature":"38","num_nodes":"3","size_leaf_vector":"1"}},{"base_weights":[-1.3559277E-2,-1.048083E-2,6.505231E-3],"categories":[],"categories_nodes":[],"categories_segments":[],"categories_sizes":[],"default_left":[0,0,0],"id":137,"left_children":[1,-1,-1],"loss_changes":[4.9656478E-1,0E0,0E0],"parents":[2147483647,0,0],"right_children":[2,-1,-1],"split_conditions":[1.33E2,-1.048083E-2,6.505231E-3],"split_indices":[0,0,0],"split_type":[0,0,0],"sum_hessian":[1.53791685E1,6.603881E0,8.775288E0],"tree_param":{"num_deleted":"0","num_feature":"38","num_nodes":"3","size_leaf_vector":"1"}},{"base_weights":[2.1777789E-3,-8.153955E-3,1.3658491E-2],"categories":[],"categories_nodes":[],"categories_segments":[],"categories_sizes":[],"default_left":[0,0,0],"id":138,"left_children":[1,-1,-1],"loss_changes":[7.7636915E-1,0E0,0E0],"parents":[2147483647,0,0],"right_children":[2,-1,-1],"split_conditions":[1.263473E-1,-8.153955E-3,1.3658491E-2],"split_indices":[34,0,0],"split_type":[0,0,0],"sum_hessian":[1.5095549E1,9.395292E0,5.700256E0],"tree_param":{"num_deleted":"0","num_feature":"38","num_nodes":"3","size_leaf_vector":"1"}},{"base_weights":[8.445421E-2,-1.0508905E-2,1.8227568E-2],"categories":[],"categories_nodes":[],"categories_segments":[],"categories_sizes":[],"default_left":[0,0,0],"id":139,"left_children":[1,-1,-1],"loss_changes":[1.4980396E0,0E0,0E0],"parents":[2147483647,0,0],"right_children":[2,-1,-1],"split_conditions":[2.6E-1,-1.0508905E-2,1.8227568E-2],"split_indices":[1,0,0],"split_type":[0,0,0],"sum_hessian":[1.6036901E1,7.76332E0,8.273581E0],"tree_param":{"num_deleted":"0","num_feature":"38","num_nodes":"3","size_leaf_vector":"1"}},{"base_weights":[-1.23460814E-1,-1.898638E-2,5.247001E-3],"categories":[],"categories_nodes":[],"categories_segments":[],"categories_sizes":[],"default_left":[0,0,0],"id":140,"left_children":[1,-1,-1],"loss_changes":[1.0816057E0,0E0,0E0],"parents":[2147483647,0,0],"right_children":[2,-1,-1],"split_conditions":[1.0177706E-1,-1.898638E-2,5.247001E-3],"split_indices":[34,0,0],"split_type":[0,0,0],"sum_hessian":[1.6328749E1,7.589063E0,8.739685E0],"tree_param":{"num_deleted":"0","num_feature":"38","num_nodes":"3","size_leaf_vector":"1"}},{"base_weights":[2.9848203E-2,-1.0055466E-2,1.4579745E-2],"categories":[],"categories_nodes":[],"categories_segments":[],"categories_sizes":[],"default_left":[0,0,0],"id":141,"left_children":[1,-1,-1],"loss_changes":[1.1248499E0,0E0,0E0],"parents":[2147483647,0,0],"right_children":[2,-1,-1],"split_conditions":[1.0177706E-1,-1.0055466E-2,1.4579745E-2],"split_indices":[34,0,0],"split_type":[0,0,0],"sum_hessian":[1.648747E1,8.678997E0,7.808474E0],"tree_param":{"num_deleted":"0","num_feature":"38","num_nodes":"3","size_leaf_vector":"1"}},{"base_weights":[-5.1344145E-2,1.1458968E-2,-1.9595176E-2],"categories":[],"categories_nodes":[],"categories_segments":[],"categories_sizes":[],"default_left":[0,0,0],"id":142,"left_children":[1,-1,-1],"loss_changes":[1.6335621E0,0E0,0E0],"parents":[2147483647,0,0],"right_children":[2,-1,-1],"split_conditions":[1E0,1.1458968E-2,-1.9595176E-2],"split_indices":[29,0,0],"split_type":[0,0,0],"sum_hessian":[1.4988643E1,8.237069E0,6.751573E0],"tree_param":{"num_deleted":"0","num_feature":"38","num_nodes":"3","size_leaf_vector":"1"}},{"base_weights":[7.752184E-2,-4.6538943E-3,1.3155182E-2],"categories":[],"categories_nodes":[],"categories_segments":[],"categories_sizes":[],"default_left":[0,0,0],"id":143,"left_children":[1,-1,-1],"loss_changes":[5.6278586E-1,0E0,0E0],"parents":[2147483647,0,0],"right_children":[2,-1,-1],"split_conditions":[3.5E-1,-4.6538943E-3,1.3155182E-2],"split_indices":[6,0,0],"split_type":[0,0,0],"sum_hessian":[1.5465282E1,8.036854E0,7.4284286E0],"tree_param":{"num_deleted":"0","num_feature":"38","num_nodes":"3","size_leaf_vector":"1"}},{"base_weights":[1.111482E-2,1.4239386E-2,-1.7063763E-2],"categories":[],"categories_nodes":[],"categories_segments":[],"categories_sizes":[],"default_left":[0,0,0],"id":144,"left_children":[1,-1,-1],"loss_changes":[1.5225389E0,0E0,0E0],"parents":[2147483647,0,0],"right_children":[2,-1,-1],"split_conditions":[2.15E2,1.4239386E-2,-1.7063763E-2],"split_indices":[33,0,0],"split_type":[0,0,0],"sum_hessian":[1.3838267E1,8.056809E0,5.7814574E0],"tree_param":{"num_deleted":"0","num_feature":"38","num_nodes":"3","size_leaf_vector":"1"}},{"base_weights":[1.2229235E-1,2.196479E-2,-8.039671E-3],"categories":[],"categories_nodes":[],"categories_segments":[],"categories_sizes":[],"default_left":[0,0,0],"id":145,"left_children":[1,-1,-1],"loss_changes":[1.5401803E0,0E0,0E0],"parents":[2147483647,0,0],"right_children":[2,-1,-1],"split_conditions":[3.5E-1,2.196479E-2,-8.039671E-3],"split_indices":[5,0,0],"split_type":[0,0,0],"sum_hessian":[1.5065385E1,7.013267E0,8.052117E0],"tree_param":{"num_deleted":"0","num_feature":"38","num_nodes":"3","size_leaf_vector":"1"}},{"base_weights":[-3.431388E-2,1.300554E-2,-1.7954196E-1,-2.3831552E-2,5.6079505E-3],"categories":[],"categories_nodes":[],"categories_segments":[],"categories_sizes":[],"default_left":[0,0,0,0,0],"id":146,"left_children":[1,-1,3,-1,-1],"loss_changes":[7.956808E-1,0E0,1.1883867E0,0E0,0E0],"parents":[2147483647,0,0,2,2],"right_children":[2,-1,4,-1,-1],"split_conditions":[2E-2,1.300554E-2,4.189189E-1,-2.3831552E-2,5.6079505E-3],"split_indices":[1,0,5,0,0],"split_type":[0,0,0,0,0],"sum_hessian":[1.670485E1,5.0292654E0,1.1675584E1,5.6401243E0,6.0354595E0],"tree_param":{"num_deleted":"0","num_feature":"38","num_nodes":"5","size_leaf_vector":"1"}},{"base_weights":[-6.7489535E-2,-1.7238062E-2,7.1710676E-2,1.3324263E-2,-6.1349245E-3],"categories":[],"categories_nodes":[],"categories_segments":[],"categories_sizes":[],"default_left":[0,0,0,0,0],"id":147,"left_children":[1,-1,3,-1,-1],"loss_changes":[7.323193E-1,0E0,5.136727E-1,0E0,0E0],"parents":[2147483647,0,0,2,2],"right_children":[2,-1,4,-1,-1],"split_conditions":[3.188929E-2,-1.7238062E-2,1.5476428E0,1.3324263E-2,-6.1349245E-3],"split_indices":[34,0,2,0,0],"split_type":[0,0,0,0,0],"sum_hessian":[1.6625822E1,5.3034954E0,1.1322327E1,5.727598E0,5.5947285E0],"tree_param":{"num_deleted":"0","num_feature":"38","num_nodes":"5","size_leaf_vector":"1"}},{"base_weights":[-1.5187983E-1,-2.1642804E-2,9.065031E-3],"categories":[],"categories_nodes":[],"categories_segments":[],"categories_sizes":[],"default_left":[0,0,0],"id":148,"left_children":[1,-1,-1],"loss_changes":[1.6255774E0,0E0,0E0],"parents":[2147483647,0,0],"right_children":[2,-1,-1],"split_conditions":[1.0177706E-1,-2.1642804E-2,9.065031E-3],"split_indices":[34,0,0],"split_type":[0,0,0],"sum_hessian":[1.5257352E1,8.277653E0,6.9796996E0],"tree_param":{"num_deleted":"0","num_feature":"38","num_nodes":"3","size_leaf_vector":"1"}},{"base_weights":[5.857494E-3,1.9950625E-1,-1.5841812E-2,2.4624629E-2,-3.9797896E-3],"categories":[],"categories_nodes":[],"categories_segments":[],"categories_sizes":[],"default_left":[0,0,0,0,0],"id":149,"left_children":[1,3,-1,-1,-1],"loss_changes":[1.152111E0,1.0466242E0,0E0,0E0,0E0],"parents":[2147483647,0,0,1,1],"right_children":[2,4,-1,-1,-1],"split_conditions":[1.5476428E0,3.5E-1,-1.5841812E-2,2.4624629E-2,-3.9797896E-3],"split_indices":[2,5,0,0,0],"split_type":[0,0,0,0,0],"sum_hessian":[1.6613163E1,1.0814819E1,5.7983427E0,5.07797E0,5.7368493E0],"tree_param":{"num_deleted":"0","num_feature":"38","num_nodes":"5","size_leaf_vector":"1"}},{"base_weights":[-1.5317038E-1,-2.226337E-2,5.1182522E-3],"categories":[],"categories_nodes":[],"categories_segments":[],"categories_sizes":[],"default_left":[0,0,0],"id":150,"left_children":[1,-1,-1],"loss_changes":[1.2444775E0,0E0,0E0],"parents":[2147483647,0,0],"right_children":[2,-1,-1],"split_conditions":[1.0035843E-1,-2.226337E-2,5.1182522E-3],"split_indices":[34,0,0],"split_type":[0,0,0],"sum_hessian":[1.4602755E1,6.65006E0,7.952694E0],"tree_param":{"num_deleted":"0","num_feature":"38","num_nodes":"3","size_leaf_vector":"1"}},{"base_weights":[1.080513E-2,-8.074223E-3,9.482039E-3],"categories":[],"categories_nodes":[],"categories_segments":[],"categories_sizes":[],"default_left":[0,0,0],"id":151,"left_children":[1,-1,-1],"loss_changes":[5.391401E-1,0E0,0E0],"parents":[2147483647,0,0],"right_children":[2,-1,-1],"split_conditions":[1.58E2,-8.074223E-3,9.482039E-3],"split_indices":[0,0,0],"split_type":[0,0,0],"sum_hessian":[1.5412704E1,7.6146398E0,7.798065E0],"tree_param":{"num_deleted":"0","num_feature":"38","num_nodes":"3","size_leaf_vector":"1"}},{"base_weights":[5.402251E-2,-5.487371E-3,1.6882958E-2],"categories":[],"categories_nodes":[],"categories_segments":[],"categories_sizes":[],"default_left":[0,0,0],"id":152,"left_children":[1,-1,-1],"loss_changes":[8.1841165E-1,0E0,0E0],"parents":[2147483647,0,0],"right_children":[2,-1,-1],"split_conditions":[2.16E2,-5.487371E-3,1.6882958E-2],"split_indices":[0,0,0],"split_type":[0,0,0],"sum_hessian":[1.5330344E1,9.883933E0,5.4464107E0],"tree_param":{"num_deleted":"0","num_feature":"38","num_nodes":"3","size_leaf_vector":"1"}},{"base_weights":[1.3845885E-1,2.0123182E-2,-7.0387917E-3],"categories":[],"categories_nodes":[],"categories_segments":[],"categories_sizes":[],"default_left":[0,0,0],"id":153,"left_children":[1,-1,-1],"loss_changes":[1.2788508E0,0E0,0E0],"parents":[2147483647,0,0],"right_children":[2,-1,-1],"split_conditions":[1E0,2.0123182E-2,-7.0387917E-3],"split_indices":[26,0,0],"split_type":[0,0,0],"sum_hessian":[1.5224045E1,7.782668E0,7.441376E0],"tree_param":{"num_deleted":"0","num_feature":"38","num_nodes":"3","size_leaf_vector":"1"}},{"base_weights":[-1.9256609E-2,8.543345E-3,-1.4252144E-2],"categories":[],"categories_nodes":[],"categories_segments":[],"categories_sizes":[],"default_left":[0,0,0],"id":154,"left_children":[1,-1,-1],"loss_changes":[8.367254E-1,0E0,0E0],"parents":[2147483647,0,0],"right_children":[2,-1,-1],"split_conditions":[3.8E-1,8.543345E-3,-1.4252144E-2],"split_indices":[1,0,0],"split_type":[0,0,0],"sum_hessian":[1.4368482E1,8.365394E0,6.0030885E0],"tree_param":{"num_deleted":"0","num_feature":"38","num_nodes":"3","size_leaf_vector":"1"}},{"base_weights":[-1.0242227E-2,-1.0008563E-2,1.4602008E-2],"categories":[],"categories_nodes":[],"categories_segments":[],"categories_sizes":[],"default_left":[0,0,0],"id":155,"left_children":[1,-1,-1],"loss_changes":[9.3617105E-1,0E0,0E0],"parents":[2147483647,0,0],"right_children":[2,-1,-1],"split_conditions":[1.263473E-1,-1.0008563E-2,1.4602008E-2],"split_indices":[34,0,0],"split_type":[0,0,0],"sum_hessian":[1.4447933E1,9.2835455E0,5.164388E0],"tree_param":{"num_deleted":"0","num_feature":"38","num_nodes":"3","size_leaf_vector":"1"}},{"base_weights":[-1.3165522E-2,1.0777496E-2,-1.16214445E-2],"categories":[],"categories_nodes":[],"categories_segments":[],"categories_sizes":[],"default_left":[0,0,0],"id":156,"left_children":[1,-1,-1],"loss_changes":[8.5021067E-1,0E0,0E0],"parents":[2147483647,0,0],"right_children":[2,-1,-1],"split_conditions":[2E-1,1.0777496E-2,-1.16214445E-2],"split_indices":[1,0,0],"split_type":[0,0,0],"sum_hessian":[1.492104E1,7.088172E0,7.8328676E0],"tree_param":{"num_deleted":"0","num_feature":"38","num_nodes":"3","size_leaf_vector":"1"}},{"base_weights":[-2.777596E-2,7.1256193E-3,-1.2135875E-2],"categories":[],"categories_nodes":[],"categories_segments":[],"categories_sizes":[],"default_left":[0,0,0],"id":157,"left_children":[1,-1,-1],"loss_changes":[6.4219904E-1,0E0,0E0],"parents":[2147483647,0,0],"right_children":[2,-1,-1],"split_conditions":[3.8E-1,7.1256193E-3,-1.2135875E-2],"split_indices":[1,0,0],"split_type":[0,0,0],"sum_hessian":[1.5326638E1,8.480029E0,6.8466096E0],"tree_param":{"num_deleted":"0","num_feature":"38","num_nodes":"3","size_leaf_vector":"1"}},{"base_weights":[5.4729797E-2,1.3047138E-2,-7.1874596E-3],"categories":[],"categories_nodes":[],"categories_segments":[],"categories_sizes":[],"default_left":[0,0,0],"id":158,"left_children":[1,-1,-1],"loss_changes":[7.267461E-1,0E0,0E0],"parents":[2147483647,0,0],"right_children":[2,-1,-1],"split_conditions":[1.98E2,1.3047138E-2,-7.1874596E-3],"split_indices":[33,0,0],"split_type":[0,0,0],"sum_hessian":[1.5553479E1,7.720873E0,7.8326063E0],"tree_param":{"num_deleted":"0","num_feature":"38","num_nodes":"3","size_leaf_vector":"1"}},{"base_weights":[-6.17105E-2,-1.7867738E-2,7.420916E-3],"categories":[],"categories_nodes":[],"categories_segments":[],"categories_sizes":[],"default_left":[0,0,0],"id":159,"left_children":[1,-1,-1],"loss_changes":[1.0658578E0,0E0,0E0],"parents":[2147483647,0,0],"right_children":[2,-1,-1],"split_conditions":[1.33E2,-1.7867738E-2,7.420916E-3],"split_indices":[0,0,0],"split_type":[0,0,0],"sum_hessian":[1.4967036E1,6.124841E0,8.8421955E0],"tree_param":{"num_deleted":"0","num_feature":"38","num_nodes":"3","size_leaf_vector":"1"}},{"base_weights":[-6.41047E-2,-1.597282E-2,9.767777E-3],"categories":[],"categories_nodes":[],"categories_segments":[],"categories_sizes":[],"default_left":[0,0,0],"id":160,"left_children":[1,-1,-1],"loss_changes":[1.0735074E0,0E0,0E0],"parents":[2147483647,0,0],"right_children":[2,-1,-1],"split_conditions":[2.8E-1,-1.597282E-2,9.767777E-3],"split_indices":[1,0,0],"split_type":[0,0,0],"sum_hessian":[1.4073743E1,7.170737E0,6.903006E0],"tree_param":{"num_deleted":"0","num_feature":"38","num_nodes":"3","size_leaf_vector":"1"}},{"base_weights":[-4.4979006E-2,1.0134671E-2,-2.1593897E-2],"categories":[],"categories_nodes":[],"categories_segments":[],"categories_sizes":[],"default_left":[0,0,0],"id":161,"left_children":[1,-1,-1],"loss_changes":[1.6351146E0,0E0,0E0],"parents":[2147483647,0,0],"right_children":[2,-1,-1],"split_conditions":[2.33E2,1.0134671E-2,-2.1593897E-2],"split_indices":[33,0,0],"split_type":[0,0,0],"sum_hessian":[1.4910988E1,9.223944E0,5.6870437E0],"tree_param":{"num_deleted":"0","num_feature":"38","num_nodes":"3","size_leaf_vector":"1"}},{"base_weights":[8.273449E-3,1.4994708E-2,-1.3275835E-2],"categories":[],"categories_nodes":[],"categories_segments":[],"categories_sizes":[],"default_left":[0,0,0],"id":162,"left_children":[1,-1,-1],"loss_changes":[1.356119E0,0E0,0E0],"parents":[2147483647,0,0],"right_children":[2,-1,-1],"split_conditions":[1.98E2,1.4994708E-2,-1.3275835E-2],"split_indices":[33,0,0],"split_type":[0,0,0],"sum_hessian":[1.4944496E1,7.3673005E0,7.577195E0],"tree_param":{"num_deleted":"0","num_feature":"38","num_nodes":"3","size_leaf_vector":"1"}},{"base_weights":[-4.6696804E-2,-1.5567394E-2,6.734043E-3],"categories":[],"categories_nodes":[],"categories_segments":[],"categories_sizes":[],"default_left":[0,0,0],"id":163,"left_children":[1,-1,-1],"loss_changes":[8.6251104E-1,0E0,0E0],"parents":[2147483647,0,0],"right_children":[2,-1,-1],"split_conditions":[9.189189E-2,-1.5567394E-2,6.734043E-3],"split_indices":[5,0,0],"split_type":[0,0,0],"sum_hessian":[1.5726706E1,6.328074E0,9.398631E0],"tree_param":{"num_deleted":"0","num_feature":"38","num_nodes":"3","size_leaf_vector":"1"}},{"base_weights":[-0E0,1.2047251E-2,-9.091548E-3],"categories":[],"categories_nodes":[],"categories_segments":[],"categories_sizes":[],"default_left":[0,0,0],"id":164,"left_children":[1,-1,-1],"loss_changes":[7.238661E-1,0E0,0E0],"parents":[2147483647,0,0],"right_children":[2,-1,-1],"split_conditions":[6.850447E-1,1.2047251E-2,-9.091548E-3],"split_indices":[2,0,0],"split_type":[0,0,0],"sum_hessian":[1.4596619E1,6.007863E0,8.588756E0],"tree_param":{"num_deleted":"0","num_feature":"38","num_nodes":"3",